{"learner":{"attributes":{"scikit_learn":"{\"_estimator_type\": \"regressor\"}"},"feature_names":["Temperatura","Umidade","Populacao","e_feriado","dia_semana","dia_mes","semana_ano","mes","trimestre"],"feature_types":["float","float","int","i","int","int","int","int","int"],"gradient_booster":{"model":{"gbtree_model_param":{"num_parallel_tree":"1","num_trees":"1000"},"iteration_indptr":[0,1,2,3,4,5,6,7,8,9,10,11,12,13,14,15,16,17,18,19,20,21,22,23,24,25,26,27,28,29,30,31,32,33,34,35,36,37,38,39,40,41,42,43,44,45,46,47,48,49,50,51,52,53,54,55,56,57,58,59,60,61,62,63,64,65,66,67,68,69,70,71,72,73,74,75,76,77,78,79,80,81,82,83,84,85,86,87,88,89,90,91,92,93,94,95,96,97,98,99,100,101,102,103,104,105,106,107,108,109,110,111,112,113,114,115,116,117,118,119,120,121,122,123,124,125,126,127,128,129,130,131,132,133,134,135,136,137,138,139,140,141,142,143,144,145,146,147,148,149,150,151,152,153,154,155,156,157,158,159,160,161,162,163,164,165,166,167,168,169,170,171,172,173,174,175,176,177,178,179,180,181,182,183,184,185,186,187,188,189,190,191,192,193,194,195,196,197,198,199,200,201,202,203,204,205,206,207,208,209,210,211,212,213,214,215,216,217,218,219,220,221,222,223,224,225,226,227,228,229,230,231,232,233,234,235,236,237,238,239,240,241,242,243,244,245,246,247,248,249,250,251,252,253,254,255,256,257,258,259,260,261,262,263,264,265,266,267,268,269,270,271,272,273,274,275,276,277,278,279,280,281,282,283,284,285,286,287,288,289,290,291,292,293,294,295,296,297,298,299,300,301,302,303,304,305,306,307,308,309,310,311,312,313,314,315,316,317,318,319,320,321,322,323,324,325,326,327,328,329,330,331,332,333,334,335,336,337,338,339,340,341,342,343,344,345,346,347,348,349,350,351,352,353,354,355,356,357,358,359,360,361,362,363,364,365,366,367,368,369,370,371,372,373,374,375,376,377,378,379,380,381,382,383,384,385,386,387,388,389,390,391,392,393,394,395,396,397,398,399,400,401,402,403,404,405,406,407,408,409,410,411,412,413,414,415,416,417,418,419,420,421,422,423,424,425,426,427,428,429,430,431,432,433,434,435,436,437,438,439,440,441,442,443,444,445,446,447,448,449,450,451,452,453,454,455,456,457,458,459,460,461,462,463,464,465,466,467,468,469,470,471,472,473,474,475,476,477,478,479,480,481,482,483,484,485,486,487,488,489,490,491,492,493,494,495,496,497,498,499,500,501,502,503,504,505,506,507,508,509,510,511,512,513,514,515,516,517,518,519,520,521,522,523,524,525,526,527,528,529,530,531,532,533,534,535,536,537,538,539,540,541,542,543,544,545,546,547,548,549,550,551,552,553,554,555,556,557,558,559,560,561,562,563,564,565,566,567,568,569,570,571,572,573,574,575,576,577,578,579,580,581,582,583,584,585,586,587,588,589,590,591,592,593,594,595,596,597,598,599,600,601,602,603,604,605,606,607,608,609,610,611,612,613,614,615,616,617,618,619,620,621,622,623,624,625,626,627,628,629,630,631,632,633,634,635,636,637,638,639,640,641,642,643,644,645,646,647,648,649,650,651,652,653,654,655,656,657,658,659,660,661,662,663,664,665,666,667,668,669,670,671,672,673,674,675,676,677,678,679,680,681,682,683,684,685,686,687,688,689,690,691,692,693,694,695,696,697,698,699,700,701,702,703,704,705,706,707,708,709,710,711,712,713,714,715,716,717,718,719,720,721,722,723,724,725,726,727,728,729,730,731,732,733,734,735,736,737,738,739,740,741,742,743,744,745,746,747,748,749,750,751,752,753,754,755,756,757,758,759,760,761,762,763,764,765,766,767,768,769,770,771,772,773,774,775,776,777,778,779,780,781,782,783,784,785,786,787,788,789,790,791,792,793,794,795,796,797,798,799,800,801,802,803,804,805,806,807,808,809,810,811,812,813,814,815,816,817,818,819,820,821,822,823,824,825,826,827,828,829,830,831,832,833,834,835,836,837,838,839,840,841,842,843,844,845,846,847,848,849,850,851,852,853,854,855,856,857,858,859,860,861,862,863,864,865,866,867,868,869,870,871,872,873,874,875,876,877,878,879,880,881,882,883,884,885,886,887,888,889,890,891,892,893,894,895,896,897,898,899,900,901,902,903,904,905,906,907,908,909,910,911,912,913,914,915,916,917,918,919,920,921,922,923,924,925,926,927,928,929,930,931,932,933,934,935,936,937,938,939,940,941,942,943,944,945,946,947,948,949,950,951,952,953,954,955,956,957,958,959,960,961,962,963,964,965,966,967,968,969,970,971,972,973,974,975,976,977,978,979,980,981,982,983,984,985,986,987,988,989,990,991,992,993,994,995,996,997,998,999,1000],"tree_info":[0,0,0,0,0,0,0,0,0,0,0,0,0,0,0,0,0,0,0,0,0,0,0,0,0,0,0,0,0,0,0,0,0,0,0,0,0,0,0,0,0,0,0,0,0,0,0,0,0,0,0,0,0,0,0,0,0,0,0,0,0,0,0,0,0,0,0,0,0,0,0,0,0,0,0,0,0,0,0,0,0,0,0,0,0,0,0,0,0,0,0,0,0,0,0,0,0,0,0,0,0,0,0,0,0,0,0,0,0,0,0,0,0,0,0,0,0,0,0,0,0,0,0,0,0,0,0,0,0,0,0,0,0,0,0,0,0,0,0,0,0,0,0,0,0,0,0,0,0,0,0,0,0,0,0,0,0,0,0,0,0,0,0,0,0,0,0,0,0,0,0,0,0,0,0,0,0,0,0,0,0,0,0,0,0,0,0,0,0,0,0,0,0,0,0,0,0,0,0,0,0,0,0,0,0,0,0,0,0,0,0,0,0,0,0,0,0,0,0,0,0,0,0,0,0,0,0,0,0,0,0,0,0,0,0,0,0,0,0,0,0,0,0,0,0,0,0,0,0,0,0,0,0,0,0,0,0,0,0,0,0,0,0,0,0,0,0,0,0,0,0,0,0,0,0,0,0,0,0,0,0,0,0,0,0,0,0,0,0,0,0,0,0,0,0,0,0,0,0,0,0,0,0,0,0,0,0,0,0,0,0,0,0,0,0,0,0,0,0,0,0,0,0,0,0,0,0,0,0,0,0,0,0,0,0,0,0,0,0,0,0,0,0,0,0,0,0,0,0,0,0,0,0,0,0,0,0,0,0,0,0,0,0,0,0,0,0,0,0,0,0,0,0,0,0,0,0,0,0,0,0,0,0,0,0,0,0,0,0,0,0,0,0,0,0,0,0,0,0,0,0,0,0,0,0,0,0,0,0,0,0,0,0,0,0,0,0,0,0,0,0,0,0,0,0,0,0,0,0,0,0,0,0,0,0,0,0,0,0,0,0,0,0,0,0,0,0,0,0,0,0,0,0,0,0,0,0,0,0,0,0,0,0,0,0,0,0,0,0,0,0,0,0,0,0,0,0,0,0,0,0,0,0,0,0,0,0,0,0,0,0,0,0,0,0,0,0,0,0,0,0,0,0,0,0,0,0,0,0,0,0,0,0,0,0,0,0,0,0,0,0,0,0,0,0,0,0,0,0,0,0,0,0,0,0,0,0,0,0,0,0,0,0,0,0,0,0,0,0,0,0,0,0,0,0,0,0,0,0,0,0,0,0,0,0,0,0,0,0,0,0,0,0,0,0,0,0,0,0,0,0,0,0,0,0,0,0,0,0,0,0,0,0,0,0,0,0,0,0,0,0,0,0,0,0,0,0,0,0,0,0,0,0,0,0,0,0,0,0,0,0,0,0,0,0,0,0,0,0,0,0,0,0,0,0,0,0,0,0,0,0,0,0,0,0,0,0,0,0,0,0,0,0,0,0,0,0,0,0,0,0,0,0,0,0,0,0,0,0,0,0,0,0,0,0,0,0,0,0,0,0,0,0,0,0,0,0,0,0,0,0,0,0,0,0,0,0,0,0,0,0,0,0,0,0,0,0,0,0,0,0,0,0,0,0,0,0,0,0,0,0,0,0,0,0,0,0,0,0,0,0,0,0,0,0,0,0,0,0,0,0,0,0,0,0,0,0,0,0,0,0,0,0,0,0,0,0,0,0,0,0,0,0,0,0,0,0,0,0,0,0,0,0,0,0,0,0,0,0,0,0,0,0,0,0,0,0,0,0,0,0,0,0,0,0,0,0,0,0,0,0,0,0,0,0,0,0,0,0,0,0,0,0,0,0,0,0,0,0,0,0,0,0,0,0,0,0,0,0,0,0,0,0,0,0,0,0,0,0,0,0,0,0,0,0,0,0,0,0,0,0,0,0,0,0,0,0,0,0,0,0,0,0,0,0,0,0,0,0,0,0,0,0,0,0,0,0,0,0,0,0,0,0,0,0,0,0,0,0,0,0,0,0,0,0,0,0,0,0,0,0,0,0,0,0,0,0,0,0,0,0,0,0,0,0,0,0,0,0,0,0,0,0,0,0,0,0,0,0,0,0,0,0,0,0,0,0,0,0,0,0,0,0,0,0,0,0,0,0,0,0,0,0,0,0,0,0,0,0,0,0,0,0,0,0,0,0,0,0,0,0,0,0,0,0,0,0,0,0,0,0,0,0,0,0,0,0,0,0,0,0,0,0,0,0,0,0,0,0,0],"trees":[{"base_weights":[1.0368473E1,1.0627245E3,-4.2019318E2,1.3246605E3,1.3826706E2,-1.1894497E2,-1.1819486E3,-2.0525195E2,1.4600884E3,-1.5335312E2,9.854742E0,-4.5884097E2,-4.5449533E0,-1.3341632E3,-5.758417E2,-6.1837287E0,1.5590173E0,1.6836019E3,8.6985803E2,1.13873375E2,-4.7502246E0,-5.52656E2,1.0234342E2,2.957056E1,-7.132386E0,-9.430823E2,-1.5936613E1,-2.7706006E2,-7.9236017E2,1.8185463E1,5.9333563E0,2.5752878E0,1.7953E1,2.6624217E0,-5.525386E0,-3.4188824E0,-7.841676E0,2.943042E0,-4.287302E0,-5.028512E-1,3.6747868E0,-1.7270346E-1,-1.0449908E1,1.1966381E0,-3.6312466E0,-2.1452417E0,-8.52912E0],"categories":[],"categories_nodes":[],"categories_segments":[],"categories_sizes":[],"default_left":[0,0,0,0,0,0,0,0,0,0,0,0,0,0,0,0,0,0,0,0,0,0,0,0,0,0,0,0,0,0,0,0,0,0,0,0,0,0,0,0,0,0,0,0,0,0,0],"id":0,"left_children":[1,3,5,7,9,11,13,15,17,19,-1,21,23,25,27,-1,-1,29,31,33,-1,35,37,39,-1,41,-1,43,45,-1,-1,-1,-1,-1,-1,-1,-1,-1,-1,-1,-1,-1,-1,-1,-1,-1,-1],"loss_changes":[1.264095E8,1.9430888E7,4.5295948E7,1.3352824E7,4.8453165E6,5.558342E6,4.398208E6,9.916063E5,6.187128E6,1.343471E6,0E0,1.9518715E6,2.6322555E6,2.962368E6,6.214615E5,0E0,0E0,4.95312E6,9.737811E6,1.0609728E6,0E0,1.244554E6,7.3784894E5,2.8248028E6,0E0,1.868914E6,0E0,2.8246012E5,6.1953E4,0E0,0E0,0E0,0E0,0E0,0E0,0E0,0E0,0E0,0E0,0E0,0E0,0E0,0E0,0E0,0E0,0E0,0E0],"parents":[2147483647,0,0,1,1,2,2,3,3,4,4,5,5,6,6,7,7,8,8,9,9,11,11,12,12,13,13,14,14,17,17,18,18,19,19,21,21,22,22,23,23,25,25,27,27,28,28],"right_children":[2,4,6,8,10,12,14,16,18,20,-1,22,24,26,28,-1,-1,30,32,34,-1,36,38,40,-1,42,-1,44,46,-1,-1,-1,-1,-1,-1,-1,-1,-1,-1,-1,-1,-1,-1,-1,-1,-1,-1],"split_conditions":[1.6E1,5E0,5E0,2E0,2.39E1,7.5E1,4.6E1,1E0,2.2E1,1.1E1,9.854742E0,3.9E1,5.2E1,2.9E1,6E0,-6.1837287E0,1.5590173E0,1.5E1,2.39E1,2.1E1,-4.7502246E0,1.4E1,4E0,4.7E1,-7.132386E0,1.55E1,-1.5936613E1,8E0,2E0,1.8185463E1,5.9333563E0,2.5752878E0,1.7953E1,2.6624217E0,-5.525386E0,-3.4188824E0,-7.841676E0,2.943042E0,-4.287302E0,-5.028512E-1,3.6747868E0,-1.7270346E-1,-1.0449908E1,1.1966381E0,-3.6312466E0,-2.1452417E0,-8.52912E0],"split_indices":[6,4,4,6,0,1,6,4,5,6,0,6,6,6,4,0,0,6,0,5,0,5,4,6,0,0,0,5,5,0,0,0,0,0,0,0,0,0,0,0,0,0,0,0,0,0,0],"split_type":[0,0,0,0,0,0,0,0,0,0,0,0,0,0,0,0,0,0,0,0,0,0,0,0,0,0,0,0,0,0,0,0,0,0,0,0,0,0,0,0,0,0,0,0,0,0,0],"sum_hessian":[2.77E2,8E1,1.97E2,6.2E1,1.8E1,1.42E2,5.5E1,5E0,5.7E1,1.4E1,4E0,3.5E1,1.07E2,4.3E1,1.2E1,2E0,3E0,4E1,1.7E1,8E0,6E0,3E1,5E0,1.03E2,4E0,1.9E1,2.4E1,6E0,6E0,3.5E1,5E0,1.1E1,6E0,7E0,1E0,1.7E1,1.3E1,4E0,1E0,8.4E1,1.9E1,2E0,1.7E1,1E0,5E0,1E0,5E0],"tree_param":{"num_deleted":"0","num_feature":"9","num_nodes":"47","size_leaf_vector":"1"}},{"base_weights":[5.0981136E1,9.8838715E2,-3.5563318E2,1.2686296E3,1.882143E2,-9.463194E1,-1.1117208E3,-1.978635E2,1.4211182E3,5.145728E2,-5.2882434E2,-1.6375783E2,3.9786807E2,-7.922723E2,-1.3781631E3,-6.1425047E0,9.1541405E1,1.6113473E3,7.556893E2,7.089051E2,-6.2861295E0,-7.6992364E0,-3.2013729E0,6.1698112E1,-3.0303436E2,-9.3519535E0,7.6530133E2,-8.6672107E2,-1.6612353E0,-1.520629E3,-8.4972766E2,-1.5915283E0,1.9400316E0,1.8176847E1,1.1645747E1,8.565292E0,-3.280354E0,1.4389282E-1,8.81335E0,-1.9603415E-1,8.298532E0,-4.912482E0,-7.809445E-1,3.730804E0,-6.7627063E0,8.6003E0,-4.3628174E-1,-1.0840349E1,-4.7580957E0,-1.6562601E1,-7.8248386E0,-5.6606207E0,-1.1338162E1],"categories":[],"categories_nodes":[],"categories_segments":[],"categories_sizes":[],"default_left":[0,0,0,0,0,0,0,0,0,0,0,0,0,0,0,0,0,0,0,0,0,0,0,0,0,0,0,0,0,0,0,0,0,0,0,0,0,0,0,0,0,0,0,0,0,0,0,0,0,0,0,0,0],"id":1,"left_children":[1,3,5,7,9,11,13,15,17,19,21,23,25,27,29,-1,31,33,35,37,-1,-1,-1,39,41,43,45,47,-1,49,51,-1,-1,-1,-1,-1,-1,-1,-1,-1,-1,-1,-1,-1,-1,-1,-1,-1,-1,-1,-1,-1,-1],"loss_changes":[1.1088868E8,1.949456E7,3.995478E7,1.4816704E7,5.8883985E6,5.239918E6,3.334076E6,8.997604E5,6.250776E6,4.222312E6,1.5603325E5,4.226393E6,2.8500542E6,1.068033E6,7.40552E5,0E0,1.5930903E5,2.031536E6,1.920213E6,1.783647E6,0E0,0E0,0E0,3.263781E6,3.475591E6,2.8028165E6,8.038095E5,1.438066E6,0E0,7.06308E5,2.8785E3,0E0,0E0,0E0,0E0,0E0,0E0,0E0,0E0,0E0,0E0,0E0,0E0,0E0,0E0,0E0,0E0,0E0,0E0,0E0,0E0,0E0,0E0],"parents":[2147483647,0,0,1,1,2,2,3,3,4,4,5,5,6,6,7,7,8,8,9,9,10,10,11,11,12,12,13,13,14,14,16,16,17,17,18,18,19,19,23,23,24,24,25,25,26,26,27,27,29,29,30,30],"right_children":[2,4,6,8,10,12,14,16,18,20,22,24,26,28,30,-1,32,34,36,38,-1,-1,-1,40,42,44,46,48,-1,50,52,-1,-1,-1,-1,-1,-1,-1,-1,-1,-1,-1,-1,-1,-1,-1,-1,-1,-1,-1,-1,-1,-1],"split_conditions":[1.6E1,5E0,5E0,2E0,1.2E1,2.17E1,6E0,1E0,1.3E1,2.6E1,1.3E1,2.9E1,1.6E1,4.7E1,7.85E1,-6.1425047E0,2.17E1,2E1,1E0,3E0,-6.2861295E0,-7.6992364E0,-3.2013729E0,2.8E1,3.9E1,1.2E1,1E0,7.85E1,-1.6612353E0,2.09E1,2.9E1,-1.5915283E0,1.9400316E0,1.8176847E1,1.1645747E1,8.565292E0,-3.280354E0,1.4389282E-1,8.81335E0,-1.9603415E-1,8.298532E0,-4.912482E0,-7.809445E-1,3.730804E0,-6.7627063E0,8.6003E0,-4.3628174E-1,-1.0840349E1,-4.7580957E0,-1.6562601E1,-7.8248386E0,-5.6606207E0,-1.1338162E1],"split_indices":[6,4,4,6,6,0,4,4,6,5,6,6,5,6,1,0,0,5,3,6,0,0,0,6,6,5,3,1,0,0,6,0,0,0,0,0,0,0,0,0,0,0,0,0,0,0,0,0,0,0,0,0,0],"split_type":[0,0,0,0,0,0,0,0,0,0,0,0,0,0,0,0,0,0,0,0,0,0,0,0,0,0,0,0,0,0,0,0,0,0,0,0,0,0,0,0,0,0,0,0,0,0,0,0,0,0,0,0,0],"sum_hessian":[2.89E2,8.7E1,2.02E2,6.4E1,2.3E1,1.51E2,5.1E1,6E0,5.8E1,1.6E1,7E0,1.33E2,1.8E1,2.5E1,2.6E1,2E0,4E0,4.4E1,1.4E1,1.4E1,2E0,2E0,5E0,5.1E1,8.2E1,9E0,9E0,2.2E1,3E0,1.9E1,7E0,1E0,3E0,2.8E1,1.6E1,1.3E1,1E0,3E0,1.1E1,4.7E1,4E0,4.4E1,3.8E1,6E0,3E0,8E0,1E0,1.3E1,9E0,1.5E1,4E0,5E0,2E0],"tree_param":{"num_deleted":"0","num_feature":"9","num_nodes":"53","size_leaf_vector":"1"}},{"base_weights":[-1.5355486E1,9.890899E2,-4.4004456E2,1.297512E3,1.9697662E2,-1.19526215E2,-1.1566981E3,-1.6227301E2,1.4897484E3,5.06867E2,-5.248988E2,-1.970223E2,4.1667065E2,-1.4079878E3,-8.932016E2,-6.1015544E0,8.871371E1,1.7734958E3,8.2372595E2,-3.024728E1,7.7794476E2,-7.647908E0,-3.1746962E0,1.811814E2,-2.5122818E2,5.5039575E2,-4.3541992E2,-1.4521068E3,-6.4268064E-1,-6.2503925E2,-1.0578981E3,-1.5835718E0,1.6979932E0,1.859351E1,6.0035157E0,2.9837277E0,1.8247034E1,2.0747206E0,-4.1636376E0,8.840341E0,4.526129E0,4.972341E0,-5.817363E-1,-8.6985373E-1,-3.7168276E0,3.7100081E0,9.958302E0,-4.340991E-1,-6.0971994E0,-1.5494871E1,-9.246991E0,-3.0255132E0,-8.064143E0,-2.095393E0,-1.0933881E1],"categories":[],"categories_nodes":[],"categories_segments":[],"categories_sizes":[],"default_left":[0,0,0,0,0,0,0,0,0,0,0,0,0,0,0,0,0,0,0,0,0,0,0,0,0,0,0,0,0,0,0,0,0,0,0,0,0,0,0,0,0,0,0,0,0,0,0,0,0,0,0,0,0,0,0],"id":2,"left_children":[1,3,5,7,9,11,13,15,17,19,21,23,25,27,29,-1,31,33,35,37,39,-1,-1,41,43,45,47,49,-1,51,53,-1,-1,-1,-1,-1,-1,-1,-1,-1,-1,-1,-1,-1,-1,-1,-1,-1,-1,-1,-1,-1,-1,-1,-1],"loss_changes":[1.2200968E8,2.051036E7,4.6031576E7,1.7359808E7,5.85861E6,5.899535E6,2.847648E6,9.534295E5,8.74416E6,2.644326E6,1.55287E5,2.567124E6,2.2906788E6,1.685184E6,7.96228E5,0E0,1.470923E5,2.6104E6,8.92116E6,7.288954E5,1.40455E4,0E0,0E0,1.2393068E6,2.1043195E6,9.09085E5,1.7851412E5,5.6604E4,0E0,6.333875E5,3.42948E5,0E0,0E0,0E0,0E0,0E0,0E0,0E0,0E0,0E0,0E0,0E0,0E0,0E0,0E0,0E0,0E0,0E0,0E0,0E0,0E0,0E0,0E0,0E0,0E0],"parents":[2147483647,0,0,1,1,2,2,3,3,4,4,5,5,6,6,7,7,8,8,9,9,10,10,11,11,12,12,13,13,14,14,16,16,17,17,18,18,19,19,20,20,23,23,24,24,25,25,26,26,27,27,29,29,30,30],"right_children":[2,4,6,8,10,12,14,16,18,20,22,24,26,28,30,-1,32,34,36,38,40,-1,-1,42,44,46,48,50,-1,52,54,-1,-1,-1,-1,-1,-1,-1,-1,-1,-1,-1,-1,-1,-1,-1,-1,-1,-1,-1,-1,-1,-1,-1,-1],"split_conditions":[1.6E1,5E0,5E0,2E0,1.2E1,2.17E1,7.64E1,1E0,2.2E1,7.85E1,1.3E1,2E1,1E0,4.8E1,6E0,-6.1015544E0,2.17E1,1.5E1,2.39E1,2.1E1,6E0,-7.647908E0,-3.1746962E0,2E0,1.4E1,2.6E1,3E0,2.09E1,-6.4268064E-1,1.4E1,2E0,-1.5835718E0,1.6979932E0,1.859351E1,6.0035157E0,2.9837277E0,1.8247034E1,2.0747206E0,-4.1636376E0,8.840341E0,4.526129E0,4.972341E0,-5.817363E-1,-8.6985373E-1,-3.7168276E0,3.7100081E0,9.958302E0,-4.340991E-1,-6.0971994E0,-1.5494871E1,-9.246991E0,-3.0255132E0,-8.064143E0,-2.095393E0,-1.0933881E1],"split_indices":[6,4,4,6,6,0,1,4,5,1,6,6,3,6,4,0,0,6,0,5,4,0,0,4,5,5,4,0,0,5,5,0,0,0,0,0,0,0,0,0,0,0,0,0,0,0,0,0,0,0,0,0,0,0,0],"split_type":[0,0,0,0,0,0,0,0,0,0,0,0,0,0,0,0,0,0,0,0,0,0,0,0,0,0,0,0,0,0,0,0,0,0,0,0,0,0,0,0,0,0,0,0,0,0,0,0,0,0,0,0,0,0,0],"sum_hessian":[2.84E2,8.4E1,2E2,6E1,2.4E1,1.39E2,6.1E1,7E0,5.3E1,1.7E1,7E0,1.22E2,1.7E1,2.9E1,3.2E1,2E0,5E0,3.6E1,1.7E1,6E0,1.1E1,2E0,5E0,1.5E1,1.07E2,1.5E1,2E0,2.8E1,1E0,1.4E1,1.8E1,1E0,4E0,3.3E1,3E0,1.2E1,5E0,4E0,2E0,7E0,4E0,6E0,9E0,4.6E1,6.1E1,1.2E1,3E0,1E0,1E0,2.2E1,6E0,6E0,8E0,1E0,1.7E1],"tree_param":{"num_deleted":"0","num_feature":"9","num_nodes":"55","size_leaf_vector":"1"}},{"base_weights":[-3.249216E1,9.268617E2,-4.308264E2,1.1791659E3,2.785074E2,-1.442553E2,-1.1395607E3,-2.3944963E2,1.3474572E3,5.44875E2,-4.4622474E0,-4.1754706E2,-5.265656E1,-1.2475211E3,-6.39746E0,-6.060877E0,2.8423145E1,1.58842E3,5.0238202E2,2.8269531E1,7.413949E2,-4.843504E2,-1.3939128E1,1.6477011E2,-1.4890552E2,-9.070734E2,-1.4835961E1,-1.5756543E0,1.1431165E0,1.7165514E1,5.762502E0,7.3058176E0,-1.9371289E0,3.5259533E0,-4.1358805E0,8.448134E0,2.9749963E0,-6.7055454E0,-3.4125564E0,3.1520739E0,-4.481548E0,-1.0296048E0,3.4394302E0,-5.2881765E0,-7.417772E-1,-7.2456664E-1,-1.0421509E1],"categories":[],"categories_nodes":[],"categories_segments":[],"categories_sizes":[],"default_left":[0,0,0,0,0,0,0,0,0,0,0,0,0,0,0,0,0,0,0,0,0,0,0,0,0,0,0,0,0,0,0,0,0,0,0,0,0,0,0,0,0,0,0,0,0,0,0],"id":3,"left_children":[1,3,5,7,9,11,13,15,17,19,-1,21,23,25,-1,-1,27,29,31,33,35,37,39,41,43,45,-1,-1,-1,-1,-1,-1,-1,-1,-1,-1,-1,-1,-1,-1,-1,-1,-1,-1,-1,-1,-1],"loss_changes":[1.0548877E8,1.2921776E7,3.944065E7,1.41696E7,4.8762215E6,3.4826588E6,2.223672E6,7.047135E5,9.790856E6,1.80646E6,0E0,9.369315E5,2.242807E6,2.270976E6,0E0,0E0,9.788297E4,4.198472E6,2.206556E6,1.0056641E6,3.454595E5,5.705145E5,9.987851E5,1.6184248E6,2.0616338E6,2.291984E6,0E0,0E0,0E0,0E0,0E0,0E0,0E0,0E0,0E0,0E0,0E0,0E0,0E0,0E0,0E0,0E0,0E0,0E0,0E0,0E0,0E0],"parents":[2147483647,0,0,1,1,2,2,3,3,4,4,5,5,6,6,7,7,8,8,9,9,11,11,12,12,13,13,16,16,17,17,18,18,19,19,20,20,21,21,22,22,23,23,24,24,25,25],"right_children":[2,4,6,8,10,12,14,16,18,20,-1,22,24,26,-1,-1,28,30,32,34,36,38,40,42,44,46,-1,-1,-1,-1,-1,-1,-1,-1,-1,-1,-1,-1,-1,-1,-1,-1,-1,-1,-1,-1,-1],"split_conditions":[1.6E1,5E0,5E0,2E0,1.2E1,7.5E1,4.6E1,1E0,2.2E1,7.85E1,-4.4622474E0,3.9E1,1.1E1,2.9E1,-6.39746E0,-6.060877E0,2.17E1,1.5E1,4E0,2.1E1,1.7E1,2E0,2.7E1,2.8E1,1.55E1,1.55E1,-1.4835961E1,-1.5756543E0,1.1431165E0,1.7165514E1,5.762502E0,7.3058176E0,-1.9371289E0,3.5259533E0,-4.1358805E0,8.448134E0,2.9749963E0,-6.7055454E0,-3.4125564E0,3.1520739E0,-4.481548E0,-1.0296048E0,3.4394302E0,-5.2881765E0,-7.417772E-1,-7.2456664E-1,-1.0421509E1],"split_indices":[6,4,4,6,6,1,6,4,5,1,0,6,5,6,0,0,0,6,4,5,5,4,5,6,0,0,0,0,0,0,0,0,0,0,0,0,0,0,0,0,0,0,0,0,0,0,0],"split_type":[0,0,0,0,0,0,0,0,0,0,0,0,0,0,0,0,0,0,0,0,0,0,0,0,0,0,0,0,0,0,0,0,0,0,0,0,0,0,0,0,0,0,0,0,0,0,0],"sum_hessian":[2.74E2,8E1,1.94E2,5.7E1,2.3E1,1.39E2,5.5E1,6E0,5.1E1,1.7E1,6E0,3.4E1,1.05E2,4.4E1,1.1E1,2E0,4E0,3.9E1,1.2E1,5E0,1.2E1,2.9E1,5E0,3.2E1,7.3E1,2E1,2.4E1,1E0,3E0,3.4E1,5E0,9E0,3E0,3E0,2E0,9E0,3E0,1.1E1,1.8E1,3E0,2E0,1.3E1,1.9E1,1.1E1,6.2E1,3E0,1.7E1],"tree_param":{"num_deleted":"0","num_feature":"9","num_nodes":"47","size_leaf_vector":"1"}},{"base_weights":[5.390942E0,1.1139791E3,-3.861993E2,1.3890013E3,3.1444348E2,-1.0349044E2,-1.0500604E3,-2.1644412E2,1.5821212E3,6.932294E2,-2.6762988E2,-5.296956E2,3.1027212E1,-1.2676068E3,-6.2560156E2,-6.0204706E0,5.8206444E1,1.7457886E1,1.1149872E3,9.736015E1,9.472424E0,-7.646018E2,5.447355E2,-6.098316E2,-1.402124E1,7.381798E1,-7.800368E0,-1.4879861E1,-6.615311E2,-3.3227783E2,-7.794439E2,-1.5677758E0,1.5114685E0,-1.6978516E-1,1.3775161E1,1.7764436E0,-1.5377441E-1,-2.303955E0,-8.253639E0,-1.2366357E0,8.0875635E0,-2.6070068E0,-6.6482987E0,3.128435E0,-4.451671E0,5.428984E0,1.7908336E-1,-4.183915E0,-9.668761E0,-4.038897E0,-3.055355E-1,-9.010634E0,-2.1972425E0],"categories":[],"categories_nodes":[],"categories_segments":[],"categories_sizes":[],"default_left":[0,0,0,0,0,0,0,0,0,0,0,0,0,0,0,0,0,0,0,0,0,0,0,0,0,0,0,0,0,0,0,0,0,0,0,0,0,0,0,0,0,0,0,0,0,0,0,0,0,0,0,0,0],"id":4,"left_children":[1,3,5,7,9,11,13,15,17,19,21,23,25,27,29,-1,31,-1,33,35,-1,37,39,41,43,45,-1,-1,47,49,51,-1,-1,-1,-1,-1,-1,-1,-1,-1,-1,-1,-1,-1,-1,-1,-1,-1,-1,-1,-1,-1,-1],"loss_changes":[1.2805924E8,1.6494776E7,4.080545E7,1.801492E7,4.815633E6,8.845581E6,5.209048E6,7.7638544E5,1.952656E6,1.875437E6,4.0500112E6,1.520441E6,4.1528948E6,4.625448E6,8.24023E5,0E0,1.2359995E5,0E0,4.77817E6,4.798696E4,0E0,4.597E3,8.058989E5,4.41129E5,9.8482606E5,2.9538295E6,0E0,0E0,5.606065E5,2.0373E5,8.23108E5,0E0,0E0,0E0,0E0,0E0,0E0,0E0,0E0,0E0,0E0,0E0,0E0,0E0,0E0,0E0,0E0,0E0,0E0,0E0,0E0,0E0,0E0],"parents":[2147483647,0,0,1,1,2,2,3,3,4,4,5,5,6,6,7,7,8,8,9,9,10,10,11,11,12,12,13,13,14,14,16,16,18,18,19,19,21,21,22,22,23,23,24,24,25,25,28,28,29,29,30,30],"right_children":[2,4,6,8,10,12,14,16,18,20,22,24,26,28,30,-1,32,-1,34,36,-1,38,40,42,44,46,-1,-1,48,50,52,-1,-1,-1,-1,-1,-1,-1,-1,-1,-1,-1,-1,-1,-1,-1,-1,-1,-1,-1,-1,-1,-1],"split_conditions":[1.3E1,5E0,5E0,2E0,1.8E1,7.5E1,2.09E1,1E0,2.1E1,7.85E1,2.39E1,3.9E1,5.2E1,7.85E1,1.5E1,-6.0204706E0,2.17E1,1.7457886E1,5E0,8E0,9.472424E0,2.2E1,1.9E1,3.3E1,2.7E1,1.6E1,-7.800368E0,-1.4879861E1,1.5E1,4.9E1,3E1,-1.5677758E0,1.5114685E0,-1.6978516E-1,1.3775161E1,1.7764436E0,-1.5377441E-1,-2.303955E0,-8.253639E0,-1.2366357E0,8.0875635E0,-2.6070068E0,-6.6482987E0,3.128435E0,-4.451671E0,5.428984E0,1.7908336E-1,-4.183915E0,-9.668761E0,-4.038897E0,-3.055355E-1,-9.010634E0,-2.1972425E0],"split_indices":[6,4,4,6,5,1,0,4,5,1,0,6,6,1,5,0,0,0,6,5,0,5,5,6,5,6,0,0,5,6,5,0,0,0,0,0,0,0,0,0,0,0,0,0,0,0,0,0,0,0,0,0,0],"split_type":[0,0,0,0,0,0,0,0,0,0,0,0,0,0,0,0,0,0,0,0,0,0,0,0,0,0,0,0,0,0,0,0,0,0,0,0,0,0,0,0,0,0,0,0,0,0,0,0,0,0,0,0,0],"sum_hessian":[2.93E2,7.6E1,2.17E2,5.6E1,2E1,1.53E2,6.4E1,6E0,5E1,1.2E1,8E0,3.6E1,1.17E2,4.1E1,2.3E1,2E0,4E0,3.5E1,1.5E1,4E0,8E0,5E0,3E0,3.1E1,5E0,1.12E2,5E0,2.9E1,1.2E1,9E0,1.4E1,1E0,3E0,3E0,1.2E1,2E0,2E0,1E0,4E0,1E0,2E0,5E0,2.6E1,3E0,2E0,1.1E1,1.01E2,8E0,4E0,7E0,2E0,1.1E1,3E0],"tree_param":{"num_deleted":"0","num_feature":"9","num_nodes":"53","size_leaf_vector":"1"}},{"base_weights":[6.2999487E0,1.0308213E3,-4.2793198E2,1.3698107E3,2.0166771E2,-1.21679596E2,-1.1092384E3,-1.9900774E2,1.5084847E3,5.378841E2,-5.305299E2,-4.4847232E2,-1.4596557E1,-1.2186115E3,-6.237644E2,-5.980334E0,1.5001342E0,1.678432E3,8.544771E2,-2.944894E1,8.019954E0,-5.95296E2,-2.025656E0,-5.126678E2,5.2073048E1,-8.077613E1,3.3181882E2,-1.417685E1,-7.638231E2,-5.234212E1,-7.146396E2,1.7436384E1,5.7415586E0,3.955424E0,1.601451E1,2.031586E0,-4.0731187E0,-6.8281317E0,-2.5100212E0,-3.4387648E0,-6.2484565E0,1.8680518E0,-2.4342773E0,1.0190744E0,-2.2402017E0,1.1022298E0,1.0798485E1,-3.1676776E0,-1.0195158E1,1.2476025E0,-2.0327344E0,-7.6876144E0,-5.9649414E-1],"categories":[],"categories_nodes":[],"categories_segments":[],"categories_sizes":[],"default_left":[0,0,0,0,0,0,0,0,0,0,0,0,0,0,0,0,0,0,0,0,0,0,0,0,0,0,0,0,0,0,0,0,0,0,0,0,0,0,0,0,0,0,0,0,0,0,0,0,0,0,0,0,0],"id":5,"left_children":[1,3,5,7,9,11,13,15,17,19,21,23,25,27,29,-1,-1,31,33,35,-1,37,-1,39,41,43,45,-1,47,49,51,-1,-1,-1,-1,-1,-1,-1,-1,-1,-1,-1,-1,-1,-1,-1,-1,-1,-1,-1,-1,-1,-1],"loss_changes":[1.3301533E8,2.4739368E7,4.3681892E7,1.4006128E7,6.9321375E6,5.1025715E6,2.691232E6,9.2532344E5,5.012336E6,2.87056E6,7.05825E4,1.183475E6,2.5715472E6,3.625024E6,6.89588E5,0E0,0E0,2.239144E6,4.165929E6,6.9800525E5,0E0,3.953375E4,0E0,3.91039E5,2.445408E5,2.4826528E6,2.8646605E6,0E0,1.734608E6,1.0555133E5,3.79535E5,0E0,0E0,0E0,0E0,0E0,0E0,0E0,0E0,0E0,0E0,0E0,0E0,0E0,0E0,0E0,0E0,0E0,0E0,0E0,0E0,0E0,0E0],"parents":[2147483647,0,0,1,1,2,2,3,3,4,4,5,5,6,6,7,7,8,8,9,9,10,10,11,11,12,12,13,13,14,14,17,17,18,18,19,19,21,21,23,23,24,24,25,25,26,26,28,28,29,29,30,30],"right_children":[2,4,6,8,10,12,14,16,18,20,22,24,26,28,30,-1,-1,32,34,36,-1,38,-1,40,42,44,46,-1,48,50,52,-1,-1,-1,-1,-1,-1,-1,-1,-1,-1,-1,-1,-1,-1,-1,-1,-1,-1,-1,-1,-1,-1],"split_conditions":[1.6E1,5E0,5E0,2E0,1.2E1,7.5E1,4.6E1,1E0,2.2E1,7.85E1,1.5E1,3.9E1,2.17E1,7.85E1,8E0,-5.980334E0,1.5001342E0,1.5E1,2.39E1,2.1E1,8.019954E0,2.5E1,-2.025656E0,1.3E1,2.6E1,1.4E1,2.3E1,-1.417685E1,1.9E1,6E0,3E1,1.7436384E1,5.7415586E0,3.955424E0,1.601451E1,2.031586E0,-4.0731187E0,-6.8281317E0,-2.5100212E0,-3.4387648E0,-6.2484565E0,1.8680518E0,-2.4342773E0,1.0190744E0,-2.2402017E0,1.1022298E0,1.0798485E1,-3.1676776E0,-1.0195158E1,1.2476025E0,-2.0327344E0,-7.6876144E0,-5.9649414E-1],"split_indices":[6,4,4,6,6,1,6,4,5,1,6,6,0,1,5,0,0,6,0,5,0,5,0,5,5,5,5,0,5,4,5,0,0,0,0,0,0,0,0,0,0,0,0,0,0,0,0,0,0,0,0,0,0],"split_type":[0,0,0,0,0,0,0,0,0,0,0,0,0,0,0,0,0,0,0,0,0,0,0,0,0,0,0,0,0,0,0,0,0,0,0,0,0,0,0,0,0,0,0,0,0,0,0,0,0,0,0,0,0],"sum_hessian":[2.97E2,8.8E1,2.09E2,6.2E1,2.6E1,1.45E2,6.4E1,5E0,5.7E1,1.8E1,8E0,3.5E1,1.1E2,5.1E1,1.3E1,2E0,3E0,4.4E1,1.3E1,6E0,1.2E1,6E0,2E0,3.1E1,4E0,9.3E1,1.7E1,3.4E1,1.7E1,2E0,1.1E1,4.1E1,3E0,9E0,4E0,4E0,2E0,4E0,2E0,1.4E1,1.7E1,3E0,1E0,4.1E1,5.2E1,1.4E1,3E0,7E0,1E1,1E0,1E0,1E1,1E0],"tree_param":{"num_deleted":"0","num_feature":"9","num_nodes":"53","size_leaf_vector":"1"}},{"base_weights":[1.5620938E1,9.51882E2,-4.141396E2,1.2355642E3,1.5151163E2,-1.7213292E2,-1.0328785E3,-2.3583469E2,1.3771927E3,4.410008E2,-6.972448E2,-4.8327914E2,-6.2250465E1,-1.1238569E3,-4.126786E2,-5.9404635E0,2.6259277E1,1.5386016E3,6.256194E2,-3.795529E0,5.532597E2,-7.544029E2,-1.7714819E0,-5.723537E2,1.0202328E2,-2.188817E1,-7.7166967E0,-1.3209423E3,-7.000972E2,-6.955791E1,-6.7326355E2,-1.5674365E0,1.1119592E0,1.7228855E1,1.0578469E1,7.330229E0,-3.3161108E0,9.5085734E-1,6.773747E0,-2.2720702E0,-8.144007E0,-4.1790085E0,-6.864284E0,2.8988965E0,-4.186543E0,-1.2655934E0,3.882759E0,-1.4093386E1,-6.882693E0,-3.4756613E0,-9.473655E0,1.2413647E0,-1.4901562E0,-2.0225708E0,-7.404509E0],"categories":[],"categories_nodes":[],"categories_segments":[],"categories_sizes":[],"default_left":[0,0,0,0,0,0,0,0,0,0,0,0,0,0,0,0,0,0,0,0,0,0,0,0,0,0,0,0,0,0,0,0,0,0,0,0,0,0,0,0,0,0,0,0,0,0,0,0,0,0,0,0,0,0,0],"id":6,"left_children":[1,3,5,7,9,11,13,15,17,19,21,23,25,27,29,-1,31,33,35,-1,37,39,-1,41,43,45,-1,47,49,51,53,-1,-1,-1,-1,-1,-1,-1,-1,-1,-1,-1,-1,-1,-1,-1,-1,-1,-1,-1,-1,-1,-1,-1,-1],"loss_changes":[1.21507E8,2.1382624E7,3.0818164E7,1.491224E7,6.695837E6,5.0983425E6,2.808844E6,6.727951E5,6.801296E6,2.05228E6,7.445325E4,2.09168E6,3.190094E6,3.25106E6,7.578781E5,0E0,9.514753E4,2.784408E6,1.5796065E6,0E0,9.591845E5,4.74575E3,0E0,3.12192E5,7.082704E5,4.642902E6,0E0,8.75552E5,1.239783E6,9.5450836E4,8.46675E3,0E0,0E0,0E0,0E0,0E0,0E0,0E0,0E0,0E0,0E0,0E0,0E0,0E0,0E0,0E0,0E0,0E0,0E0,0E0,0E0,0E0,0E0,0E0,0E0],"parents":[2147483647,0,0,1,1,2,2,3,3,4,4,5,5,6,6,7,7,8,8,9,9,10,10,11,11,12,12,13,13,14,14,16,16,17,17,18,18,20,20,21,21,23,23,24,24,25,25,27,27,28,28,29,29,30,30],"right_children":[2,4,6,8,10,12,14,16,18,20,22,24,26,28,30,-1,32,34,36,-1,38,40,-1,42,44,46,-1,48,50,52,54,-1,-1,-1,-1,-1,-1,-1,-1,-1,-1,-1,-1,-1,-1,-1,-1,-1,-1,-1,-1,-1,-1,-1,-1],"split_conditions":[1.6E1,5E0,5E0,2E0,2.1E1,7.5E1,4.8E1,1E0,1.3E1,2.12E1,2.9E1,3.9E1,5.2E1,7.85E1,6E0,-5.9404635E0,2.17E1,2E1,1E0,-3.795529E0,3E0,2.2E1,-1.7714819E0,1.4E1,4E0,4.7E1,-7.7166967E0,2.09E1,1.9E1,8E0,2E0,-1.5674365E0,1.1119592E0,1.7228855E1,1.0578469E1,7.330229E0,-3.3161108E0,9.5085734E-1,6.773747E0,-2.2720702E0,-8.144007E0,-4.1790085E0,-6.864284E0,2.8988965E0,-4.186543E0,-1.2655934E0,3.882759E0,-1.4093386E1,-6.882693E0,-3.4756613E0,-9.473655E0,1.2413647E0,-1.4901562E0,-2.0225708E0,-7.404509E0],"split_indices":[6,4,4,6,5,1,6,4,6,0,5,6,6,1,4,0,0,5,3,0,6,5,0,5,4,6,0,0,5,5,5,0,0,0,0,0,0,0,0,0,0,0,0,0,0,0,0,0,0,0,0,0,0,0,0],"split_type":[0,0,0,0,0,0,0,0,0,0,0,0,0,0,0,0,0,0,0,0,0,0,0,0,0,0,0,0,0,0,0,0,0,0,0,0,0,0,0,0,0,0,0,0,0,0,0,0,0,0,0,0,0,0,0],"sum_hessian":[3E2,9.4E1,2.06E2,6.9E1,2.5E1,1.49E2,5.7E1,6E0,6.3E1,1.9E1,6E0,3.8E1,1.11E2,4.9E1,8E0,2E0,4E0,5.1E1,1.2E1,2E0,1.7E1,5E0,1E0,3.3E1,5E0,1.06E2,5E0,3.2E1,1.7E1,4E0,4E0,1E0,3E0,3.5E1,1.6E1,1.1E1,1E0,4E0,1.3E1,1E0,4E0,1.6E1,1.7E1,4E0,1E0,8.5E1,2.1E1,2.7E1,5E0,8E0,9E0,1E0,3E0,1E0,3E0],"tree_param":{"num_deleted":"0","num_feature":"9","num_nodes":"55","size_leaf_vector":"1"}},{"base_weights":[-8.5487235E-1,9.523303E2,-4.1422165E2,1.2724258E3,8.573657E1,-1.1654317E2,-1.0711078E3,-1.3558817E2,1.4257057E3,3.9033426E2,-5.722506E2,-4.9280997E2,3.9697828E0,-1.3320436E3,-8.2471625E2,-5.9008613E0,1.6422823E2,1.5767853E3,8.0468976E2,-2.2453033E2,8.431925E2,-6.38927E0,-2.4814763E0,-5.78053E2,1.0016172E2,3.0362352E1,-6.6343503E0,-1.0730004E0,-1.3734304E3,-5.339582E2,-1.00154895E3,7.0841795E-1,2.028719E0,1.7368587E1,1.061467E1,1.0457839E1,3.491158E0,9.432519E-1,-5.6696715E0,9.9826565E0,3.6101646E0,-1.9592611E-1,-6.1869473E0,3.3348265E0,-4.1656103E0,-5.019235E-1,4.045975E0,-1.4688746E1,-6.5970054E0,-1.7830206E0,-8.228696E0,-2.0124586E0,-1.0330782E1],"categories":[],"categories_nodes":[],"categories_segments":[],"categories_sizes":[],"default_left":[0,0,0,0,0,0,0,0,0,0,0,0,0,0,0,0,0,0,0,0,0,0,0,0,0,0,0,0,0,0,0,0,0,0,0,0,0,0,0,0,0,0,0,0,0,0,0,0,0,0,0,0,0],"id":7,"left_children":[1,3,5,7,9,11,13,15,17,19,21,23,25,27,29,-1,31,33,35,37,39,-1,-1,41,43,45,-1,-1,47,49,51,-1,-1,-1,-1,-1,-1,-1,-1,-1,-1,-1,-1,-1,-1,-1,-1,-1,-1,-1,-1,-1,-1],"loss_changes":[1.107187E8,2.3469288E7,3.820118E7,1.357416E7,5.033482E6,6.168879E6,2.823272E6,1.0507702E6,3.985256E6,4.922914E6,1.4332E4,1.7259415E6,1.8520544E6,1.271904E6,1.213342E6,0E0,3.6721719E3,1.78588E6,1.062771E6,9.2698225E5,3.873345E5,0E0,0E0,6.46086E5,7.4172706E5,3.0650945E6,0E0,0E0,8.7026E5,1.394577E6,2.9676E5,0E0,0E0,0E0,0E0,0E0,0E0,0E0,0E0,0E0,0E0,0E0,0E0,0E0,0E0,0E0,0E0,0E0,0E0,0E0,0E0,0E0,0E0],"parents":[2147483647,0,0,1,1,2,2,3,3,4,4,5,5,6,6,7,7,8,8,9,9,10,10,11,11,12,12,13,13,14,14,16,16,17,17,18,18,19,19,20,20,23,23,24,24,25,25,28,28,29,29,30,30],"right_children":[2,4,6,8,10,12,14,16,18,20,22,24,26,28,30,-1,32,34,36,38,40,-1,-1,42,44,46,-1,-1,48,50,52,-1,-1,-1,-1,-1,-1,-1,-1,-1,-1,-1,-1,-1,-1,-1,-1,-1,-1,-1,-1,-1,-1],"split_conditions":[1.6E1,5E0,5E0,2E0,1.2E1,7.5E1,7.64E1,1E0,1.3E1,7.85E1,2.5E1,3.9E1,5.2E1,3E0,6E0,-5.9008613E0,3E0,2.1E1,1.1E1,1.5E1,6E0,-6.38927E0,-2.4814763E0,3.3E1,4E0,4.7E1,-6.6343503E0,-1.0730004E0,4.6E1,1.9E1,2E0,7.0841795E-1,2.028719E0,1.7368587E1,1.061467E1,1.0457839E1,3.491158E0,9.432519E-1,-5.6696715E0,9.9826565E0,3.6101646E0,-1.9592611E-1,-6.1869473E0,3.3348265E0,-4.1656103E0,-5.019235E-1,4.045975E0,-1.4688746E1,-6.5970054E0,-1.7830206E0,-8.228696E0,-2.0124586E0,-1.0330782E1],"split_indices":[6,4,4,6,6,1,1,4,6,1,5,6,6,5,4,0,4,5,5,5,4,0,0,6,4,6,0,0,6,5,5,0,0,0,0,0,0,0,0,0,0,0,0,0,0,0,0,0,0,0,0,0,0],"split_type":[0,0,0,0,0,0,0,0,0,0,0,0,0,0,0,0,0,0,0,0,0,0,0,0,0,0,0,0,0,0,0,0,0,0,0,0,0,0,0,0,0,0,0,0,0,0,0,0,0,0,0,0,0],"sum_hessian":[2.79E2,8.4E1,1.95E2,6.1E1,2.3E1,1.35E2,6E1,6E0,5.5E1,1.6E1,7E0,3.2E1,1.03E2,2.7E1,3.3E1,2E0,4E0,4.3E1,1.2E1,7E0,9E0,5E0,2E0,2.8E1,4E0,1E2,3E0,1E0,2.6E1,1.4E1,1.9E1,2E0,2E0,3.1E1,1.2E1,7E0,5E0,4E0,3E0,6E0,3E0,2E0,2.6E1,3E0,1E0,8.3E1,1.7E1,2.2E1,4E0,7E0,7E0,1E0,1.8E1],"tree_param":{"num_deleted":"0","num_feature":"9","num_nodes":"53","size_leaf_vector":"1"}},{"base_weights":[-4.3653E1,8.651686E2,-3.8846652E2,1.1733557E3,1.1556762E2,-1.0564155E2,-1.1220508E3,-2.5890732E2,1.31336E3,3.584097E2,-5.6008484E2,-4.0990793E2,-1.1728342E1,-1.2599592E3,-5.265386E2,-5.8615212E0,5.1253174E1,1.5239315E3,7.778008E2,5.06716E2,-6.0146255E0,-6.6746354E0,-1.944253E2,-4.9262885E2,1.498584E1,-7.6703964E1,3.411252E2,-1.4541655E1,-7.806614E2,-5.0554688E1,-6.084852E2,-1.5631421E0,1.7254704E0,1.6176752E1,6.004364E0,2.4775367E0,1.4996175E1,7.027952E0,1.9827746E0,-5.948877E-1,-2.3214917E0,-4.1409173E0,-7.508515E0,2.8490252E0,-4.398706E0,1.0876224E0,-2.114341E0,-9.5575684E-1,7.437135E0,-4.136476E0,-9.595048E0,1.2440747E0,-2.002395E0,-6.5827227E0,-5.530737E-1],"categories":[],"categories_nodes":[],"categories_segments":[],"categories_sizes":[],"default_left":[0,0,0,0,0,0,0,0,0,0,0,0,0,0,0,0,0,0,0,0,0,0,0,0,0,0,0,0,0,0,0,0,0,0,0,0,0,0,0,0,0,0,0,0,0,0,0,0,0,0,0,0,0,0,0],"id":8,"left_children":[1,3,5,7,9,11,13,15,17,19,21,23,25,27,29,-1,31,33,35,37,-1,-1,39,41,43,45,47,-1,49,51,53,-1,-1,-1,-1,-1,-1,-1,-1,-1,-1,-1,-1,-1,-1,-1,-1,-1,-1,-1,-1,-1,-1,-1,-1],"loss_changes":[9.340816E7,1.880782E7,4.469627E7,1.1970376E7,4.302661E6,4.4814095E6,4.264152E6,6.3903275E5,4.791672E6,3.0095178E6,1.4507675E5,1.3078435E6,2.800318E6,3.332752E6,4.7630675E5,0E0,1.2767815E5,2.231848E6,6.132611E6,8.887835E5,0E0,0E0,1.4607188E3,3.177605E5,9.8473375E5,2.596749E6,3.4114842E6,0E0,6.53311E5,1.0347883E5,2.6654475E5,0E0,0E0,0E0,0E0,0E0,0E0,0E0,0E0,0E0,0E0,0E0,0E0,0E0,0E0,0E0,0E0,0E0,0E0,0E0,0E0,0E0,0E0,0E0,0E0],"parents":[2147483647,0,0,1,1,2,2,3,3,4,4,5,5,6,6,7,7,8,8,9,9,10,10,11,11,12,12,13,13,14,14,16,16,17,17,18,18,19,19,22,22,23,23,24,24,25,25,26,26,28,28,29,29,30,30],"right_children":[2,4,6,8,10,12,14,16,18,20,22,24,26,28,30,-1,32,34,36,38,-1,-1,40,42,44,46,48,-1,50,52,54,-1,-1,-1,-1,-1,-1,-1,-1,-1,-1,-1,-1,-1,-1,-1,-1,-1,-1,-1,-1,-1,-1,-1,-1],"split_conditions":[1.6E1,5E0,5E0,2E0,1.2E1,7.5E1,4.6E1,1E0,2E1,2.6E1,1.5E1,3.9E1,2.17E1,7.85E1,8E0,-5.8615212E0,2.17E1,1.5E1,2.39E1,1.2E1,-6.0146255E0,-6.6746354E0,6E0,3.8E1,2.7E1,1.4E1,1.6E1,-1.4541655E1,6E0,6E0,3E1,-1.5631421E0,1.7254704E0,1.6176752E1,6.004364E0,2.4775367E0,1.4996175E1,7.027952E0,1.9827746E0,-5.948877E-1,-2.3214917E0,-4.1409173E0,-7.508515E0,2.8490252E0,-4.398706E0,1.0876224E0,-2.114341E0,-9.5575684E-1,7.437135E0,-4.136476E0,-9.595048E0,1.2440747E0,-2.002395E0,-6.5827227E0,-5.530737E-1],"split_indices":[6,4,4,6,6,1,6,4,5,5,6,6,0,1,5,0,0,6,0,5,0,0,4,6,5,5,5,0,4,4,5,0,0,0,0,0,0,0,0,0,0,0,0,0,0,0,0,0,0,0,0,0,0,0,0],"split_type":[0,0,0,0,0,0,0,0,0,0,0,0,0,0,0,0,0,0,0,0,0,0,0,0,0,0,0,0,0,0,0,0,0,0,0,0,0,0,0,0,0,0,0,0,0,0,0,0,0,0,0,0,0,0,0],"sum_hessian":[2.96E2,8.1E1,2.15E2,5.7E1,2.4E1,1.56E2,5.9E1,5E0,5.2E1,1.8E1,6E0,3.6E1,1.2E2,4.7E1,1.2E1,2E0,3E0,3.6E1,1.6E1,1.6E1,2E0,4E0,2E0,3E1,6E0,1.02E2,1.8E1,3.2E1,1.5E1,2E0,1E1,1E0,2E0,3.2E1,4E0,1E1,6E0,9E0,7E0,1E0,1E0,2.5E1,5E0,4E0,2E0,4.3E1,5.9E1,9E0,9E0,6E0,9E0,1E0,1E0,9E0,1E0],"tree_param":{"num_deleted":"0","num_feature":"9","num_nodes":"55","size_leaf_vector":"1"}},{"base_weights":[-2.625877E1,8.420359E2,-3.9039087E2,1.1391198E3,7.1586525E1,-9.216682E1,-1.0459756E3,-2.078986E2,1.2609265E3,3.4935495E2,-5.6234076E2,4.321428E2,-1.6217552E2,-1.134276E3,-5.6881744E2,2.435205E1,-6.845759E0,1.4911035E3,6.316218E2,5.0504672E2,-5.974528E0,-6.287659E0,-2.4204345E0,4.806726E2,1.5425268E0,-2.3539876E2,1.2850609E2,-1.3156339E1,-7.404969E2,-5.030192E1,-6.6749036E2,-1.555327E0,1.0820642E0,1.5878889E1,4.766706E0,9.5305747E-1,1.5989838E1,7.9211755E0,1.9375634E0,2.5659015E0,5.446466E0,3.2291207E-1,-3.6001282E0,3.202009E0,-7.406523E0,-3.8703108E0,-9.623783E0,1.237854E0,-1.9923828E0,-7.294269E0,-5.5030763E-1],"categories":[],"categories_nodes":[],"categories_segments":[],"categories_sizes":[],"default_left":[0,0,0,0,0,0,0,0,0,0,0,0,0,0,0,0,0,0,0,0,0,0,0,0,0,0,0,0,0,0,0,0,0,0,0,0,0,0,0,0,0,0,0,0,0,0,0,0,0,0,0],"id":9,"left_children":[1,3,5,7,9,11,13,15,17,19,21,23,25,27,29,31,-1,33,35,37,-1,-1,-1,39,-1,41,43,-1,45,47,49,-1,-1,-1,-1,-1,-1,-1,-1,-1,-1,-1,-1,-1,-1,-1,-1,-1,-1,-1,-1],"loss_changes":[9.2019176E7,1.960282E7,3.9983376E7,1.0434856E7,4.598581E6,5.2823685E6,2.051336E6,6.8092256E5,7.31472E6,2.9551245E6,1.801775E4,1.5511625E5,2.7121155E6,2.810768E6,5.8038525E5,9.2250266E4,0E0,3.268576E6,8.667406E6,1.2763205E6,0E0,0E0,0E0,6.094525E4,0E0,3.380776E6,4.5691E6,0E0,1.117652E6,1.02446586E5,3.39196E5,0E0,0E0,0E0,0E0,0E0,0E0,0E0,0E0,0E0,0E0,0E0,0E0,0E0,0E0,0E0,0E0,0E0,0E0,0E0,0E0],"parents":[2147483647,0,0,1,1,2,2,3,3,4,4,5,5,6,6,7,7,8,8,9,9,10,10,11,11,12,12,13,13,14,14,15,15,17,17,18,18,19,19,23,23,25,25,26,26,28,28,29,29,30,30],"right_children":[2,4,6,8,10,12,14,16,18,20,22,24,26,28,30,32,-1,34,36,38,-1,-1,-1,40,-1,42,44,-1,46,48,50,-1,-1,-1,-1,-1,-1,-1,-1,-1,-1,-1,-1,-1,-1,-1,-1,-1,-1,-1,-1],"split_conditions":[1.6E1,5E0,5E0,2E0,1.2E1,2E1,4.6E1,1E0,2.2E1,2.6E1,2.5E1,4E0,4.7E1,7.85E1,8E0,2.17E1,-6.845759E0,1.5E1,2.39E1,6E0,-5.974528E0,-6.287659E0,-2.4204345E0,1E0,1.5425268E0,2.9E1,5.2E1,-1.3156339E1,1.9E1,6E0,2.9E1,-1.555327E0,1.0820642E0,1.5878889E1,4.766706E0,9.5305747E-1,1.5989838E1,7.9211755E0,1.9375634E0,2.5659015E0,5.446466E0,3.2291207E-1,-3.6001282E0,3.202009E0,-7.406523E0,-3.8703108E0,-9.623783E0,1.237854E0,-1.9923828E0,-7.294269E0,-5.5030763E-1],"split_indices":[6,4,4,6,6,6,6,3,5,5,5,4,6,1,5,0,0,6,0,4,0,0,0,4,0,6,6,0,5,4,5,0,0,0,0,0,0,0,0,0,0,0,0,0,0,0,0,0,0,0,0],"split_type":[0,0,0,0,0,0,0,0,0,0,0,0,0,0,0,0,0,0,0,0,0,0,0,0,0,0,0,0,0,0,0,0,0,0,0,0,0,0,0,0,0,0,0,0,0,0,0,0,0,0,0],"sum_hessian":[2.89E2,8.5E1,2.04E2,6.1E1,2.4E1,1.41E2,6.3E1,5E0,5.6E1,1.7E1,7E0,1.6E1,1.25E2,5.2E1,1.1E1,4E0,1E0,4E1,1.6E1,1.5E1,2E0,5E0,2E0,1.3E1,3E0,1E2,2.5E1,3.4E1,1.8E1,2E0,9E0,1E0,3E0,3.6E1,4E0,1.1E1,5E0,7E0,8E0,4E0,9E0,3.2E1,6.8E1,2.1E1,4E0,8E0,1E1,1E0,1E0,8E0,1E0],"tree_param":{"num_deleted":"0","num_feature":"9","num_nodes":"51","size_leaf_vector":"1"}},{"base_weights":[2.2158966E1,9.421388E2,-3.888134E2,1.233645E3,2.3178E2,-9.478891E1,-1.0546976E3,1.3050168E3,-6.763781E0,5.215375E2,-5.578059E2,-1.6595718E2,3.8215802E2,-1.1700386E3,-5.2107605E2,1.5181792E3,7.314738E2,5.999562E2,-5.2341843E0,-6.235263E0,-2.4042985E0,3.7279022E1,-3.0927557E2,-4.8958497E0,7.309961E2,-1.3533217E3,-7.2386505E2,-2.3771268E2,-7.3E2,7.8939548E0,1.6784473E1,3.1314633E0,1.5856589E1,8.602266E-1,7.2306314E0,-4.172399E-1,8.040527E0,-5.024327E0,-1.5014558E0,3.2406397E0,-5.7935157E0,8.239393E0,-5.274658E-1,-1.0516229E1,-1.5520352E1,-2.9441142E0,-9.950415E0,1.231665E0,-3.1838696E0,-1.9824219E0,-7.8558593E0],"categories":[],"categories_nodes":[],"categories_segments":[],"categories_sizes":[],"default_left":[0,0,0,0,0,0,0,0,0,0,0,0,0,0,0,0,0,0,0,0,0,0,0,0,0,0,0,0,0,0,0,0,0,0,0,0,0,0,0,0,0,0,0,0,0,0,0,0,0,0,0],"id":10,"left_children":[1,3,5,7,9,11,13,15,-1,17,19,21,23,25,27,29,31,33,-1,-1,-1,35,37,39,41,43,45,47,49,-1,-1,-1,-1,-1,-1,-1,-1,-1,-1,-1,-1,-1,-1,-1,-1,-1,-1,-1,-1,-1,-1],"loss_changes":[1.1265794E8,1.8764888E7,4.0232E7,9.7436E6,6.6969925E6,4.9512845E6,3.267864E6,6.591728E6,0E0,2.034855E6,1.695025E4,3.6815928E6,2.5689422E6,3.19096E6,5.9608775E5,3.93108E6,6.29271E6,1.203176E6,0E0,0E0,0E0,3.2441522E6,2.1991065E6,2.0774752E6,7.71896E5,4.66152E5,1.686829E6,2.4301031E5,5.117175E4,0E0,0E0,0E0,0E0,0E0,0E0,0E0,0E0,0E0,0E0,0E0,0E0,0E0,0E0,0E0,0E0,0E0,0E0,0E0,0E0,0E0,0E0],"parents":[2147483647,0,0,1,1,2,2,3,3,4,4,5,5,6,6,7,7,9,9,10,10,11,11,12,12,13,13,14,14,15,15,16,16,17,17,21,21,22,22,23,23,24,24,25,25,26,26,27,27,28,28],"right_children":[2,4,6,8,10,12,14,16,-1,18,20,22,24,26,28,30,32,34,-1,-1,-1,36,38,40,42,44,46,48,50,-1,-1,-1,-1,-1,-1,-1,-1,-1,-1,-1,-1,-1,-1,-1,-1,-1,-1,-1,-1,-1,-1],"split_conditions":[1.6E1,5E0,5E0,1E0,1.2E1,2.17E1,4.6E1,2.1E1,-6.763781E0,2.6E1,2.5E1,2.9E1,1.6E1,7.85E1,6E0,2.12E1,2.39E1,3E0,-5.2341843E0,-6.235263E0,-2.4042985E0,2.8E1,3.7E1,1.2E1,1E0,6E0,1.9E1,8E0,2E0,7.8939548E0,1.6784473E1,3.1314633E0,1.5856589E1,8.602266E-1,7.2306314E0,-4.172399E-1,8.040527E0,-5.024327E0,-1.5014558E0,3.2406397E0,-5.7935157E0,8.239393E0,-5.274658E-1,-1.0516229E1,-1.5520352E1,-2.9441142E0,-9.950415E0,1.231665E0,-3.1838696E0,-1.9824219E0,-7.8558593E0],"split_indices":[6,4,4,3,6,0,6,5,0,5,5,6,5,1,4,0,0,6,0,0,0,6,6,5,3,4,5,5,5,0,0,0,0,0,0,0,0,0,0,0,0,0,0,0,0,0,0,0,0,0,0],"split_type":[0,0,0,0,0,0,0,0,0,0,0,0,0,0,0,0,0,0,0,0,0,0,0,0,0,0,0,0,0,0,0,0,0,0,0,0,0,0,0,0,0,0,0,0,0,0,0,0,0,0,0],"sum_hessian":[2.96E2,9.1E1,2.05E2,6.4E1,2.7E1,1.43E2,6.2E1,6.2E1,2E0,2E1,7E0,1.25E2,1.8E1,5E1,1.2E1,4.4E1,1.8E1,1.9E1,1E0,5E0,2E0,5.2E1,7.3E1,9E0,9E0,3.4E1,1.6E1,6E0,6E0,9E0,3.5E1,1.3E1,5E0,4E0,1.5E1,4.8E1,4E0,3.2E1,4.1E1,6E0,3E0,8E0,1E0,1.6E1,1.8E1,7E0,9E0,1E0,5E0,1E0,5E0],"tree_param":{"num_deleted":"0","num_feature":"9","num_nodes":"51","size_leaf_vector":"1"}},{"base_weights":[1.7565596E1,8.878582E2,-3.8451038E2,1.1817664E3,1.920711E2,-1.1361074E2,-1.0293416E3,-2.3830238E2,1.323036E3,4.199853E2,-4.8719104E2,-4.301338E2,-1.3764209E0,-1.348955E3,-7.442411E2,-5.7823358E0,1.3316797E1,1.5111965E3,5.699716E2,-9.3802734E1,7.002591E2,-7.241756E0,-2.8750024E0,-4.7672665E2,-1.7956837E1,3.470298E1,-7.732003E0,-1.5460587E1,-7.610626E2,-5.25783E2,-9.213524E2,-1.563208E0,9.4806397E-1,1.6981388E1,1.0594144E1,6.645898E0,-3.3003223E0,2.3055656E0,-5.5689096E0,9.182336E0,5.3751984E0,-3.221704E0,-6.2142324E0,1.8241796E0,-4.09728E0,-7.286516E-1,2.781244E0,-8.429046E0,-5.316357E-1,-7.5483108E0,-2.1286485E0,-1.0049475E1,-5.030157E0],"categories":[],"categories_nodes":[],"categories_segments":[],"categories_sizes":[],"default_left":[0,0,0,0,0,0,0,0,0,0,0,0,0,0,0,0,0,0,0,0,0,0,0,0,0,0,0,0,0,0,0,0,0,0,0,0,0,0,0,0,0,0,0,0,0,0,0,0,0,0,0,0,0],"id":11,"left_children":[1,3,5,7,9,11,13,15,17,19,21,23,25,27,29,-1,31,33,35,37,39,-1,-1,41,43,45,-1,-1,47,49,51,-1,-1,-1,-1,-1,-1,-1,-1,-1,-1,-1,-1,-1,-1,-1,-1,-1,-1,-1,-1,-1,-1],"loss_changes":[1.0741806E8,1.9609272E7,3.656681E7,1.3956936E7,4.849017E6,5.2925955E6,4.645612E6,6.064327E5,7.923872E6,3.3777162E6,1.703885E5,7.404155E5,3.117843E6,2.067876E6,8.69768E5,0E0,8.393871E4,2.339376E6,1.41153E6,1.4802576E6,3.85265E4,0E0,0E0,5.82527E5,4.6724712E5,2.821995E6,0E0,0E0,4.766105E5,1.1294425E6,1.23972E5,0E0,0E0,0E0,0E0,0E0,0E0,0E0,0E0,0E0,0E0,0E0,0E0,0E0,0E0,0E0,0E0,0E0,0E0,0E0,0E0,0E0,0E0],"parents":[2147483647,0,0,1,1,2,2,3,3,4,4,5,5,6,6,7,7,8,8,9,9,10,10,11,11,12,12,13,13,14,14,16,16,17,17,18,18,19,19,20,20,23,23,24,24,25,25,28,28,29,29,30,30],"right_children":[2,4,6,8,10,12,14,16,18,20,22,24,26,28,30,-1,32,34,36,38,40,-1,-1,42,44,46,-1,-1,48,50,52,-1,-1,-1,-1,-1,-1,-1,-1,-1,-1,-1,-1,-1,-1,-1,-1,-1,-1,-1,-1,-1,-1],"split_conditions":[1.6E1,5E0,5E0,2E0,1.2E1,7.5E1,7.64E1,1E0,1.3E1,7.85E1,1.3E1,3.9E1,5.2E1,2.09E1,1.9E1,-5.7823358E0,2.17E1,2E1,1E0,2.1E1,7E0,-7.241756E0,-2.8750024E0,1.4E1,3E0,4.3E1,-7.732003E0,-1.5460587E1,2.5E1,2.5E1,2.12E1,-1.563208E0,9.4806397E-1,1.6981388E1,1.0594144E1,6.645898E0,-3.3003223E0,2.3055656E0,-5.5689096E0,9.182336E0,5.3751984E0,-3.221704E0,-6.2142324E0,1.8241796E0,-4.09728E0,-7.286516E-1,2.781244E0,-8.429046E0,-5.316357E-1,-7.5483108E0,-2.1286485E0,-1.0049475E1,-5.030157E0],"split_indices":[6,4,4,6,6,1,1,4,6,1,6,6,6,0,5,0,0,5,3,5,6,0,0,5,4,6,0,0,5,6,0,0,0,0,0,0,0,0,0,0,0,0,0,0,0,0,0,0,0,0,0,0,0],"split_type":[0,0,0,0,0,0,0,0,0,0,0,0,0,0,0,0,0,0,0,0,0,0,0,0,0,0,0,0,0,0,0,0,0,0,0,0,0,0,0,0,0,0,0,0,0,0,0,0,0,0,0,0,0],"sum_hessian":[3.05E2,9.6E1,2.09E2,6.7E1,2.9E1,1.48E2,6.1E1,6E0,6.1E1,2.2E1,7E0,3.8E1,1.1E2,2.7E1,3.4E1,2E0,4E0,4.8E1,1.3E1,8E0,1.4E1,2E0,5E0,3.4E1,4E0,1.06E2,4E0,1.9E1,8E0,1.7E1,1.7E1,1E0,3E0,3.2E1,1.6E1,1.2E1,1E0,5E0,3E0,4E0,1E1,1.8E1,1.6E1,3E0,1E0,7.4E1,3.2E1,7E0,1E0,9E0,8E0,1.3E1,4E0],"tree_param":{"num_deleted":"0","num_feature":"9","num_nodes":"53","size_leaf_vector":"1"}},{"base_weights":[-1.2946607E1,8.7804456E2,-3.966918E2,1.1407676E3,1.73705E2,-1.3471922E2,-1.0960387E3,-1.4137598E2,1.2832083E3,3.914173E2,-5.4466815E2,-4.1620898E2,-3.2536858E1,-1.193228E3,-4.001953E2,-5.7437873E0,1.4670088E2,1.4705654E3,6.294794E2,-9.322738E1,7.523614E2,-6.3300476E2,-5.149243E-1,-5.2865607E2,-1.8568137E2,-1.027291E0,-6.688246E0,-8.8210736E2,-1.3451917E3,7.1916504E0,-6.460658E2,5.667578E-1,1.8782568E0,1.6551067E1,9.832607E0,9.337974E0,1.9176164E0,2.2863517E0,-5.5271435E0,9.664446E0,3.0217254E0,-6.9749045E0,-1.8753101E0,-2.2114923E0,-6.3595605E0,1.3258635E0,-3.7722857E0,-8.3878E-1,3.4285452E0,1.7579427E-1,-9.956669E0,-1.4241921E1,-8.0499115E0,1.2361499E0,-7.282113E-1,-1.9618677E0,-7.0948887E0],"categories":[],"categories_nodes":[],"categories_segments":[],"categories_sizes":[],"default_left":[0,0,0,0,0,0,0,0,0,0,0,0,0,0,0,0,0,0,0,0,0,0,0,0,0,0,0,0,0,0,0,0,0,0,0,0,0,0,0,0,0,0,0,0,0,0,0,0,0,0,0,0,0,0,0,0,0],"id":12,"left_children":[1,3,5,7,9,11,13,15,17,19,21,23,25,27,29,-1,31,33,35,37,39,41,-1,43,45,47,-1,49,51,53,55,-1,-1,-1,-1,-1,-1,-1,-1,-1,-1,-1,-1,-1,-1,-1,-1,-1,-1,-1,-1,-1,-1,-1,-1,-1,-1],"loss_changes":[9.540029E7,1.534572E7,3.5578236E7,1.1321808E7,3.9667602E6,4.0996082E6,3.106792E6,9.574283E5,5.810752E6,3.393803E6,2.2879812E5,8.86881E5,2.124523E6,9.88232E5,8.059619E5,0E0,7.8661562E3,2.149576E6,1.685809E6,1.4573948E6,7.681245E5,1.2832375E4,0E0,6.842455E5,9.035014E5,2.9348248E6,0E0,1.856527E6,9.1144E4,4.6263203E4,3.47125E3,0E0,0E0,0E0,0E0,0E0,0E0,0E0,0E0,0E0,0E0,0E0,0E0,0E0,0E0,0E0,0E0,0E0,0E0,0E0,0E0,0E0,0E0,0E0,0E0,0E0,0E0],"parents":[2147483647,0,0,1,1,2,2,3,3,4,4,5,5,6,6,7,7,8,8,9,9,10,10,11,11,12,12,13,13,14,14,16,16,17,17,18,18,19,19,20,20,21,21,23,23,24,24,25,25,27,27,28,28,29,29,30,30],"right_children":[2,4,6,8,10,12,14,16,18,20,22,24,26,28,30,-1,32,34,36,38,40,42,-1,44,46,48,-1,50,52,54,56,-1,-1,-1,-1,-1,-1,-1,-1,-1,-1,-1,-1,-1,-1,-1,-1,-1,-1,-1,-1,-1,-1,-1,-1,-1,-1],"split_conditions":[1.6E1,5E0,5E0,2E0,1.2E1,7.5E1,4.8E1,1E0,1.3E1,7.85E1,1.5E1,3.7E1,5.2E1,2.9E1,6E0,-5.7437873E0,3E0,2.1E1,1.2E1,2.1E1,6E0,2.5E1,-5.149243E-1,3.3E1,1.4E1,4.7E1,-6.688246E0,1.55E1,2.09E1,8E0,2E0,5.667578E-1,1.8782568E0,1.6551067E1,9.832607E0,9.337974E0,1.9176164E0,2.2863517E0,-5.5271435E0,9.664446E0,3.0217254E0,-6.9749045E0,-1.8753101E0,-2.2114923E0,-6.3595605E0,1.3258635E0,-3.7722857E0,-8.3878E-1,3.4285452E0,1.7579427E-1,-9.956669E0,-1.4241921E1,-8.0499115E0,1.2361499E0,-7.282113E-1,-1.9618677E0,-7.0948887E0],"split_indices":[6,4,4,6,6,1,6,4,6,1,6,6,6,6,4,0,4,5,5,5,4,5,0,6,5,6,0,0,0,5,5,0,0,0,0,0,0,0,0,0,0,0,0,0,0,0,0,0,0,0,0,0,0,0,0,0,0],"split_type":[0,0,0,0,0,0,0,0,0,0,0,0,0,0,0,0,0,0,0,0,0,0,0,0,0,0,0,0,0,0,0,0,0,0,0,0,0,0,0,0,0,0,0,0,0,0,0,0,0,0,0,0,0,0,0,0,0],"sum_hessian":[2.77E2,8.3E1,1.94E2,6E1,2.3E1,1.42E2,5.2E1,6E0,5.4E1,1.8E1,5E0,3.7E1,1.05E2,4.5E1,7E0,2E0,4E0,4.1E1,1.3E1,8E0,1E1,4E0,1E0,2.4E1,1.3E1,1.01E2,4E0,1.7E1,2.8E1,3E0,4E0,2E0,2E0,2.8E1,1.3E1,7E0,6E0,5E0,3E0,6E0,4E0,3E0,1E0,7E0,1.7E1,5E0,8E0,8.2E1,1.9E1,2E0,1.5E1,2.3E1,5E0,1E0,2E0,1E0,3E0],"tree_param":{"num_deleted":"0","num_feature":"9","num_nodes":"57","size_leaf_vector":"1"}},{"base_weights":[-1.9934908E1,7.785847E2,-3.548264E2,5.1595654E2,1.4355427E3,-1.13352516E2,-9.504507E2,7.7819214E2,-8.675962E1,1.699773E1,6.946103E2,-4.192847E2,-1.7591637E1,-1.0736595E3,-4.3189148E2,1.0497683E3,1.8316025E2,2.8464716E2,-4.866311E2,9.058135E0,2.5695374E2,-5.2596216E2,-1.98295E2,5.178671E0,-6.3937716E0,-1.3091767E1,-6.576776E2,-4.8139324E1,-4.972883E2,-1.0256714E0,1.2843381E1,-3.233667E0,3.9674883E0,-2.2642593E0,4.2337737E0,-1.3329021E0,-5.5830503E0,-1.6847411E0,7.6661863E0,-3.5483332E0,-7.129463E0,1.1930302E0,-3.5270555E0,-5.300384E-1,2.5428572E0,-3.715729E0,-8.780145E0,1.2299682E0,-1.9520581E0,-5.3651037E0,-5.253369E-1],"categories":[],"categories_nodes":[],"categories_segments":[],"categories_sizes":[],"default_left":[0,0,0,0,0,0,0,0,0,0,0,0,0,0,0,0,0,0,0,0,0,0,0,0,0,0,0,0,0,0,0,0,0,0,0,0,0,0,0,0,0,0,0,0,0,0,0,0,0,0,0],"id":13,"left_children":[1,3,5,7,9,11,13,15,17,-1,19,21,23,25,27,29,31,33,35,-1,37,39,41,43,-1,-1,45,47,49,-1,-1,-1,-1,-1,-1,-1,-1,-1,-1,-1,-1,-1,-1,-1,-1,-1,-1,-1,-1,-1,-1],"loss_changes":[7.782731E7,1.4097392E7,2.9376942E7,1.0024893E7,3.517968E6,4.2991855E6,3.305868E6,6.917972E6,3.108818E6,0E0,5.0672375E5,7.20816E5,1.6031931E6,3.743616E6,3.02311E5,8.240824E6,1.7511211E6,8.7577775E5,1.788365E5,0E0,9.964581E5,4.82986E5,6.7960525E5,1.6077825E6,0E0,0E0,8.71502E5,9.9514875E4,1.6370125E5,0E0,0E0,0E0,0E0,0E0,0E0,0E0,0E0,0E0,0E0,0E0,0E0,0E0,0E0,0E0,0E0,0E0,0E0,0E0,0E0,0E0,0E0],"parents":[2147483647,0,0,1,1,2,2,3,3,4,4,5,5,6,6,7,7,8,8,10,10,11,11,12,12,13,13,14,14,15,15,16,16,17,17,18,18,20,20,21,21,22,22,23,23,26,26,27,27,28,28],"right_children":[2,4,6,8,10,12,14,16,18,-1,20,22,24,26,28,30,32,34,36,-1,38,40,42,44,-1,-1,46,48,50,-1,-1,-1,-1,-1,-1,-1,-1,-1,-1,-1,-1,-1,-1,-1,-1,-1,-1,-1,-1,-1,-1],"split_conditions":[1.6E1,2.39E1,5E0,2E1,5E0,7.5E1,4.6E1,5E0,3E0,1.699773E1,1.2E1,3.7E1,5.2E1,7.85E1,8E0,2E0,2.12E1,2.17E1,2.3E1,9.058135E0,1.9E1,3.5E1,1.4E1,4.7E1,-6.3937716E0,-1.3091767E1,1.9E1,6E0,3E1,-1.0256714E0,1.2843381E1,-3.233667E0,3.9674883E0,-2.2642593E0,4.2337737E0,-1.3329021E0,-5.5830503E0,-1.6847411E0,7.6661863E0,-3.5483332E0,-7.129463E0,1.1930302E0,-3.5270555E0,-5.300384E-1,2.5428572E0,-3.715729E0,-8.780145E0,1.2299682E0,-1.9520581E0,-5.3651037E0,-5.253369E-1],"split_indices":[6,0,4,5,4,1,6,4,4,0,5,6,6,1,5,6,0,0,5,0,5,6,5,6,0,0,5,4,5,0,0,0,0,0,0,0,0,0,0,0,0,0,0,0,0,0,0,0,0,0,0],"split_type":[0,0,0,0,0,0,0,0,0,0,0,0,0,0,0,0,0,0,0,0,0,0,0,0,0,0,0,0,0,0,0,0,0,0,0,0,0,0,0,0,0,0,0,0,0,0,0,0,0,0,0],"sum_hessian":[2.89E2,8.5E1,2.04E2,6.2E1,2.3E1,1.46E2,5.8E1,4.3E1,1.9E1,1.6E1,7E0,3.4E1,1.12E2,4.6E1,1.2E1,2.9E1,1.4E1,1E1,9E0,4E0,3E0,2.2E1,1.2E1,1.09E2,3E0,2.8E1,1.8E1,2E0,1E1,5E0,2.4E1,4E0,1E1,2E0,8E0,2E0,7E0,2E0,1E0,1.3E1,9E0,4E0,8E0,8.9E1,2E1,9E0,9E0,1E0,1E0,9E0,1E0],"tree_param":{"num_deleted":"0","num_feature":"9","num_nodes":"51","size_leaf_vector":"1"}},{"base_weights":[9.5838475E-1,7.5848425E2,-3.41279E2,1.024642E3,3.613506E1,-1.17499466E2,-1.01478656E3,-1.9086754E2,1.151488E3,2.5834576E2,-5.721704E0,-1.8492918E2,3.2666867E2,-1.109265E3,-2.8944922E2,-5.694529E0,7.445723E1,1.3654174E3,5.883484E2,-2.236676E2,5.581592E2,2.01421E1,-3.3090274E2,-7.004501E1,7.3038684E2,-1.2433394E1,-7.427293E2,-6.205945E1,-4.4447665E0,-1.5469067E0,1.7041687E0,1.4670199E1,5.112977E0,2.5070283E0,1.4160862E1,7.8487104E-1,-5.4544406E0,6.1947684E0,1.6771387E0,-8.42522E-1,8.867376E0,-5.1834583E0,-1.9025652E0,3.9665625E0,-7.0941777E0,3.983522E0,9.827511E0,-2.946659E0,-9.589128E0,-1.6433381E0,1.2238183E0],"categories":[],"categories_nodes":[],"categories_segments":[],"categories_sizes":[],"default_left":[0,0,0,0,0,0,0,0,0,0,0,0,0,0,0,0,0,0,0,0,0,0,0,0,0,0,0,0,0,0,0,0,0,0,0,0,0,0,0,0,0,0,0,0,0,0,0,0,0,0,0],"id":14,"left_children":[1,3,5,7,9,11,13,15,17,19,-1,21,23,25,27,-1,29,31,33,35,37,39,41,43,45,-1,47,49,-1,-1,-1,-1,-1,-1,-1,-1,-1,-1,-1,-1,-1,-1,-1,-1,-1,-1,-1,-1,-1,-1,-1],"loss_changes":[7.414615E7,1.7074E7,2.9572052E7,1.0241664E7,3.5271172E6,4.52298E6,3.036832E6,7.455365E5,6.304504E6,2.8706095E6,0E0,3.8982135E6,3.2543705E6,1.189688E6,2.1917762E5,0E0,1.3630666E5,2.894712E6,4.6756585E6,8.2062056E5,1.8339925E5,5.0504295E6,1.904982E6,3.5637518E6,4.46456E5,0E0,1.073535E6,9.556594E4,0E0,0E0,0E0,0E0,0E0,0E0,0E0,0E0,0E0,0E0,0E0,0E0,0E0,0E0,0E0,0E0,0E0,0E0,0E0,0E0,0E0,0E0,0E0],"parents":[2147483647,0,0,1,1,2,2,3,3,4,4,5,5,6,6,7,7,8,8,9,9,11,11,12,12,13,13,14,14,16,16,17,17,18,18,19,19,20,20,21,21,22,22,23,23,24,24,26,26,27,27],"right_children":[2,4,6,8,10,12,14,16,18,20,-1,22,24,26,28,-1,30,32,34,36,38,40,42,44,46,-1,48,50,-1,-1,-1,-1,-1,-1,-1,-1,-1,-1,-1,-1,-1,-1,-1,-1,-1,-1,-1,-1,-1,-1,-1],"split_conditions":[1.6E1,5E0,5E0,2E0,1.2E1,2.17E1,4.8E1,1E0,2.2E1,7.85E1,-5.721704E0,2.9E1,1.6E1,7.85E1,5E1,-5.694529E0,2.17E1,1.5E1,2.39E1,1.5E1,1E1,2.8E1,3.7E1,1.2E1,2.6E1,-1.2433394E1,1.4E1,4.9E1,-4.4447665E0,-1.5469067E0,1.7041687E0,1.4670199E1,5.112977E0,2.5070283E0,1.4160862E1,7.8487104E-1,-5.4544406E0,6.1947684E0,1.6771387E0,-8.42522E-1,8.867376E0,-5.1834583E0,-1.9025652E0,3.9665625E0,-7.0941777E0,3.983522E0,9.827511E0,-2.946659E0,-9.589128E0,-1.6433381E0,1.2238183E0],"split_indices":[6,4,4,6,6,0,6,4,5,1,0,6,5,1,6,0,0,6,0,5,6,6,6,5,5,0,5,6,0,0,0,0,0,0,0,0,0,0,0,0,0,0,0,0,0,0,0,0,0,0,0],"split_type":[0,0,0,0,0,0,0,0,0,0,0,0,0,0,0,0,0,0,0,0,0,0,0,0,0,0,0,0,0,0,0,0,0,0,0,0,0,0,0,0,0,0,0,0,0,0,0,0,0,0,0],"sum_hessian":[2.84E2,8.8E1,1.96E2,6.4E1,2.4E1,1.48E2,4.8E1,6E0,5.8E1,1.8E1,6E0,1.29E2,1.9E1,4.2E1,6E0,2E0,4E0,4.1E1,1.7E1,7E0,1.1E1,5.4E1,7.5E1,1E1,9E0,2.9E1,1.3E1,3E0,3E0,1E0,3E0,3.6E1,5E0,1.3E1,4E0,4E0,3E0,9E0,2E0,4.9E1,5E0,3.1E1,4.4E1,6E0,4E0,5E0,4E0,5E0,8E0,2E0,1E0],"tree_param":{"num_deleted":"0","num_feature":"9","num_nodes":"51","size_leaf_vector":"1"}},{"base_weights":[2.6975384E1,8.296208E2,-3.7017703E2,1.1145701E3,1.7215952E2,-1.2848463E2,-9.9052893E2,1.1826675E3,-6.643006E0,4.0659503E2,-4.940581E2,-2.1073589E2,7.213051E1,-1.2384006E3,-6.950264E2,1.3396034E3,6.884487E2,-1.548573E2,6.7892993E2,-7.071613E0,-3.0516348E0,-7.291253E0,-3.3268115E2,1.7137238E2,-6.568371E0,-1.3662835E1,-6.778375E2,-2.6038147E2,-8.737363E2,9.2833495E-1,1.4244285E1,3.3941875E0,1.458237E1,1.8531083E0,-5.4135313E0,8.936111E0,5.196267E0,-9.759007E-1,7.620715E0,-4.5012803E0,-1.6178415E0,8.790538E-1,6.7128673E0,-7.685923E0,-6.6654295E-1,-4.6077304E0,-7.913574E-2,-6.0685706E0,-1.026554E1],"categories":[],"categories_nodes":[],"categories_segments":[],"categories_sizes":[],"default_left":[0,0,0,0,0,0,0,0,0,0,0,0,0,0,0,0,0,0,0,0,0,0,0,0,0,0,0,0,0,0,0,0,0,0,0,0,0,0,0,0,0,0,0,0,0,0,0,0,0],"id":15,"left_children":[1,3,5,7,9,11,13,15,-1,17,19,21,23,25,27,29,31,33,35,-1,-1,37,39,41,-1,-1,43,45,47,-1,-1,-1,-1,-1,-1,-1,-1,-1,-1,-1,-1,-1,-1,-1,-1,-1,-1,-1,-1],"loss_changes":[8.86071E7,1.7043684E7,2.776052E7,8.538384E6,4.730249E6,2.242815E6,2.948112E6,3.88652E6,0E0,3.4690055E6,1.0623275E5,2.379249E6,3.0063282E6,1.009416E6,1.792054E6,4.7326E6,4.0725935E6,1.1521071E6,4.8647E4,0E0,0E0,2.644855E6,1.1314555E6,1.443139E6,0E0,0E0,3.3704475E5,4.5168562E5,1.11139E5,0E0,0E0,0E0,0E0,0E0,0E0,0E0,0E0,0E0,0E0,0E0,0E0,0E0,0E0,0E0,0E0,0E0,0E0,0E0,0E0],"parents":[2147483647,0,0,1,1,2,2,3,3,4,4,5,5,6,6,7,7,9,9,10,10,11,11,12,12,13,13,14,14,15,15,16,16,17,17,18,18,21,21,22,22,23,23,26,26,27,27,28,28],"right_children":[2,4,6,8,10,12,14,16,-1,18,20,22,24,26,28,30,32,34,36,-1,-1,38,40,42,-1,-1,44,46,48,-1,-1,-1,-1,-1,-1,-1,-1,-1,-1,-1,-1,-1,-1,-1,-1,-1,-1,-1,-1],"split_conditions":[1.6E1,5E0,5E0,1E0,1.2E1,2.09E1,7.64E1,2.2E1,-6.643006E0,7.85E1,1.3E1,2.9E1,5.2E1,2.09E1,1.6E1,2E0,2.39E1,2.1E1,7E0,-7.071613E0,-3.0516348E0,2.8E1,3.7E1,2.3E1,-6.568371E0,-1.3662835E1,1E0,2.8E1,6E0,9.2833495E-1,1.4244285E1,3.3941875E0,1.458237E1,1.8531083E0,-5.4135313E0,8.936111E0,5.196267E0,-9.759007E-1,7.620715E0,-4.5012803E0,-1.6178415E0,8.790538E-1,6.7128673E0,-7.685923E0,-6.6654295E-1,-4.6077304E0,-7.913574E-2,-6.0685706E0,-1.026554E1],"split_indices":[6,4,4,3,6,0,1,5,0,1,6,6,6,0,5,6,0,5,6,0,0,6,6,5,0,0,3,6,4,0,0,0,0,0,0,0,0,0,0,0,0,0,0,0,0,0,0,0,0],"split_type":[0,0,0,0,0,0,0,0,0,0,0,0,0,0,0,0,0,0,0,0,0,0,0,0,0,0,0,0,0,0,0,0,0,0,0,0,0,0,0,0,0,0,0,0,0,0,0,0,0],"sum_hessian":[2.76E2,9.1E1,1.85E2,6.3E1,2.8E1,1.34E2,5.1E1,6.1E1,2E0,2.1E1,7E0,9.5E1,3.9E1,2.6E1,2.5E1,4.5E1,1.6E1,7E0,1.4E1,2E0,5E0,3.6E1,5.9E1,3.5E1,4E0,2E1,6E0,8E0,1.7E1,3E0,4.2E1,1.2E1,4E0,4E0,3E0,4E0,1E1,3.3E1,3E0,3.4E1,2.5E1,3.1E1,4E0,5E0,1E0,4E0,4E0,8E0,9E0],"tree_param":{"num_deleted":"0","num_feature":"9","num_nodes":"49","size_leaf_vector":"1"}},{"base_weights":[2.59829E1,-3.2221542E2,9.586427E2,-6.673553E1,-9.5554486E2,6.5543463E2,1.613551E3,4.2714175E2,-1.4600235E2,-1.3190619E3,-7.2598285E2,9.985913E2,4.9809813E0,6.8204136E0,1.7141456E3,6.31246E2,8.486431E1,-2.085194E2,2.0826738E2,-1.4440383E1,-6.0533414E0,-4.8676938E2,-9.288972E2,-2.6197544E1,1.2044224E3,3.8096484E2,-4.9688428E2,1.7855474E1,6.9055223E0,7.0228148E0,2.958457E0,-3.962999E0,3.9149642E0,-3.8328844E-1,-3.0765488E0,-8.387362E-1,5.7464786E0,-2.5786211E0,-6.8989043E0,-3.4899755E0,-9.739417E0,1.9121174E0,-6.6532664E0,1.4929353E1,3.6534352E0,1.174075E0,6.2495427E0,-7.932324E-1,-6.0485554E0],"categories":[],"categories_nodes":[],"categories_segments":[],"categories_sizes":[],"default_left":[0,0,0,0,0,0,0,0,0,0,0,0,0,0,0,0,0,0,0,0,0,0,0,0,0,0,0,0,0,0,0,0,0,0,0,0,0,0,0,0,0,0,0,0,0,0,0,0,0],"id":16,"left_children":[1,3,5,7,9,11,13,15,17,19,21,23,25,-1,27,29,31,33,35,-1,-1,37,39,41,43,45,47,-1,-1,-1,-1,-1,-1,-1,-1,-1,-1,-1,-1,-1,-1,-1,-1,-1,-1,-1,-1,-1,-1],"loss_changes":[9.318755E7,3.3753044E7,1.4431152E7,5.9345765E6,4.049368E6,1.2271438E7,1.0798E6,1.413495E6,2.9226542E6,1.088256E6,1.440894E6,7.625152E6,3.96316E6,0E0,3.01796E5,1.019625E5,1.4830138E6,1.860991E6,2.188893E6,0E0,0E0,7.520205E5,1.82524E5,1.0998866E6,6.717124E6,6.9828825E5,3.5778225E5,0E0,0E0,0E0,0E0,0E0,0E0,0E0,0E0,0E0,0E0,0E0,0E0,0E0,0E0,0E0,0E0,0E0,0E0,0E0,0E0,0E0,0E0],"parents":[2147483647,0,0,1,1,2,2,3,3,4,4,5,5,6,6,7,7,8,8,9,9,10,10,11,11,12,12,14,14,15,15,16,16,17,17,18,18,21,21,22,22,23,23,24,24,25,25,26,26],"right_children":[2,4,6,8,10,12,14,16,18,20,22,24,26,-1,28,30,32,34,36,-1,-1,38,40,42,44,46,48,-1,-1,-1,-1,-1,-1,-1,-1,-1,-1,-1,-1,-1,-1,-1,-1,-1,-1,-1,-1,-1,-1],"split_conditions":[2.27E1,5E0,2.39E1,2E1,7.64E1,2.1E1,5E0,1.7E1,2.17E1,4.6E1,6E0,2E0,4E0,6.8204136E0,6E0,1.9E1,1.7E1,1.3E1,1.6E1,-1.4440383E1,-6.0533414E0,1.9E1,1.6E1,1E0,5E0,2.7E1,5E0,1.7855474E1,6.9055223E0,7.0228148E0,2.958457E0,-3.962999E0,3.9149642E0,-3.8328844E-1,-3.0765488E0,-8.387362E-1,5.7464786E0,-2.5786211E0,-6.8989043E0,-3.4899755E0,-9.739417E0,1.9121174E0,-6.6532664E0,1.4929353E1,3.6534352E0,1.174075E0,6.2495427E0,-7.932324E-1,-6.0485554E0],"split_indices":[0,4,0,6,1,5,5,5,0,6,4,6,4,0,4,6,6,5,5,0,0,5,6,3,4,5,4,0,0,0,0,0,0,0,0,0,0,0,0,0,0,0,0,0,0,0,0,0,0],"split_type":[0,0,0,0,0,0,0,0,0,0,0,0,0,0,0,0,0,0,0,0,0,0,0,0,0,0,0,0,0,0,0,0,0,0,0,0,0,0,0,0,0,0,0,0,0,0,0,0,0],"sum_hessian":[2.85E2,2.08E2,7.7E1,1.49E2,5.9E1,5.4E1,2.3E1,2E1,1.29E2,2.1E1,3.8E1,3.5E1,1.9E1,3E0,2E1,1.2E1,8E0,1.1E2,1.9E1,1.7E1,4E0,1.9E1,1.9E1,6E0,2.9E1,1.1E1,8E0,1.8E1,2E0,9E0,3E0,3E0,5E0,4.1E1,6.9E1,1.1E1,8E0,1E1,9E0,2E0,1.7E1,5E0,1E0,2.1E1,8E0,6E0,5E0,2E0,6E0],"tree_param":{"num_deleted":"0","num_feature":"9","num_nodes":"49","size_leaf_vector":"1"}},{"base_weights":[3.3568156E0,8.4113074E2,-3.3006015E2,1.1104174E3,1.0520031E2,-7.572742E1,-9.489465E2,1.1866538E3,-6.5738964E0,3.3596194E2,-5.661577E2,-3.9203363E2,2.9427721E1,-1.0862539E3,-5.61973E2,1.4102665E3,6.486575E2,-3.4607227E0,4.499713E2,-6.167115E0,-1.5669433E0,-4.8024817E2,1.1437801E2,3.5991257E2,-2.9002886E1,-1.3248262E3,-5.8440674E2,-2.6913254E2,-7.92372E2,1.6700854E0,1.5120598E1,3.0692155E0,1.4757865E1,7.4150777E-1,5.798923E0,-2.5096517E0,-6.651854E0,2.975462E0,-4.007314E0,5.3150206E0,1.6739826E0,-1.0802115E0,3.2131317E0,-1.0131012E1,-1.5419208E1,-1.7968477E0,-7.152434E0,-3.7372541E0,6.4628416E-1,-9.602516E0,-3.4245958E0],"categories":[],"categories_nodes":[],"categories_segments":[],"categories_sizes":[],"default_left":[0,0,0,0,0,0,0,0,0,0,0,0,0,0,0,0,0,0,0,0,0,0,0,0,0,0,0,0,0,0,0,0,0,0,0,0,0,0,0,0,0,0,0,0,0,0,0,0,0,0,0],"id":17,"left_children":[1,3,5,7,9,11,13,15,-1,17,19,21,23,25,27,29,31,-1,33,-1,-1,35,37,39,41,43,45,47,49,-1,-1,-1,-1,-1,-1,-1,-1,-1,-1,-1,-1,-1,-1,-1,-1,-1,-1,-1,-1,-1,-1],"loss_changes":[7.653418E7,1.5340936E7,3.0779134E7,8.462056E6,3.5985282E6,4.6681075E6,2.418212E6,5.701872E6,0E0,1.4776135E6,2.75645E4,1.6184805E6,2.057344E6,4.13456E6,9.3374E5,4.556576E6,4.634925E6,0E0,6.894055E5,0E0,0E0,1.105151E6,6.8534606E5,4.3956262E5,2.553713E6,2.65072E5,6.657685E5,3.3833456E5,3.509325E5,0E0,0E0,0E0,0E0,0E0,0E0,0E0,0E0,0E0,0E0,0E0,0E0,0E0,0E0,0E0,0E0,0E0,0E0,0E0,0E0,0E0,0E0],"parents":[2147483647,0,0,1,1,2,2,3,3,4,4,5,5,6,6,7,7,9,9,10,10,11,11,12,12,13,13,14,14,15,15,16,16,18,18,21,21,22,22,23,23,24,24,25,25,26,26,27,27,28,28],"right_children":[2,4,6,8,10,12,14,16,-1,18,20,22,24,26,28,30,32,-1,34,-1,-1,36,38,40,42,44,46,48,50,-1,-1,-1,-1,-1,-1,-1,-1,-1,-1,-1,-1,-1,-1,-1,-1,-1,-1,-1,-1,-1,-1],"split_conditions":[1.5E1,5E0,5E0,1E0,2.1E1,7.5E1,7.85E1,2.2E1,-6.5738964E0,2.12E1,2.9E1,3.9E1,2E1,2.09E1,1.9E1,2E0,2.39E1,-3.4607227E0,3E0,-6.167115E0,-1.5669433E0,1.4E1,4E0,1.6E1,2.17E1,6E0,8E0,2.8E1,2.7E1,1.6700854E0,1.5120598E1,3.0692155E0,1.4757865E1,7.4150777E-1,5.798923E0,-2.5096517E0,-6.651854E0,2.975462E0,-4.007314E0,5.3150206E0,1.6739826E0,-1.0802115E0,3.2131317E0,-1.0131012E1,-1.5419208E1,-1.7968477E0,-7.152434E0,-3.7372541E0,6.4628416E-1,-9.602516E0,-3.4245958E0],"split_indices":[6,4,4,3,5,1,1,5,0,0,5,6,6,0,5,6,0,0,6,0,0,5,4,5,0,4,5,6,5,0,0,0,0,0,0,0,0,0,0,0,0,0,0,0,0,0,0,0,0,0,0],"split_type":[0,0,0,0,0,0,0,0,0,0,0,0,0,0,0,0,0,0,0,0,0,0,0,0,0,0,0,0,0,0,0,0,0,0,0,0,0,0,0,0,0,0,0,0,0,0,0,0,0,0,0],"sum_hessian":[2.72E2,7.7E1,1.95E2,5.6E1,2.1E1,1.39E2,5.6E1,5.4E1,2E0,1.6E1,5E0,3.4E1,1.05E2,4E1,1.6E1,3.7E1,1.7E1,2E0,1.4E1,4E0,1E0,2.9E1,5E0,1.5E1,9E1,2.6E1,1.4E1,8E0,8E0,3E0,3.4E1,1.3E1,4E0,4E0,1E1,1.4E1,1.5E1,4E0,1E0,7E0,8E0,7.4E1,1.6E1,1.3E1,1.3E1,4E0,1E1,6E0,2E0,5E0,3E0],"tree_param":{"num_deleted":"0","num_feature":"9","num_nodes":"51","size_leaf_vector":"1"}},{"base_weights":[2.775191E1,8.926598E2,-3.7016162E2,1.198212E3,1.4145424E2,-1.0290383E2,-9.3414215E2,-1.388201E2,1.346594E3,4.4255707E2,-4.764686E2,-4.6173615E2,2.6603561E1,-6.5596796E2,-1.1732095E3,-5.5986686E0,1.4157198E2,1.4986637E3,6.767889E2,6.0352765E2,-5.6347165E0,-6.9430323E0,-3.1504395E0,-5.0867728E2,-8.774209E1,-3.274169E1,3.216671E2,-7.879447E2,-2.6047272E2,-1.2791555E3,-7.0872E2,5.283887E-1,1.8311442E0,1.61313E1,1.1016189E1,7.9664197E0,-3.207976E0,1.1999853E0,7.058806E0,-2.982723E0,-6.3237658E0,2.7693458E0,-4.231714E0,1.2005108E-1,-7.063447E0,6.4491997E0,-1.8607512E0,-5.2275314E0,-1.0056132E1,4.3863282E-1,-3.5369203E0,-1.3278068E1,-4.959946E0,-1.6959203E0,-7.615108E0],"categories":[],"categories_nodes":[],"categories_segments":[],"categories_sizes":[],"default_left":[0,0,0,0,0,0,0,0,0,0,0,0,0,0,0,0,0,0,0,0,0,0,0,0,0,0,0,0,0,0,0,0,0,0,0,0,0,0,0,0,0,0,0,0,0,0,0,0,0,0,0,0,0,0,0],"id":18,"left_children":[1,3,5,7,9,11,13,15,17,19,21,23,25,27,29,-1,31,33,35,37,-1,-1,-1,39,41,43,45,47,49,51,53,-1,-1,-1,-1,-1,-1,-1,-1,-1,-1,-1,-1,-1,-1,-1,-1,-1,-1,-1,-1,-1,-1,-1,-1],"loss_changes":[9.394155E7,1.9570304E7,2.8090044E7,1.2288816E7,5.0483805E6,5.9606275E6,3.220552E6,9.0566875E5,4.587856E6,3.2550092E6,9.7738875E4,5.522615E5,1.674041E6,1.360647E6,6.18972E5,0E0,8.755398E3,2.2268E5,1.6903265E6,7.071455E5,0E0,0E0,0E0,5.92188E5,7.2880694E5,2.4198062E6,2.7460692E6,7.44238E5,2.7084406E5,2.55856E5,9.854225E4,0E0,0E0,0E0,0E0,0E0,0E0,0E0,0E0,0E0,0E0,0E0,0E0,0E0,0E0,0E0,0E0,0E0,0E0,0E0,0E0,0E0,0E0,0E0,0E0],"parents":[2147483647,0,0,1,1,2,2,3,3,4,4,5,5,6,6,7,7,8,8,9,9,10,10,11,11,12,12,13,13,14,14,16,16,17,17,18,18,19,19,23,23,24,24,25,25,26,26,27,27,28,28,29,29,30,30],"right_children":[2,4,6,8,10,12,14,16,18,20,22,24,26,28,30,-1,32,34,36,38,-1,-1,-1,40,42,44,46,48,50,52,54,-1,-1,-1,-1,-1,-1,-1,-1,-1,-1,-1,-1,-1,-1,-1,-1,-1,-1,-1,-1,-1,-1,-1,-1],"split_conditions":[1.6E1,5E0,5E0,2E0,1.2E1,7.5E1,6E0,1E0,1.3E1,2.6E1,1.3E1,3.9E1,4.7E1,2.12E1,4.6E1,-5.5986686E0,3E0,2.1E1,1E0,7.85E1,-5.6347165E0,-6.9430323E0,-3.1504395E0,3.5E1,2.7E1,4.6E1,5E1,2.9E1,8E0,8.39E1,4.7E1,5.283887E-1,1.8311442E0,1.61313E1,1.1016189E1,7.9664197E0,-3.207976E0,1.1999853E0,7.058806E0,-2.982723E0,-6.3237658E0,2.7693458E0,-4.231714E0,1.2005108E-1,-7.063447E0,6.4491997E0,-1.8607512E0,-5.2275314E0,-1.0056132E1,4.3863282E-1,-3.5369203E0,-1.3278068E1,-4.959946E0,-1.6959203E0,-7.615108E0],"split_indices":[6,4,4,6,6,1,4,4,6,5,6,6,6,0,6,0,4,5,3,1,0,0,0,6,5,6,6,6,5,1,6,0,0,0,0,0,0,0,0,0,0,0,0,0,0,0,0,0,0,0,0,0,0,0,0],"split_type":[0,0,0,0,0,0,0,0,0,0,0,0,0,0,0,0,0,0,0,0,0,0,0,0,0,0,0,0,0,0,0,0,0,0,0,0,0,0,0,0,0,0,0,0,0,0,0,0,0,0,0,0,0,0,0],"sum_hessian":[2.71E2,8.5E1,1.86E2,6E1,2.5E1,1.27E2,5.9E1,6E0,5.4E1,1.7E1,8E0,3.3E1,9.4E1,2.9E1,3E1,2E0,4E0,4.3E1,1.1E1,1.5E1,2E0,2E0,6E0,2.9E1,4E0,7.9E1,1.5E1,2.1E1,8E0,2.3E1,7E0,2E0,2E0,3.1E1,1.2E1,1E1,1E0,3E0,1.2E1,1.2E1,1.7E1,2E0,2E0,7.5E1,4E0,9E0,6E0,1.1E1,1E1,2E0,6E0,2.1E1,2E0,1E0,6E0],"tree_param":{"num_deleted":"0","num_feature":"9","num_nodes":"55","size_leaf_vector":"1"}},{"base_weights":[-9.108645E0,9.3194794E2,-3.6418137E2,1.1895311E3,2.4187076E2,-1.00891075E2,-9.580703E2,-1.8863322E2,1.3521777E3,4.6524225E2,-4.685555E0,-2.1393884E2,6.3848183E1,-1.0547766E3,-4.9010834E2,-5.5613446E0,6.959414E1,1.4439755E1,7.531461E2,-1.0618073E2,7.598021E2,3.4701172E2,-2.5921585E2,1.17574356E2,-7.311433E0,-7.621473E2,-1.2706718E3,-4.0009766E1,-5.6830716E0,-1.5543164E0,1.647085E0,9.830236E0,2.2004333E0,7.2597265E-1,-3.6875048E0,1.0287382E1,4.2074223E0,4.3227587E0,-8.228662E-1,-1.3521935E0,-3.860317E0,-1.4265168E-1,5.7503924E0,-2.159447E0,-8.268138E0,-7.358665E0,-1.3514284E1,1.2377807E0,-1.8379272E0],"categories":[],"categories_nodes":[],"categories_segments":[],"categories_sizes":[],"default_left":[0,0,0,0,0,0,0,0,0,0,0,0,0,0,0,0,0,0,0,0,0,0,0,0,0,0,0,0,0,0,0,0,0,0,0,0,0,0,0,0,0,0,0,0,0,0,0,0,0],"id":19,"left_children":[1,3,5,7,9,11,13,15,17,19,-1,21,23,25,27,-1,29,-1,31,33,35,37,39,41,-1,43,45,47,-1,-1,-1,-1,-1,-1,-1,-1,-1,-1,-1,-1,-1,-1,-1,-1,-1,-1,-1,-1,-1],"loss_changes":[9.757517E7,1.3932472E7,3.305276E7,1.3255984E7,3.8678385E6,2.7699235E6,2.424608E6,7.029959E5,1.771944E6,3.1104058E6,0E0,2.3249895E6,2.6913865E6,2.37996E6,4.3482575E5,0E0,1.3261683E5,0E0,8.866275E5,3.5536212E5,6.613915E5,2.917968E5,1.2372285E6,3.5062962E6,0E0,7.04478E5,2.58012E5,9.339921E4,0E0,0E0,0E0,0E0,0E0,0E0,0E0,0E0,0E0,0E0,0E0,0E0,0E0,0E0,0E0,0E0,0E0,0E0,0E0,0E0,0E0],"parents":[2147483647,0,0,1,1,2,2,3,3,4,4,5,5,6,6,7,7,8,8,9,9,11,11,12,12,13,13,14,14,16,16,18,18,19,19,20,20,21,21,22,22,23,23,25,25,26,26,27,27],"right_children":[2,4,6,8,10,12,14,16,18,20,-1,22,24,26,28,-1,30,-1,32,34,36,38,40,42,-1,44,46,48,-1,-1,-1,-1,-1,-1,-1,-1,-1,-1,-1,-1,-1,-1,-1,-1,-1,-1,-1,-1,-1],"split_conditions":[1.5E1,5E0,5E0,2E0,1.2E1,2E1,4.6E1,1E0,1.3E1,7.85E1,-4.685555E0,2E1,5.2E1,2.9E1,8E0,-5.5613446E0,2.17E1,1.4439755E1,2.12E1,1.5E1,6E0,1E0,3E1,2.3E1,-7.311433E0,1.55E1,5E0,6E0,-5.6830716E0,-1.5543164E0,1.647085E0,9.830236E0,2.2004333E0,7.2597265E-1,-3.6875048E0,1.0287382E1,4.2074223E0,4.3227587E0,-8.228662E-1,-1.3521935E0,-3.860317E0,-1.4265168E-1,5.7503924E0,-2.159447E0,-8.268138E0,-7.358665E0,-1.3514284E1,1.2377807E0,-1.8379272E0],"split_indices":[6,4,4,6,6,0,6,4,6,1,0,6,6,6,5,0,0,0,0,5,4,3,6,5,0,0,5,4,0,0,0,0,0,0,0,0,0,0,0,0,0,0,0,0,0,0,0,0,0],"split_type":[0,0,0,0,0,0,0,0,0,0,0,0,0,0,0,0,0,0,0,0,0,0,0,0,0,0,0,0,0,0,0,0,0,0,0,0,0,0,0,0,0,0,0,0,0,0,0,0,0],"sum_hessian":[2.9E2,7.9E1,2.11E2,5.7E1,2.2E1,1.47E2,6.4E1,6E0,5.1E1,1.7E1,5E0,8.7E1,6E1,5.2E1,1.2E1,2E0,4E0,4.3E1,8E0,6E0,1.1E1,6E0,8.1E1,5.7E1,3E0,2.4E1,2.8E1,2E0,1E1,1E0,3E0,5E0,3E0,4E0,2E0,5E0,6E0,5E0,1E0,4.2E1,3.9E1,4.5E1,1.2E1,3E0,2.1E1,5E0,2.3E1,1E0,1E0],"tree_param":{"num_deleted":"0","num_feature":"9","num_nodes":"49","size_leaf_vector":"1"}},{"base_weights":[-1.2090881E1,7.7408203E2,-3.4284634E2,1.0264181E3,1.9401137E2,-9.250768E1,-9.3377277E2,-1.5875452E2,1.1890134E3,-3.9539474E1,6.6550635E2,-3.2108987E2,-1.8261038E1,-1.2075157E3,-6.732098E2,-5.5242677E0,6.454069E1,1.4147764E3,5.926234E2,2.2478801E2,-5.2478485E2,8.626979E0,3.3521347E2,-3.7839938E2,1.8972656E1,8.605524E0,-7.2565966E0,-1.374724E1,-6.176546E2,-4.1115286E2,-8.0337787E2,-1.5465454E0,1.3931063E0,1.5076591E1,5.187951E0,1.8865815E0,1.4436154E1,-2.264032E0,3.827857E0,-6.052259E0,-2.1578825E0,-1.9660221E0,7.552913E0,-2.3946402E0,-5.2007804E0,3.4179137E0,-4.177765E0,3.8866812E-1,-6.1044593E0,-6.9025035E0,-5.474219E-1,-7.322899E0,-1.8705974E0,-5.4892306E0,-9.484754E0],"categories":[],"categories_nodes":[],"categories_segments":[],"categories_sizes":[],"default_left":[0,0,0,0,0,0,0,0,0,0,0,0,0,0,0,0,0,0,0,0,0,0,0,0,0,0,0,0,0,0,0,0,0,0,0,0,0,0,0,0,0,0,0,0,0,0,0,0,0,0,0,0,0,0,0],"id":20,"left_children":[1,3,5,7,9,11,13,15,17,19,21,23,25,27,29,-1,31,33,35,37,39,-1,41,43,45,47,-1,-1,49,51,53,-1,-1,-1,-1,-1,-1,-1,-1,-1,-1,-1,-1,-1,-1,-1,-1,-1,-1,-1,-1,-1,-1,-1,-1],"loss_changes":[7.463426E7,1.224254E7,2.9795828E7,1.155828E7,2.9995012E6,2.4210555E6,3.466728E6,7.38895E5,6.162992E6,2.5549755E6,2.969905E5,6.89288E5,2.0778298E6,1.91252E6,7.95367E5,0E0,1.19880336E5,2.297016E6,5.2279895E6,1.01339706E6,4.3391375E4,0E0,1.2655119E6,4.65986E5,9.887373E5,2.0094554E6,0E0,0E0,2.891345E5,7.9855775E5,2.54695E5,0E0,0E0,0E0,0E0,0E0,0E0,0E0,0E0,0E0,0E0,0E0,0E0,0E0,0E0,0E0,0E0,0E0,0E0,0E0,0E0,0E0,0E0,0E0,0E0],"parents":[2147483647,0,0,1,1,2,2,3,3,4,4,5,5,6,6,7,7,8,8,9,9,10,10,11,11,12,12,13,13,14,14,16,16,17,17,18,18,19,19,20,20,22,22,23,23,24,24,25,25,28,28,29,29,30,30],"right_children":[2,4,6,8,10,12,14,16,18,20,22,24,26,28,30,-1,32,34,36,38,40,-1,42,44,46,48,-1,-1,50,52,54,-1,-1,-1,-1,-1,-1,-1,-1,-1,-1,-1,-1,-1,-1,-1,-1,-1,-1,-1,-1,-1,-1,-1,-1],"split_conditions":[1.6E1,5E0,5E0,2E0,2.39E1,7.5E1,7.64E1,1E0,2.2E1,2.1E1,1.2E1,3.9E1,5.2E1,2.09E1,1.5E1,-5.5242677E0,2.17E1,1.5E1,2.39E1,2.12E1,2.9E1,8.626979E0,1.9E1,1.4E1,2.7E1,3E1,-7.2565966E0,-1.374724E1,1E0,2.3E1,2.5E1,-1.5465454E0,1.3931063E0,1.5076591E1,5.187951E0,1.8865815E0,1.4436154E1,-2.264032E0,3.827857E0,-6.052259E0,-2.1578825E0,-1.9660221E0,7.552913E0,-2.3946402E0,-5.2007804E0,3.4179137E0,-4.177765E0,3.8866812E-1,-6.1044593E0,-6.9025035E0,-5.474219E-1,-7.322899E0,-1.8705974E0,-5.4892306E0,-9.484754E0],"split_indices":[6,4,4,6,0,1,1,4,5,5,5,6,6,0,5,0,0,6,0,0,5,0,5,5,5,5,0,0,3,6,6,0,0,0,0,0,0,0,0,0,0,0,0,0,0,0,0,0,0,0,0,0,0,0,0],"split_type":[0,0,0,0,0,0,0,0,0,0,0,0,0,0,0,0,0,0,0,0,0,0,0,0,0,0,0,0,0,0,0,0,0,0,0,0,0,0,0,0,0,0,0,0,0,0,0,0,0,0,0,0,0,0,0],"sum_hessian":[2.85E2,8.4E1,2.01E2,5.8E1,2.6E1,1.42E2,5.9E1,7E0,5.1E1,1.8E1,8E0,3.4E1,1.08E2,2.7E1,3.2E1,2E0,5E0,3.6E1,1.5E1,1.2E1,6E0,4E0,4E0,2.9E1,5E0,1.05E2,3E0,2E1,7E0,1.2E1,2E1,1E0,4E0,3.2E1,4E0,1.1E1,4E0,3E0,9E0,4E0,2E0,2E0,2E0,1.6E1,1.3E1,3E0,2E0,1.01E2,4E0,6E0,1E0,4E0,8E0,9E0,1.1E1],"tree_param":{"num_deleted":"0","num_feature":"9","num_nodes":"55","size_leaf_vector":"1"}},{"base_weights":[2.5248056E1,8.1046857E2,-3.174474E2,1.0565513E3,1.7355469E2,-8.436881E1,-8.754299E2,-1.3646436E2,1.1823195E3,3.3393387E2,-4.1669824E2,-1.5641791E2,4.0166302E2,-1.01166644E3,-5.0134088E2,-5.4874384E2,1.381962E2,1.4520004E3,6.3802466E2,4.5643564E2,-5.53222E0,-3.5231933E-1,-4.8594513E0,3.686622E1,-2.866068E2,2.228465E2,1.0165134E1,-1.2232198E1,-6.1616E2,-5.615625E1,-5.8663403E2,-1.7274487E0,-6.5037084E0,5.045996E-1,1.7986702E0,8.656055E0,1.5564892E1,1.3787239E0,1.4335381E1,6.4060855E0,1.8062032E0,-5.162109E-1,6.130877E0,-4.9436035E0,-1.4790016E0,3.702138E0,-1.9513461E-1,-3.377033E0,-8.8721075E0,-1.5760466E0,1.2409447E0,-6.238304E0,-3.2942137E-1],"categories":[],"categories_nodes":[],"categories_segments":[],"categories_sizes":[],"default_left":[0,0,0,0,0,0,0,0,0,0,0,0,0,0,0,0,0,0,0,0,0,0,0,0,0,0,0,0,0,0,0,0,0,0,0,0,0,0,0,0,0,0,0,0,0,0,0,0,0,0,0,0,0],"id":21,"left_children":[1,3,5,7,9,11,13,15,17,19,21,23,25,27,29,31,33,35,37,39,-1,-1,-1,41,43,45,-1,-1,47,49,51,-1,-1,-1,-1,-1,-1,-1,-1,-1,-1,-1,-1,-1,-1,-1,-1,-1,-1,-1,-1,-1,-1],"loss_changes":[7.8832E7,1.3765908E7,2.6457112E7,9.764128E6,2.600421E6,5.1404605E6,2.550684E6,8.684926E5,7.587176E6,2.5347515E6,1.4137131E5,3.2063242E6,1.8624362E6,2.844144E6,6.50539E5,2.28675E3,9.204125E3,9.81024E5,8.157789E6,8.494495E5,0E0,0E0,0E0,2.6830392E6,2.116961E6,5.786791E5,0E0,0E0,9.834765E5,9.270247E4,2.8838E5,0E0,0E0,0E0,0E0,0E0,0E0,0E0,0E0,0E0,0E0,0E0,0E0,0E0,0E0,0E0,0E0,0E0,0E0,0E0,0E0,0E0,0E0],"parents":[2147483647,0,0,1,1,2,2,3,3,4,4,5,5,6,6,7,7,8,8,9,9,10,10,11,11,12,12,13,13,14,14,15,15,16,16,17,17,18,18,19,19,23,23,24,24,25,25,28,28,29,29,30,30],"right_children":[2,4,6,8,10,12,14,16,18,20,22,24,26,28,30,32,34,36,38,40,-1,-1,-1,42,44,46,-1,-1,48,50,52,-1,-1,-1,-1,-1,-1,-1,-1,-1,-1,-1,-1,-1,-1,-1,-1,-1,-1,-1,-1,-1,-1],"split_conditions":[1.6E1,5E0,5E0,2E0,1.2E1,2.17E1,2.09E1,1E0,2.1E1,2.6E1,6E0,3E1,2.6E1,7.85E1,8E0,2.17E1,3E0,2.12E1,2.39E1,6E0,-5.53222E0,-3.5231933E-1,-4.8594513E0,2.8E1,3.7E1,3E0,1.0165134E1,-1.2232198E1,1.9E1,3E0,3E1,-1.7274487E0,-6.5037084E0,5.045996E-1,1.7986702E0,8.656055E0,1.5564892E1,1.3787239E0,1.4335381E1,6.4060855E0,1.8062032E0,-5.162109E-1,6.130877E0,-4.9436035E0,-1.4790016E0,3.702138E0,-1.9513461E-1,-3.377033E0,-8.8721075E0,-1.5760466E0,1.2409447E0,-6.238304E0,-3.2942137E-1],"split_indices":[6,4,4,6,6,0,0,4,5,5,4,6,5,1,5,0,4,0,0,4,0,0,0,6,6,4,0,0,5,5,5,0,0,0,0,0,0,0,0,0,0,0,0,0,0,0,0,0,0,0,0,0,0],"split_type":[0,0,0,0,0,0,0,0,0,0,0,0,0,0,0,0,0,0,0,0,0,0,0,0,0,0,0,0,0,0,0,0,0,0,0,0,0,0,0,0,0,0,0,0,0,0,0,0,0,0,0,0,0],"sum_hessian":[2.91E2,8.8E1,2.03E2,6.3E1,2.5E1,1.44E2,5.9E1,6E0,5.7E1,2E1,5E0,1.26E2,1.8E1,4.2E1,1.7E1,2E0,4E0,3.7E1,2E1,1.8E1,2E0,1E0,4E0,5.1E1,7.5E1,1.5E1,3E0,2.6E1,1.6E1,3E0,1.4E1,1E0,1E0,2E0,2E0,7E0,3E1,1.3E1,7E0,1E1,8E0,4.5E1,6E0,2.9E1,4.6E1,9E0,6E0,9E0,7E0,2E0,1E0,1.3E1,1E0],"tree_param":{"num_deleted":"0","num_feature":"9","num_nodes":"53","size_leaf_vector":"1"}},{"base_weights":[-9.2022896E-2,7.944213E2,-3.3378717E2,1.066372E3,1.4674794E2,-1.1062453E2,-9.66815E2,-2.1583537E2,1.1890918E3,-1.1642109E2,6.5678064E2,-3.7863657E2,-1.5461518E1,-6.893271E2,-1.2177903E3,-5.46E2,8.5746944E-1,1.4414788E3,5.549862E2,2.4077939E2,-5.930191E2,8.525114E0,3.2969376E2,-5.2681805E2,-7.6396935E1,1.5985456E1,-6.8533444E0,-7.594411E2,-2.2893741E2,-1.325739E1,-6.370048E2,-1.718811E0,-6.471189E0,1.498068E1,5.8595223E0,1.8139937E0,1.2096622E1,-4.5808777E-1,7.5376086E0,-6.843859E0,-2.1261246E0,-1.9802912E0,7.4751873E0,-3.646818E0,-7.1476E0,-2.9872851E0,1.2769281E0,-7.232669E-1,3.6047907E0,-2.747805E0,-8.184011E0,-9.884094E-1,-3.7466161E0,-1.8115039E0,-6.919456E0],"categories":[],"categories_nodes":[],"categories_segments":[],"categories_sizes":[],"default_left":[0,0,0,0,0,0,0,0,0,0,0,0,0,0,0,0,0,0,0,0,0,0,0,0,0,0,0,0,0,0,0,0,0,0,0,0,0,0,0,0,0,0,0,0,0,0,0,0,0,0,0,0,0,0,0],"id":22,"left_children":[1,3,5,7,9,11,13,15,17,19,21,23,25,27,29,31,-1,33,35,37,39,-1,41,43,45,47,-1,49,51,-1,53,-1,-1,-1,-1,-1,-1,-1,-1,-1,-1,-1,-1,-1,-1,-1,-1,-1,-1,-1,-1,-1,-1,-1,-1],"loss_changes":[7.529562E7,1.4638872E7,2.814668E7,9.54044E6,3.5663085E6,3.7943658E6,2.78196E6,6.442487E5,7.84216E6,3.2071252E6,2.95121E5,1.706419E6,2.3492232E6,6.97689E5,7.85572E5,2.264E3,0E0,9.6192E5,3.9384005E6,1.6516875E6,1.3254325E5,0E0,1.2505094E6,5.316175E5,6.734038E5,3.2813302E6,0E0,4.32359E5,5.775911E4,0E0,2.492375E4,0E0,0E0,0E0,0E0,0E0,0E0,0E0,0E0,0E0,0E0,0E0,0E0,0E0,0E0,0E0,0E0,0E0,0E0,0E0,0E0,0E0,0E0,0E0,0E0],"parents":[2147483647,0,0,1,1,2,2,3,3,4,4,5,5,6,6,7,7,8,8,9,9,10,10,11,11,12,12,13,13,14,14,15,15,17,17,18,18,19,19,20,20,22,22,23,23,24,24,25,25,27,27,28,28,30,30],"right_children":[2,4,6,8,10,12,14,16,18,20,22,24,26,28,30,32,-1,34,36,38,40,-1,42,44,46,48,-1,50,52,-1,54,-1,-1,-1,-1,-1,-1,-1,-1,-1,-1,-1,-1,-1,-1,-1,-1,-1,-1,-1,-1,-1,-1,-1,-1],"split_conditions":[1.6E1,5E0,5E0,2E0,2.39E1,7.5E1,6E0,1E0,2.1E1,2.1E1,1.2E1,3.7E1,5.2E1,4.8E1,4.8E1,2.17E1,8.5746944E-1,1.5E1,2.39E1,1.5E1,2.9E1,8.525114E0,1.9E1,3.5E1,2E0,4.7E1,-6.8533444E0,1.55E1,5.2E1,-1.325739E1,2E0,-1.718811E0,-6.471189E0,1.498068E1,5.8595223E0,1.8139937E0,1.2096622E1,-4.5808777E-1,7.5376086E0,-6.843859E0,-2.1261246E0,-1.9802912E0,7.4751873E0,-3.646818E0,-7.1476E0,-2.9872851E0,1.2769281E0,-7.232669E-1,3.6047907E0,-2.747805E0,-8.184011E0,-9.884094E-1,-3.7466161E0,-1.8115039E0,-6.919456E0],"split_indices":[6,4,4,6,0,1,4,4,5,5,5,6,6,6,6,0,0,6,0,5,5,0,5,6,4,6,0,0,6,0,5,0,0,0,0,0,0,0,0,0,0,0,0,0,0,0,0,0,0,0,0,0,0,0,0],"split_type":[0,0,0,0,0,0,0,0,0,0,0,0,0,0,0,0,0,0,0,0,0,0,0,0,0,0,0,0,0,0,0,0,0,0,0,0,0,0,0,0,0,0,0,0,0,0,0,0,0,0,0,0,0,0,0],"sum_hessian":[2.82E2,8.3E1,1.99E2,5.8E1,2.5E1,1.48E2,5.1E1,5E0,5.3E1,1.7E1,8E0,3.8E1,1.1E2,2.6E1,2.5E1,2E0,3E0,3.7E1,1.6E1,1E1,7E0,4E0,4E0,2.5E1,1.3E1,1.06E2,4E0,2.2E1,4E0,2E1,5E0,1E0,1E0,3.4E1,3E0,1.1E1,5E0,7E0,3E0,5E0,2E0,2E0,2E0,1.5E1,1E1,6E0,7E0,8.5E1,2.1E1,3E0,1.9E1,3E0,1E0,1E0,4E0],"tree_param":{"num_deleted":"0","num_feature":"9","num_nodes":"55","size_leaf_vector":"1"}},{"base_weights":[1.4620918E1,7.776002E2,-3.211631E2,9.900498E2,9.524931E1,-9.789666E1,-9.3856433E2,-1.5699872E2,1.1264888E3,-9.6809326E1,5.206334E2,-3.7109232E2,-1.9333265E1,-1.2157625E3,-6.8552045E2,-5.4327E2,6.2303387E1,9.595717E2,1.4361743E1,1.5552983E2,-5.432962E2,2.8336563E2,7.425353E0,-4.6203287E2,1.1514559E2,1.6082262E1,-5.731011E2,-1.3536565E1,-6.8749744E2,-4.5096695E2,-8.383574E2,-1.7102172E0,-6.4388328E0,-1.5456225E0,1.3658895E0,1.1932804E1,2.7585986E0,-2.6865501E0,3.4818103E0,-5.929869E0,-1.4742138E0,6.6898484E0,-1.9670881E0,-6.6620297E0,-3.4705465E0,2.9517138E0,-3.924917E0,-5.7389677E-1,3.709947E0,-2.0414972E0,-6.7985168E0,-7.8555083E0,-4.958838E-1,-7.8566704E0,-1.7772607E0,-5.429969E0,-9.908101E0],"categories":[],"categories_nodes":[],"categories_segments":[],"categories_sizes":[],"default_left":[0,0,0,0,0,0,0,0,0,0,0,0,0,0,0,0,0,0,0,0,0,0,0,0,0,0,0,0,0,0,0,0,0,0,0,0,0,0,0,0,0,0,0,0,0,0,0,0,0,0,0,0,0,0,0,0,0],"id":23,"left_children":[1,3,5,7,9,11,13,15,17,19,21,23,25,27,29,31,33,35,-1,37,39,41,-1,43,45,47,49,-1,51,53,55,-1,-1,-1,-1,-1,-1,-1,-1,-1,-1,-1,-1,-1,-1,-1,-1,-1,-1,-1,-1,-1,-1,-1,-1,-1,-1],"loss_changes":[7.377806E7,1.2662632E7,2.747711E7,1.06625E7,1.8477735E6,3.169376E6,2.884164E6,7.115284E5,1.7234E6,1.8871566E6,1.5814225E5,1.5124195E6,2.284206E6,8.17636E5,6.97382E5,2.241375E3,1.1777143E5,6.381976E6,0E0,9.924576E5,3.0608875E4,1.057225E6,0E0,4.260945E5,6.641792E5,2.8896632E6,1.36909E5,0E0,3.9889025E5,1.1407192E6,2.27477E5,0E0,0E0,0E0,0E0,0E0,0E0,0E0,0E0,0E0,0E0,0E0,0E0,0E0,0E0,0E0,0E0,0E0,0E0,0E0,0E0,0E0,0E0,0E0,0E0,0E0,0E0],"parents":[2147483647,0,0,1,1,2,2,3,3,4,4,5,5,6,6,7,7,8,8,9,9,10,10,11,11,12,12,13,13,14,14,15,15,16,16,17,17,19,19,20,20,21,21,23,23,24,24,25,25,26,26,28,28,29,29,30,30],"right_children":[2,4,6,8,10,12,14,16,18,20,22,24,26,28,30,32,34,36,-1,38,40,42,-1,44,46,48,50,-1,52,54,56,-1,-1,-1,-1,-1,-1,-1,-1,-1,-1,-1,-1,-1,-1,-1,-1,-1,-1,-1,-1,-1,-1,-1,-1,-1,-1],"split_conditions":[1.6E1,5E0,5E0,2E0,2.39E1,7.5E1,7.64E1,1E0,2.39E1,2.1E1,1.9E1,3.9E1,5.1E1,2.09E1,1.5E1,2.17E1,2.17E1,2.2E1,1.4361743E1,2.12E1,2.9E1,1.2E1,7.425353E0,2E0,4E0,4.7E1,1.9E1,-1.3536565E1,1E0,2.4E1,2.5E1,-1.7102172E0,-6.4388328E0,-1.5456225E0,1.3658895E0,1.1932804E1,2.7585986E0,-2.6865501E0,3.4818103E0,-5.929869E0,-1.4742138E0,6.6898484E0,-1.9670881E0,-6.6620297E0,-3.4705465E0,2.9517138E0,-3.924917E0,-5.7389677E-1,3.709947E0,-2.0414972E0,-6.7985168E0,-7.8555083E0,-4.958838E-1,-7.8566704E0,-1.7772607E0,-5.429969E0,-9.908101E0],"split_indices":[6,4,4,6,0,1,1,4,0,5,5,6,6,0,5,0,0,5,0,0,5,5,0,4,4,6,5,0,3,6,6,0,0,0,0,0,0,0,0,0,0,0,0,0,0,0,0,0,0,0,0,0,0,0,0,0,0],"split_type":[0,0,0,0,0,0,0,0,0,0,0,0,0,0,0,0,0,0,0,0,0,0,0,0,0,0,0,0,0,0,0,0,0,0,0,0,0,0,0,0,0,0,0,0,0,0,0,0,0,0,0,0,0,0,0,0,0],"sum_hessian":[2.86E2,8.7E1,1.99E2,6.6E1,2.1E1,1.47E2,5.2E1,7E0,5.9E1,1.5E1,6E0,3.2E1,1.15E2,2.3E1,2.9E1,2E0,5E0,4.1E1,1.8E1,1E1,5E0,4E0,2E0,2.7E1,5E0,1.09E2,6E0,1.7E1,6E0,1.3E1,1.6E1,1E0,1E0,1E0,4E0,3E1,1.1E1,3E0,7E0,4E0,1E0,2E0,2E0,8E0,1.9E1,4E0,1E0,9.1E1,1.8E1,2E0,4E0,5E0,1E0,5E0,8E0,7E0,9E0],"tree_param":{"num_deleted":"0","num_feature":"9","num_nodes":"57","size_leaf_vector":"1"}},{"base_weights":[-2.3542514E0,8.31369E2,-3.6483124E2,1.0305947E3,2.0620714E2,-1.00587715E2,-9.405542E2,-1.5646973E2,1.1693804E3,4.6944968E2,-4.6255435E2,-3.7311346E2,-5.4097686E0,-1.1891952E3,-7.072269E2,-5.405535E2,6.165047E1,1.3434436E3,7.1390155E2,-9.4690834E1,7.123991E2,-6.7226315E0,-2.4421816E0,-4.6755228E2,-1.6279932E2,3.5287235E1,-6.9635715E0,-1.3956204E1,-6.3678235E2,-4.508368E2,-8.8979724E2,-1.701665E0,-6.406638E0,-1.5378954E0,1.3549638E0,1.4488438E1,4.5200205E0,2.2941926E0,1.5116684E1,2.0065465E0,-4.5692124E0,1.0151027E1,4.341595E0,-3.0121262E0,-7.833725E0,1.4000126E0,-3.1293304E0,-4.847012E-1,3.811159E0,-7.012347E0,-2.8355467E-1,-5.9852276E0,-2.5305781E0,-1.7935596E0,-9.17749E0],"categories":[],"categories_nodes":[],"categories_segments":[],"categories_sizes":[],"default_left":[0,0,0,0,0,0,0,0,0,0,0,0,0,0,0,0,0,0,0,0,0,0,0,0,0,0,0,0,0,0,0,0,0,0,0,0,0,0,0,0,0,0,0,0,0,0,0,0,0,0,0,0,0,0,0],"id":24,"left_children":[1,3,5,7,9,11,13,15,17,19,21,23,25,27,29,31,33,35,37,39,41,-1,-1,43,45,47,-1,-1,49,51,53,-1,-1,-1,-1,-1,-1,-1,-1,-1,-1,-1,-1,-1,-1,-1,-1,-1,-1,-1,-1,-1,-1,-1,-1],"loss_changes":[8.9756136E7,1.099684E7,3.1396528E7,1.13858E7,4.2662145E6,3.707179E6,2.929924E6,7.0353694E5,3.877128E6,2.397437E6,1.5633038E5,6.5877E5,3.0333578E6,2.532256E6,1.283976E6,2.2190625E3,1.16294125E5,3.385304E6,6.996769E6,7.3358206E5,5.69973E5,0E0,0E0,1.0773745E6,6.347985E5,2.9729735E6,0E0,0E0,3.722615E5,3.4509525E5,2.3256E5,0E0,0E0,0E0,0E0,0E0,0E0,0E0,0E0,0E0,0E0,0E0,0E0,0E0,0E0,0E0,0E0,0E0,0E0,0E0,0E0,0E0,0E0,0E0,0E0],"parents":[2147483647,0,0,1,1,2,2,3,3,4,4,5,5,6,6,7,7,8,8,9,9,10,10,11,11,12,12,13,13,14,14,15,15,16,16,17,17,18,18,19,19,20,20,23,23,24,24,25,25,28,28,29,29,30,30],"right_children":[2,4,6,8,10,12,14,16,18,20,22,24,26,28,30,32,34,36,38,40,42,-1,-1,44,46,48,-1,-1,50,52,54,-1,-1,-1,-1,-1,-1,-1,-1,-1,-1,-1,-1,-1,-1,-1,-1,-1,-1,-1,-1,-1,-1,-1,-1],"split_conditions":[1.6E1,5E0,5E0,2E0,1.2E1,7.5E1,7.64E1,1E0,2.2E1,7.85E1,1.3E1,3.7E1,5.2E1,2.09E1,6E0,2.17E1,2.17E1,1.5E1,2.39E1,2.1E1,6E0,-6.7226315E0,-2.4421816E0,3.5E1,1.4E1,4.7E1,-6.9635715E0,-1.3956204E1,2.5E1,2.4E1,2E0,-1.701665E0,-6.406638E0,-1.5378954E0,1.3549638E0,1.4488438E1,4.5200205E0,2.2941926E0,1.5116684E1,2.0065465E0,-4.5692124E0,1.0151027E1,4.341595E0,-3.0121262E0,-7.833725E0,1.4000126E0,-3.1293304E0,-4.847012E-1,3.811159E0,-7.012347E0,-2.8355467E-1,-5.9852276E0,-2.5305781E0,-1.7935596E0,-9.17749E0],"split_indices":[6,4,4,6,6,1,1,4,5,1,6,6,6,0,4,0,0,6,0,5,4,0,0,6,5,6,0,0,5,6,5,0,0,0,0,0,0,0,0,0,0,0,0,0,0,0,0,0,0,0,0,0,0,0,0],"split_type":[0,0,0,0,0,0,0,0,0,0,0,0,0,0,0,0,0,0,0,0,0,0,0,0,0,0,0,0,0,0,0,0,0,0,0,0,0,0,0,0,0,0,0,0,0,0,0,0,0,0,0,0,0,0,0],"sum_hessian":[2.95E2,8.9E1,2.06E2,6.7E1,2.2E1,1.42E2,6.4E1,7E0,6E1,1.6E1,6E0,3.6E1,1.06E2,2.9E1,3.5E1,2E0,5E0,4.2E1,1.8E1,5E0,1.1E1,2E0,4E0,2.4E1,1.2E1,1.01E2,5E0,2E1,9E0,1.6E1,1.9E1,1E0,1E0,1E0,4E0,3.7E1,5E0,1.2E1,6E0,3E0,2E0,4E0,7E0,1.7E1,7E0,4E0,8E0,8.2E1,1.9E1,8E0,1E0,8E0,8E0,1E0,1.8E1],"tree_param":{"num_deleted":"0","num_feature":"9","num_nodes":"55","size_leaf_vector":"1"}},{"base_weights":[-3.147977E1,7.813401E2,-3.6806952E2,9.8462244E2,2.0669806E2,-1.2254053E2,-9.3902545E2,-2.7075406E2,1.0955994E3,4.6434207E2,-4.853434E2,-4.027362E2,-3.2190224E1,-1.1571035E3,-6.916028E2,-5.3785077E2,-2.743042E0,1.293518E3,4.828481E2,5.483381E2,-4.8179517E0,-5.554799E2,-3.2262206E-1,-4.617031E2,-3.0951172E1,-2.364455E0,-6.759539E0,-1.2663359E3,-4.7270703E2,-5.0111713E2,-8.5076855E2,-1.6931567E0,-6.374604E0,-1.530205E0,9.835628E-1,1.3903942E1,4.482353E0,2.3107586E0,1.1803959E1,9.509204E-1,6.3866997E0,-5.9961066E0,-1.6741308E0,-3.8963056E0,-6.9706707E0,2.6184168E0,-4.1102457E0,-7.381845E-1,3.1929674E0,-7.0769696E0,-1.3327211E1,-5.55963E0,-2.8213623E-1,-5.9438562E0,-1.5839571E0,-2.033064E0,-8.803789E0],"categories":[],"categories_nodes":[],"categories_segments":[],"categories_sizes":[],"default_left":[0,0,0,0,0,0,0,0,0,0,0,0,0,0,0,0,0,0,0,0,0,0,0,0,0,0,0,0,0,0,0,0,0,0,0,0,0,0,0,0,0,0,0,0,0,0,0,0,0,0,0,0,0,0,0,0,0],"id":25,"left_children":[1,3,5,7,9,11,13,15,17,19,21,23,25,27,29,31,33,35,37,39,-1,41,-1,43,45,47,-1,49,51,53,55,-1,-1,-1,-1,-1,-1,-1,-1,-1,-1,-1,-1,-1,-1,-1,-1,-1,-1,-1,-1,-1,-1,-1,-1,-1,-1],"loss_changes":[8.12693E7,9.959352E6,2.932404E7,9.21298E6,4.5045735E6,3.7337698E6,2.599064E6,4.2803378E5,6.530648E6,1.694678E6,2.0452162E5,7.74938E5,2.1680862E6,1.79366E6,5.43867E5,2.197E3,7.582233E4,2.97984E6,2.5372092E6,6.352915E5,0E0,2.371375E3,0E0,2.542635E5,7.7532E5,2.5288235E6,0E0,5.8144E4,2.0635462E5,4.49259E5,1.27759E5,0E0,0E0,0E0,0E0,0E0,0E0,0E0,0E0,0E0,0E0,0E0,0E0,0E0,0E0,0E0,0E0,0E0,0E0,0E0,0E0,0E0,0E0,0E0,0E0,0E0,0E0],"parents":[2147483647,0,0,1,1,2,2,3,3,4,4,5,5,6,6,7,7,8,8,9,9,10,10,11,11,12,12,13,13,14,14,15,15,16,16,17,17,18,18,19,19,21,21,23,23,24,24,25,25,27,27,28,28,29,29,30,30],"right_children":[2,4,6,8,10,12,14,16,18,20,22,24,26,28,30,32,34,36,38,40,-1,42,-1,44,46,48,-1,50,52,54,56,-1,-1,-1,-1,-1,-1,-1,-1,-1,-1,-1,-1,-1,-1,-1,-1,-1,-1,-1,-1,-1,-1,-1,-1,-1,-1],"split_conditions":[1.6E1,5E0,5E0,2E0,1.2E1,7.5E1,7.64E1,1E0,2.2E1,2.6E1,1.5E1,3.9E1,5.2E1,4.6E1,6E0,2.17E1,2.17E1,1.5E1,2.39E1,3E0,-4.8179517E0,2.5E1,-3.2262206E-1,3.8E1,2.7E1,4.7E1,-6.759539E0,5E0,2.5E1,2.12E1,1.8E1,-1.6931567E0,-6.374604E0,-1.530205E0,9.835628E-1,1.3903942E1,4.482353E0,2.3107586E0,1.1803959E1,9.509204E-1,6.3866997E0,-5.9961066E0,-1.6741308E0,-3.8963056E0,-6.9706707E0,2.6184168E0,-4.1102457E0,-7.381845E-1,3.1929674E0,-7.0769696E0,-1.3327211E1,-5.55963E0,-2.8213623E-1,-5.9438562E0,-1.5839571E0,-2.033064E0,-8.803789E0],"split_indices":[6,4,4,6,6,1,1,4,5,5,6,6,6,6,4,0,0,6,0,6,0,5,0,6,5,6,0,5,5,0,6,0,0,0,0,0,0,0,0,0,0,0,0,0,0,0,0,0,0,0,0,0,0,0,0,0,0],"split_type":[0,0,0,0,0,0,0,0,0,0,0,0,0,0,0,0,0,0,0,0,0,0,0,0,0,0,0,0,0,0,0,0,0,0,0,0,0,0,0,0,0,0,0,0,0,0,0,0,0,0,0,0,0,0,0,0,0],"sum_hessian":[2.95E2,8.6E1,2.09E2,6.3E1,2.3E1,1.47E2,6.2E1,5E0,5.8E1,1.7E1,6E0,3.5E1,1.12E2,3.1E1,3.1E1,2E0,3E0,4.3E1,1.5E1,1.6E1,1E0,5E0,1E0,3E1,5E0,1.08E2,4E0,2.6E1,5E0,1.6E1,1.5E1,1E0,1E0,1E0,2E0,3.8E1,5E0,1.2E1,3E0,3E0,1.3E1,4E0,1E0,2.5E1,5E0,3E0,2E0,8.9E1,1.9E1,4E0,2.2E1,4E0,1E0,1.2E1,4E0,1E0,1.4E1],"tree_param":{"num_deleted":"0","num_feature":"9","num_nodes":"57","size_leaf_vector":"1"}},{"base_weights":[-3.5936046E0,7.459212E2,-3.2011884E2,9.800248E2,1.2614338E2,-8.077641E1,-8.8772327E2,-1.5523334E2,1.1247041E3,-1.0110397E2,6.21682E2,-1.2908049E2,2.933593E2,-6.0982434E2,-1.1205122E3,-5.3516144E2,6.0602947E1,1.2773855E3,6.6316394E2,1.583123E2,-5.3137415E2,8.294331E0,2.0657263E2,3.1055021E1,-2.3970695E2,9.7054825E1,9.070852E0,-6.981177E2,-1.4029793E2,-1.2227048E3,-6.610963E2,-1.6846899E0,-6.342732E0,-1.5225537E0,1.3362569E0,1.3277676E1,4.7940917E0,3.1273062E0,1.3715712E1,-2.1746337E0,3.0773346E0,-6.1944304E0,-2.0746794E0,-2.0448601E0,7.1987424E0,-8.740264E-1,7.231119E0,-3.2925835E0,1.477574E-1,3.9128053E0,-1.7252454E0,-8.110654E0,-4.475895E0,6.589453E-1,-2.5986779E0,-8.767631E0,-1.4318902E1,-1.4248998E0,-7.148272E0],"categories":[],"categories_nodes":[],"categories_segments":[],"categories_sizes":[],"default_left":[0,0,0,0,0,0,0,0,0,0,0,0,0,0,0,0,0,0,0,0,0,0,0,0,0,0,0,0,0,0,0,0,0,0,0,0,0,0,0,0,0,0,0,0,0,0,0,0,0,0,0,0,0,0,0,0,0,0,0],"id":26,"left_children":[1,3,5,7,9,11,13,15,17,19,21,23,25,27,29,31,33,35,37,39,41,-1,43,45,47,49,-1,51,53,55,57,-1,-1,-1,-1,-1,-1,-1,-1,-1,-1,-1,-1,-1,-1,-1,-1,-1,-1,-1,-1,-1,-1,-1,-1,-1,-1,-1,-1],"loss_changes":[6.951297E7,1.2499396E7,2.7913764E7,1.0522232E7,2.8781008E6,2.6764202E6,3.262888E6,6.884505E5,3.099128E6,2.0932668E6,5.1857725E5,2.3104235E6,1.9600745E6,1.145736E6,6.94044E5,2.17525E3,1.1360621E5,1.011816E6,3.54306E6,7.4070675E5,7.1167875E4,0E0,9.911925E5,4.490092E6,1.75964E6,1.177946E6,0E0,3.44392E5,1.6505031E5,5.5372E5,1.2106575E5,0E0,0E0,0E0,0E0,0E0,0E0,0E0,0E0,0E0,0E0,0E0,0E0,0E0,0E0,0E0,0E0,0E0,0E0,0E0,0E0,0E0,0E0,0E0,0E0,0E0,0E0,0E0,0E0],"parents":[2147483647,0,0,1,1,2,2,3,3,4,4,5,5,6,6,7,7,8,8,9,9,10,10,11,11,12,12,13,13,14,14,15,15,16,16,17,17,18,18,19,19,20,20,22,22,23,23,24,24,25,25,27,27,28,28,29,29,30,30],"right_children":[2,4,6,8,10,12,14,16,18,20,22,24,26,28,30,32,34,36,38,40,42,-1,44,46,48,50,-1,52,54,56,58,-1,-1,-1,-1,-1,-1,-1,-1,-1,-1,-1,-1,-1,-1,-1,-1,-1,-1,-1,-1,-1,-1,-1,-1,-1,-1,-1,-1],"split_conditions":[1.6E1,5E0,5E0,2E0,2.39E1,2.17E1,6E0,1E0,2.2E1,2.1E1,1.2E1,3E1,2.6E1,4.8E1,4.6E1,2.17E1,2.17E1,1.5E1,2.39E1,2.12E1,2.9E1,8.294331E0,1.9E1,2.8E1,4.3E1,1.2E1,9.070852E0,7.85E1,5E1,2.8E1,4.7E1,-1.6846899E0,-6.342732E0,-1.5225537E0,1.3362569E0,1.3277676E1,4.7940917E0,3.1273062E0,1.3715712E1,-2.1746337E0,3.0773346E0,-6.1944304E0,-2.0746794E0,-2.0448601E0,7.1987424E0,-8.740264E-1,7.231119E0,-3.2925835E0,1.477574E-1,3.9128053E0,-1.7252454E0,-8.110654E0,-4.475895E0,6.589453E-1,-2.5986779E0,-8.767631E0,-1.4318902E1,-1.4248998E0,-7.148272E0],"split_indices":[6,4,4,6,0,0,4,4,5,5,5,6,5,6,6,0,0,6,0,0,5,0,5,6,6,5,0,1,6,6,6,0,0,0,0,0,0,0,0,0,0,0,0,0,0,0,0,0,0,0,0,0,0,0,0,0,0,0,0],"split_type":[0,0,0,0,0,0,0,0,0,0,0,0,0,0,0,0,0,0,0,0,0,0,0,0,0,0,0,0,0,0,0,0,0,0,0,0,0,0,0,0,0,0,0,0,0,0,0,0,0,0,0,0,0,0,0,0,0,0,0],"sum_hessian":[2.91E2,8.6E1,2.05E2,6.2E1,2.4E1,1.45E2,6E1,7E0,5.5E1,1.7E1,7E0,1.29E2,1.6E1,2.9E1,3.1E1,2E0,5E0,4E1,1.5E1,1.1E1,6E0,4E0,3E0,5.3E1,7.6E1,1.3E1,3E0,2.4E1,5E0,2.4E1,7E0,1E0,1E0,1E0,4E0,3.7E1,3E0,1.1E1,4E0,3E0,8E0,4E0,2E0,2E0,1E0,4.6E1,7E0,5.6E1,2E1,6E0,7E0,1.5E1,9E0,2E0,3E0,1.1E1,1.3E1,1E0,6E0],"tree_param":{"num_deleted":"0","num_feature":"9","num_nodes":"59","size_leaf_vector":"1"}},{"base_weights":[-4.244837E0,8.862595E2,-2.9135025E2,1.1272423E3,1.9276582E2,-5.8205112E1,-8.6199304E2,-2.0348305E2,1.3091942E3,5.891129E2,-2.2285786E2,3.1775638E2,-1.3061467E2,-1.1770707E3,-6.1729004E2,-5.3248566E2,3.4615135E1,1.5816282E1,7.1655566E2,-4.6080565E-1,7.536714E2,8.7806885E1,-5.51084E2,6.020098E2,9.060134E0,-2.362484E2,4.1011593E1,-1.4302567E1,-5.399128E2,-4.057999E2,-7.9629126E2,-1.676267E0,-6.311018E0,-1.5149413E0,1.1901599E0,2.2846773E0,1.3114591E1,8.903891E0,3.9435644E0,2.8469708E0,-4.48322E0,-2.4017415E0,-6.7829914E0,8.492218E0,3.9777985E0,-5.544707E0,2.3356645E0,-3.1255242E-1,-4.1191096E0,1.2178857E0,-7.1033897E0,-6.003013E0,-2.84021E-1,-5.2145762E0,-1.8158832E0,-3.161621E0,-8.665553E0],"categories":[],"categories_nodes":[],"categories_segments":[],"categories_sizes":[],"default_left":[0,0,0,0,0,0,0,0,0,0,0,0,0,0,0,0,0,0,0,0,0,0,0,0,0,0,0,0,0,0,0,0,0,0,0,0,0,0,0,0,0,0,0,0,0,0,0,0,0,0,0,0,0,0,0,0,0],"id":27,"left_children":[1,3,5,7,9,11,13,15,17,19,21,23,25,27,29,31,33,-1,35,-1,37,39,41,43,45,47,49,-1,51,53,55,-1,-1,-1,-1,-1,-1,-1,-1,-1,-1,-1,-1,-1,-1,-1,-1,-1,-1,-1,-1,-1,-1,-1,-1,-1,-1],"loss_changes":[7.235676E7,1.1313988E7,2.8420942E7,1.2614928E7,3.261182E6,4.206654E6,4.053632E6,5.667766E5,6.132144E6,1.0799945E6,1.0680718E6,2.188245E6,2.3483972E6,3.422096E6,1.077574E6,2.1534375E3,9.656913E4,0E0,4.3462165E6,0E0,4.1867E4,7.6098706E5,3.4852375E4,3.18542E5,1.7742168E6,2.867896E6,3.1211028E6,0E0,2.6095475E5,3.9801375E5,3.67009E5,0E0,0E0,0E0,0E0,0E0,0E0,0E0,0E0,0E0,0E0,0E0,0E0,0E0,0E0,0E0,0E0,0E0,0E0,0E0,0E0,0E0,0E0,0E0,0E0,0E0,0E0],"parents":[2147483647,0,0,1,1,2,2,3,3,4,4,5,5,6,6,7,7,8,8,9,9,10,10,11,11,12,12,13,13,14,14,15,15,16,16,18,18,20,20,21,21,22,22,23,23,24,24,25,25,26,26,28,28,29,29,30,30],"right_children":[2,4,6,8,10,12,14,16,18,20,22,24,26,28,30,32,34,-1,36,-1,38,40,42,44,46,48,50,-1,52,54,56,-1,-1,-1,-1,-1,-1,-1,-1,-1,-1,-1,-1,-1,-1,-1,-1,-1,-1,-1,-1,-1,-1,-1,-1,-1,-1],"split_conditions":[1.3E1,5E0,5E0,2E0,1.7E1,2E1,7.64E1,1E0,2.1E1,7.85E1,6E0,1.7E1,3.9E1,2.09E1,6E0,2.17E1,2.17E1,1.5816282E1,2.39E1,-4.6080565E-1,6E0,7.93E1,2.2E1,1.5E1,2E1,2.9E1,5.2E1,-1.4302567E1,2.4E1,2.7E1,1.6E1,-1.676267E0,-6.311018E0,-1.5149413E0,1.1901599E0,2.2846773E0,1.3114591E1,8.903891E0,3.9435644E0,2.8469708E0,-4.48322E0,-2.4017415E0,-6.7829914E0,8.492218E0,3.9777985E0,-5.544707E0,2.3356645E0,-3.1255242E-1,-4.1191096E0,1.2178857E0,-7.1033897E0,-6.003013E0,-2.84021E-1,-5.2145762E0,-1.8158832E0,-3.161621E0,-8.665553E0],"split_indices":[6,4,4,6,5,6,1,4,5,1,4,5,6,0,4,0,0,0,0,0,4,1,5,6,5,6,6,0,5,6,6,0,0,0,0,0,0,0,0,0,0,0,0,0,0,0,0,0,0,0,0,0,0,0,0,0,0],"split_type":[0,0,0,0,0,0,0,0,0,0,0,0,0,0,0,0,0,0,0,0,0,0,0,0,0,0,0,0,0,0,0,0,0,0,0,0,0,0,0,0,0,0,0,0,0,0,0,0,0,0,0,0,0,0,0,0,0],"sum_hessian":[2.81E2,6.8E1,2.13E2,5E1,1.8E1,1.52E2,6.1E1,6E0,4.4E1,9E0,9E0,2.4E1,1.28E2,2.5E1,3.6E1,2E0,4E0,2.9E1,1.5E1,2E0,7E0,5E0,4E0,1.2E1,1.2E1,7.9E1,4.9E1,1.7E1,8E0,1.8E1,1.8E1,1E0,1E0,1E0,3E0,9E0,6E0,4E0,3E0,4E0,1E0,2E0,2E0,4E0,8E0,3E0,9E0,3.7E1,4.2E1,4.5E1,4E0,7E0,1E0,1.1E1,7E0,3E0,1.5E1],"tree_param":{"num_deleted":"0","num_feature":"9","num_nodes":"57","size_leaf_vector":"1"}},{"base_weights":[-1.777175E1,7.506438E2,-3.4490674E2,9.43864E2,1.8801135E2,-1.1152397E2,-8.96451E2,-1.8094211E2,1.0593604E3,3.9117307E2,-3.6126324E2,-3.7025327E2,-1.8778818E1,-9.9066705E2,-4.2132837E2,-5.2982324E2,6.4575E1,1.2528857E3,6.9356354E2,4.6981824E2,-4.7289743E0,-4.1200504E0,-2.840625E-1,-4.4525958E2,3.624121E1,1.1544152E1,-6.5786996E0,-1.1474361E1,-6.096326E2,1.2749268E0,-4.8281143E2,-1.6678857E0,-6.279463E0,-1.5073657E0,1.5608703E0,1.3278159E1,4.9278336E0,3.0254543E0,1.2681977E1,5.87916E-1,5.9176555E0,-2.7297144E0,-5.9135594E0,2.948784E0,-4.069012E0,4.1306826E-1,-5.979232E0,-2.2295794E0,-9.285704E0,-5.2544055E0,-2.826001E-1],"categories":[],"categories_nodes":[],"categories_segments":[],"categories_sizes":[],"default_left":[0,0,0,0,0,0,0,0,0,0,0,0,0,0,0,0,0,0,0,0,0,0,0,0,0,0,0,0,0,0,0,0,0,0,0,0,0,0,0,0,0,0,0,0,0,0,0,0,0,0,0],"id":28,"left_children":[1,3,5,7,9,11,13,15,17,19,21,23,25,27,29,31,33,35,37,39,-1,-1,-1,41,43,45,-1,-1,47,-1,49,-1,-1,-1,-1,-1,-1,-1,-1,-1,-1,-1,-1,-1,-1,-1,-1,-1,-1,-1,-1],"loss_changes":[7.4917464E7,9.497908E6,2.6802696E7,8.765816E6,2.8195142E6,3.544439E6,2.357988E6,6.338073E5,3.378496E6,1.4453652E6,1.0652475E5,1.205233E6,2.1393002E6,2.34694E6,4.6647325E5,2.1319375E3,1.22046016E5,1.509952E6,4.784237E6,8.173105E5,0E0,0E0,0E0,6.692085E5,9.222781E5,1.9474725E6,0E0,0E0,1.8894955E6,0E0,1.982995E5,0E0,0E0,0E0,0E0,0E0,0E0,0E0,0E0,0E0,0E0,0E0,0E0,0E0,0E0,0E0,0E0,0E0,0E0,0E0,0E0],"parents":[2147483647,0,0,1,1,2,2,3,3,4,4,5,5,6,6,7,7,8,8,9,9,10,10,11,11,12,12,13,13,14,14,15,15,16,16,17,17,18,18,19,19,23,23,24,24,25,25,28,28,30,30],"right_children":[2,4,6,8,10,12,14,16,18,20,22,24,26,28,30,32,34,36,38,40,-1,-1,-1,42,44,46,-1,-1,48,-1,50,-1,-1,-1,-1,-1,-1,-1,-1,-1,-1,-1,-1,-1,-1,-1,-1,-1,-1,-1,-1],"split_conditions":[1.6E1,5E0,5E0,2E0,1.2E1,7.5E1,4.6E1,1E0,2E1,2.6E1,1.5E1,3.9E1,5.2E1,7.85E1,8E0,2.17E1,2.17E1,1.5E1,2.39E1,3E0,-4.7289743E0,-4.1200504E0,-2.840625E-1,1.4E1,2.7E1,3E1,-6.5786996E0,-1.1474361E1,1.9E1,1.2749268E0,3E1,-1.6678857E0,-6.279463E0,-1.5073657E0,1.5608703E0,1.3278159E1,4.9278336E0,3.0254543E0,1.2681977E1,5.87916E-1,5.9176555E0,-2.7297144E0,-5.9135594E0,2.948784E0,-4.069012E0,4.1306826E-1,-5.979232E0,-2.2295794E0,-9.285704E0,-5.2544055E0,-2.826001E-1],"split_indices":[6,4,4,6,6,1,6,4,5,5,6,6,6,1,5,0,0,6,0,6,0,0,0,5,5,5,0,0,5,0,5,0,0,0,0,0,0,0,0,0,0,0,0,0,0,0,0,0,0,0,0],"split_type":[0,0,0,0,0,0,0,0,0,0,0,0,0,0,0,0,0,0,0,0,0,0,0,0,0,0,0,0,0,0,0,0,0,0,0,0,0,0,0,0,0,0,0,0,0,0,0,0,0,0,0],"sum_hessian":[2.96E2,8.8E1,2.08E2,6.5E1,2.3E1,1.47E2,6.1E1,6E0,5.9E1,1.7E1,6E0,3.8E1,1.09E2,5E1,1.1E1,2E0,4E0,3.7E1,2.2E1,1.6E1,1E0,5E0,1E0,3.2E1,6E0,1.05E2,4E0,3.4E1,1.6E1,1E0,1E1,1E0,1E0,1E0,3E0,3.3E1,4E0,1.4E1,8E0,4E0,1.2E1,1.6E1,1.6E1,4E0,2E0,1.01E2,4E0,8E0,8E0,9E0,1E0],"tree_param":{"num_deleted":"0","num_feature":"9","num_nodes":"51","size_leaf_vector":"1"}},{"base_weights":[9.493471E0,7.517191E2,-3.1877463E2,5.321611E2,1.4268729E3,-1.0223143E2,-8.564396E2,7.5328284E2,-7.774684E1,5.3534718E0,1.5457191E3,-4.1505588E2,-1.9012434E1,-1.0097159E3,-4.6824564E2,9.6257385E2,2.0076549E2,2.2596057E2,-5.235896E2,1.831053E1,1.0569348E3,-4.6386234E2,1.7882275E2,1.2086807E1,-6.9939322E0,-1.1929965E3,-4.826448E2,-1.8887598E2,-6.7285376E2,-9.9639076E-1,1.1371126E1,-2.830073E0,4.0241084E0,-1.7133691E0,5.3422117E0,-5.978464E0,-2.0054605E0,3.4720569E0,1.3539317E1,-2.832343E0,-6.50492E0,5.537988E-1,2.1285424E0,3.2729154E0,-4.5046887E-1,-9.346756E0,-1.4810613E1,-2.104493E0,-7.1976542E0,6.490234E-1,-2.7065582E0,-1.6678784E0,-7.105513E0],"categories":[],"categories_nodes":[],"categories_segments":[],"categories_sizes":[],"default_left":[0,0,0,0,0,0,0,0,0,0,0,0,0,0,0,0,0,0,0,0,0,0,0,0,0,0,0,0,0,0,0,0,0,0,0,0,0,0,0,0,0,0,0,0,0,0,0,0,0,0,0,0,0],"id":29,"left_children":[1,3,5,7,9,11,13,15,17,-1,19,21,23,25,27,29,31,33,35,-1,37,39,41,43,-1,45,47,49,51,-1,-1,-1,-1,-1,-1,-1,-1,-1,-1,-1,-1,-1,-1,-1,-1,-1,-1,-1,-1,-1,-1,-1,-1],"loss_changes":[6.992325E7,1.22854E7,2.3081556E7,9.22931E6,1.397548E6,3.714819E6,2.91876E6,5.588594E6,2.69102E6,0E0,5.751E5,9.525015E5,2.4206165E6,3.288284E6,9.018175E5,6.787608E6,1.577143E6,1.5611858E6,7.201E4,0E0,1.426994E6,7.59654E5,8.149922E2,1.9957125E6,0E0,7.73668E5,6.23044E5,2.0435178E5,7.2263E4,0E0,0E0,0E0,0E0,0E0,0E0,0E0,0E0,0E0,0E0,0E0,0E0,0E0,0E0,0E0,0E0,0E0,0E0,0E0,0E0,0E0,0E0,0E0,0E0],"parents":[2147483647,0,0,1,1,2,2,3,3,4,4,5,5,6,6,7,7,8,8,10,10,11,11,12,12,13,13,14,14,15,15,16,16,17,17,18,18,20,20,21,21,22,22,23,23,25,25,26,26,27,27,28,28],"right_children":[2,4,6,8,10,12,14,16,18,-1,20,22,24,26,28,30,32,34,36,-1,38,40,42,44,-1,46,48,50,52,-1,-1,-1,-1,-1,-1,-1,-1,-1,-1,-1,-1,-1,-1,-1,-1,-1,-1,-1,-1,-1,-1,-1,-1],"split_conditions":[1.6E1,2.39E1,5E0,2.3E1,5E0,7.5E1,2.09E1,5E0,4E0,5.3534718E0,1.4E1,3.9E1,5.2E1,7.85E1,6E0,2E0,2.12E1,5E0,3E1,1.831053E1,2.1E1,1.4E1,1E0,2E1,-6.9939322E0,1.91E1,1.5E1,8E0,2E0,-9.9639076E-1,1.1371126E1,-2.830073E0,4.0241084E0,-1.7133691E0,5.3422117E0,-5.978464E0,-2.0054605E0,3.4720569E0,1.3539317E1,-2.832343E0,-6.50492E0,5.537988E-1,2.1285424E0,3.2729154E0,-4.5046887E-1,-9.346756E0,-1.4810613E1,-2.104493E0,-7.1976542E0,6.490234E-1,-2.7065582E0,-1.6678784E0,-7.105513E0],"split_indices":[6,0,4,5,5,1,0,4,4,0,5,6,6,1,4,6,0,6,5,0,5,5,4,6,0,0,5,5,5,0,0,0,0,0,0,0,0,0,0,0,0,0,0,0,0,0,0,0,0,0,0,0,0],"split_type":[0,0,0,0,0,0,0,0,0,0,0,0,0,0,0,0,0,0,0,0,0,0,0,0,0,0,0,0,0,0,0,0,0,0,0,0,0,0,0,0,0,0,0,0,0,0,0,0,0,0,0,0,0],"sum_hessian":[2.85E2,8.7E1,1.98E2,6.7E1,2E1,1.42E2,5.6E1,4.9E1,1.8E1,3E0,1.7E1,2.9E1,1.13E2,3.9E1,1.7E1,3.5E1,1.4E1,1.1E1,7E0,9E0,8E0,2.7E1,2E0,1.09E2,4E0,2.8E1,1.1E1,8E0,9E0,5E0,3E1,4E0,1E1,5E0,6E0,5E0,2E0,3E0,5E0,1.5E1,1.2E1,1E0,1E0,1.6E1,9.3E1,1.7E1,1.1E1,6E0,5E0,2E0,6E0,1E0,8E0],"tree_param":{"num_deleted":"0","num_feature":"9","num_nodes":"53","size_leaf_vector":"1"}},{"base_weights":[-4.5460215E0,6.651035E2,-3.0684146E2,8.619729E2,1.7730042E2,-1.0248976E2,-8.2652356E2,-1.5266248E2,9.849409E2,4.0921512E2,-4.5363824E2,-3.5628857E2,-1.8480513E1,-1.0655251E3,-5.9903705E2,-5.262708E2,5.958545E1,1.1873413E3,4.5795422E2,-9.075513E1,6.6568274E0,-5.3024677E2,-1.492085E2,-4.333916E2,1.1430908E2,1.7764702E1,-6.6781425E0,-1.2220011E1,-4.4387955E2,-2.9752908E2,-7.8967255E2,-1.6509789E0,-6.2430835E0,-1.4912622E0,1.3115302E0,1.27909975E1,4.2360764E0,9.718078E-1,1.1633043E1,2.4925323E0,-4.9307675E0,-5.807181E0,-1.3894507E0,-2.684912E-1,-1.9696362E0,-6.041187E0,-3.0074937E0,2.9113164E0,-3.8490186E0,-6.4927495E-1,3.2618926E0,-5.0893764E0,-2.676538E-1,2.2093065E0,-3.5440526E0,-1.9207747E0,-8.486792E0],"categories":[],"categories_nodes":[],"categories_segments":[],"categories_sizes":[],"default_left":[0,0,0,0,0,0,0,0,0,0,0,0,0,0,0,0,0,0,0,0,0,0,0,0,0,0,0,0,0,0,0,0,0,0,0,0,0,0,0,0,0,0,0,0,0,0,0,0,0,0,0,0,0,0,0,0,0],"id":30,"left_children":[1,3,5,7,9,11,13,15,17,19,21,23,25,27,29,31,33,35,37,39,-1,41,43,45,47,49,-1,-1,51,53,55,-1,-1,-1,-1,-1,-1,-1,-1,-1,-1,-1,-1,-1,-1,-1,-1,-1,-1,-1,-1,-1,-1,-1,-1,-1,-1],"loss_changes":[6.0528816E7,8.778288E6,2.1792062E7,8.385032E6,4.2827065E6,3.1703115E6,2.515148E6,6.657389E5,5.749328E6,2.7531642E6,1.07457875E5,1.3920675E6,2.671346E6,2.083936E6,1.604349E6,3.1534375E3,1.0918028E5,2.40148E6,4.467438E6,1.2172428E6,0E0,3.780925E4,1.22415625E4,5.429715E5,6.416876E5,2.7756438E6,0E0,0E0,1.7633488E5,4.9113112E5,5.06967E5,0E0,0E0,0E0,0E0,0E0,0E0,0E0,0E0,0E0,0E0,0E0,0E0,0E0,0E0,0E0,0E0,0E0,0E0,0E0,0E0,0E0,0E0,0E0,0E0,0E0,0E0],"parents":[2147483647,0,0,1,1,2,2,3,3,4,4,5,5,6,6,7,7,8,8,9,9,10,10,11,11,12,12,13,13,14,14,15,15,16,16,17,17,18,18,19,19,21,21,22,22,23,23,24,24,25,25,28,28,29,29,30,30],"right_children":[2,4,6,8,10,12,14,16,18,20,22,24,26,28,30,32,34,36,38,40,-1,42,44,46,48,50,-1,-1,52,54,56,-1,-1,-1,-1,-1,-1,-1,-1,-1,-1,-1,-1,-1,-1,-1,-1,-1,-1,-1,-1,-1,-1,-1,-1,-1,-1],"split_conditions":[1.6E1,5E0,5E0,2E0,1.2E1,7.5E1,7.64E1,1E0,2.1E1,7.85E1,1.5E1,3.9E1,5.2E1,2.09E1,6E0,2.17E1,2.17E1,1.5E1,2.39E1,2.1E1,6.6568274E0,2.5E1,6E0,2E0,4E0,4.7E1,-6.6781425E0,-1.2220011E1,2.4E1,1.55E1,8E0,-1.6509789E0,-6.2430835E0,-1.4912622E0,1.3115302E0,1.27909975E1,4.2360764E0,9.718078E-1,1.1633043E1,2.4925323E0,-4.9307675E0,-5.807181E0,-1.3894507E0,-2.684912E-1,-1.9696362E0,-6.041187E0,-3.0074937E0,2.9113164E0,-3.8490186E0,-6.4927495E-1,3.2618926E0,-5.0893764E0,-2.676538E-1,2.2093065E0,-3.5440526E0,-1.9207747E0,-8.486792E0],"split_indices":[6,4,4,6,6,1,1,4,5,1,6,6,6,0,4,0,0,6,0,5,0,5,4,4,4,6,0,0,5,0,5,0,0,0,0,0,0,0,0,0,0,0,0,0,0,0,0,0,0,0,0,0,0,0,0,0,0],"split_type":[0,0,0,0,0,0,0,0,0,0,0,0,0,0,0,0,0,0,0,0,0,0,0,0,0,0,0,0,0,0,0,0,0,0,0,0,0,0,0,0,0,0,0,0,0,0,0,0,0,0,0,0,0,0,0,0,0],"sum_hessian":[2.97E2,9.2E1,2.05E2,6.5E1,2.7E1,1.48E2,5.7E1,7E0,5.8E1,2E1,7E0,3.6E1,1.12E2,2.6E1,3.1E1,2E0,5E0,4.1E1,1.7E1,7E0,1.3E1,5E0,2E0,3.1E1,5E0,1.07E2,5E0,2E1,6E0,1.3E1,1.8E1,1E0,1E0,1E0,4E0,3.6E1,5E0,1.2E1,5E0,4E0,3E0,4E0,1E0,1E0,1E0,1.2E1,1.9E1,4E0,1E0,8.5E1,2.2E1,5E0,1E0,1E0,1.2E1,2E0,1.6E1],"tree_param":{"num_deleted":"0","num_feature":"9","num_nodes":"57","size_leaf_vector":"1"}},{"base_weights":[3.6915684E0,7.122458E2,-3.151763E2,9.731558E2,-4.580487E1,-1.1205065E2,-8.354985E2,-1.5214508E2,1.1069767E3,-2.4688414E2,4.7779965E2,-1.7242255E2,2.9738516E2,-9.279532E2,-3.1741153E2,-5.2363947E2,5.8959637E1,1.2453685E3,6.0877655E2,4.030362E0,-5.6103107E2,8.168231E2,1.9326294E1,-4.3149014E0,-2.7450928E2,6.9393524E1,9.218831E0,-7.2360223E2,-1.1272792E3,-1.313951E2,-4.771489E0,-1.6427245E0,-6.2118673E0,-1.4838061E0,1.301038E0,1.3997857E1,8.6834955E0,7.4719424E0,2.7661757E0,-2.7797275E0,2.0488539E0,-6.489001E0,-1.9828271E0,2.445532E0,9.26062E0,-2.1396875E0,3.596057E0,-6.329434E-1,6.750273E0,-3.5762982E0,-4.2895594E-1,4.5448203E0,-1.119552E0,-7.6417027E0,-1.5785742E0,-5.22745E0,-1.2325786E1,6.778076E-1,-2.4792821E0],"categories":[],"categories_nodes":[],"categories_segments":[],"categories_sizes":[],"default_left":[0,0,0,0,0,0,0,0,0,0,0,0,0,0,0,0,0,0,0,0,0,0,0,0,0,0,0,0,0,0,0,0,0,0,0,0,0,0,0,0,0,0,0,0,0,0,0,0,0,0,0,0,0,0,0,0,0,0,0],"id":31,"left_children":[1,3,5,7,9,11,13,15,17,19,21,23,25,27,29,31,33,35,37,39,41,43,45,47,49,51,-1,53,55,57,-1,-1,-1,-1,-1,-1,-1,-1,-1,-1,-1,-1,-1,-1,-1,-1,-1,-1,-1,-1,-1,-1,-1,-1,-1,-1,-1,-1,-1],"loss_changes":[6.5519748E7,1.7845048E7,2.1044536E7,1.0257864E7,2.6448255E6,3.635446E6,2.387832E6,6.582674E5,3.378664E6,1.4210935E6,1.0722464E6,2.178334E6,2.6412535E6,1.098724E6,2.3444269E5,3.1219375E3,1.07811195E5,1.462528E6,4.829635E5,6.8001175E5,1.26329E5,2.3585E4,3.9448638E5,2.0060194E6,1.5055555E6,1.0984114E6,0E0,4.761E5,7.56134E5,1.5606828E5,0E0,0E0,0E0,0E0,0E0,0E0,0E0,0E0,0E0,0E0,0E0,0E0,0E0,0E0,0E0,0E0,0E0,0E0,0E0,0E0,0E0,0E0,0E0,0E0,0E0,0E0,0E0,0E0,0E0],"parents":[2147483647,0,0,1,1,2,2,3,3,4,4,5,5,6,6,7,7,8,8,9,9,10,10,11,11,12,12,13,13,14,14,15,15,16,16,17,17,18,18,19,19,20,20,21,21,22,22,23,23,24,24,25,25,27,27,28,28,29,29],"right_children":[2,4,6,8,10,12,14,16,18,20,22,24,26,28,30,32,34,36,38,40,42,44,46,48,50,52,-1,54,56,58,-1,-1,-1,-1,-1,-1,-1,-1,-1,-1,-1,-1,-1,-1,-1,-1,-1,-1,-1,-1,-1,-1,-1,-1,-1,-1,-1,-1,-1],"split_conditions":[1.6E1,5E0,5E0,2E0,2.39E1,2.17E1,4.8E1,1E0,1.3E1,1.8E1,1.2E1,2.9E1,2.6E1,6E0,6E0,2.17E1,2.17E1,2.1E1,1.2E1,2.12E1,2.9E1,4E0,1.9E1,2.8E1,4.3E1,8E0,9.218831E0,2.12E1,8E0,5E1,-4.771489E0,-1.6427245E0,-6.2118673E0,-1.4838061E0,1.301038E0,1.3997857E1,8.6834955E0,7.4719424E0,2.7661757E0,-2.7797275E0,2.0488539E0,-6.489001E0,-1.9828271E0,2.445532E0,9.26062E0,-2.1396875E0,3.596057E0,-6.329434E-1,6.750273E0,-3.5762982E0,-4.2895594E-1,4.5448203E0,-1.119552E0,-7.6417027E0,-1.5785742E0,-5.22745E0,-1.2325786E1,6.778076E-1,-2.4792821E0],"split_indices":[6,4,4,6,0,0,6,4,6,5,5,6,5,4,4,0,0,5,5,0,5,5,5,6,6,5,0,0,5,6,0,0,0,0,0,0,0,0,0,0,0,0,0,0,0,0,0,0,0,0,0,0,0,0,0,0,0,0,0],"split_type":[0,0,0,0,0,0,0,0,0,0,0,0,0,0,0,0,0,0,0,0,0,0,0,0,0,0,0,0,0,0,0,0,0,0,0,0,0,0,0,0,0,0,0,0,0,0,0,0,0,0,0,0,0,0,0,0,0,0,0],"sum_hessian":[2.88E2,8.9E1,1.99E2,6.6E1,2.3E1,1.44E2,5.5E1,7E0,5.9E1,1.7E1,