{"learner":{"attributes":{"scikit_learn":"{\"_estimator_type\": \"regressor\"}"},"feature_names":["Temperatura","Umidade","Populacao","e_feriado","dia_semana","dia_mes","semana_ano","mes","trimestre"],"feature_types":["float","float","int","i","int","int","int","int","int"],"gradient_booster":{"model":{"gbtree_model_param":{"num_parallel_tree":"1","num_trees":"1000"},"iteration_indptr":[0,1,2,3,4,5,6,7,8,9,10,11,12,13,14,15,16,17,18,19,20,21,22,23,24,25,26,27,28,29,30,31,32,33,34,35,36,37,38,39,40,41,42,43,44,45,46,47,48,49,50,51,52,53,54,55,56,57,58,59,60,61,62,63,64,65,66,67,68,69,70,71,72,73,74,75,76,77,78,79,80,81,82,83,84,85,86,87,88,89,90,91,92,93,94,95,96,97,98,99,100,101,102,103,104,105,106,107,108,109,110,111,112,113,114,115,116,117,118,119,120,121,122,123,124,125,126,127,128,129,130,131,132,133,134,135,136,137,138,139,140,141,142,143,144,145,146,147,148,149,150,151,152,153,154,155,156,157,158,159,160,161,162,163,164,165,166,167,168,169,170,171,172,173,174,175,176,177,178,179,180,181,182,183,184,185,186,187,188,189,190,191,192,193,194,195,196,197,198,199,200,201,202,203,204,205,206,207,208,209,210,211,212,213,214,215,216,217,218,219,220,221,222,223,224,225,226,227,228,229,230,231,232,233,234,235,236,237,238,239,240,241,242,243,244,245,246,247,248,249,250,251,252,253,254,255,256,257,258,259,260,261,262,263,264,265,266,267,268,269,270,271,272,273,274,275,276,277,278,279,280,281,282,283,284,285,286,287,288,289,290,291,292,293,294,295,296,297,298,299,300,301,302,303,304,305,306,307,308,309,310,311,312,313,314,315,316,317,318,319,320,321,322,323,324,325,326,327,328,329,330,331,332,333,334,335,336,337,338,339,340,341,342,343,344,345,346,347,348,349,350,351,352,353,354,355,356,357,358,359,360,361,362,363,364,365,366,367,368,369,370,371,372,373,374,375,376,377,378,379,380,381,382,383,384,385,386,387,388,389,390,391,392,393,394,395,396,397,398,399,400,401,402,403,404,405,406,407,408,409,410,411,412,413,414,415,416,417,418,419,420,421,422,423,424,425,426,427,428,429,430,431,432,433,434,435,436,437,438,439,440,441,442,443,444,445,446,447,448,449,450,451,452,453,454,455,456,457,458,459,460,461,462,463,464,465,466,467,468,469,470,471,472,473,474,475,476,477,478,479,480,481,482,483,484,485,486,487,488,489,490,491,492,493,494,495,496,497,498,499,500,501,502,503,504,505,506,507,508,509,510,511,512,513,514,515,516,517,518,519,520,521,522,523,524,525,526,527,528,529,530,531,532,533,534,535,536,537,538,539,540,541,542,543,544,545,546,547,548,549,550,551,552,553,554,555,556,557,558,559,560,561,562,563,564,565,566,567,568,569,570,571,572,573,574,575,576,577,578,579,580,581,582,583,584,585,586,587,588,589,590,591,592,593,594,595,596,597,598,599,600,601,602,603,604,605,606,607,608,609,610,611,612,613,614,615,616,617,618,619,620,621,622,623,624,625,626,627,628,629,630,631,632,633,634,635,636,637,638,639,640,641,642,643,644,645,646,647,648,649,650,651,652,653,654,655,656,657,658,659,660,661,662,663,664,665,666,667,668,669,670,671,672,673,674,675,676,677,678,679,680,681,682,683,684,685,686,687,688,689,690,691,692,693,694,695,696,697,698,699,700,701,702,703,704,705,706,707,708,709,710,711,712,713,714,715,716,717,718,719,720,721,722,723,724,725,726,727,728,729,730,731,732,733,734,735,736,737,738,739,740,741,742,743,744,745,746,747,748,749,750,751,752,753,754,755,756,757,758,759,760,761,762,763,764,765,766,767,768,769,770,771,772,773,774,775,776,777,778,779,780,781,782,783,784,785,786,787,788,789,790,791,792,793,794,795,796,797,798,799,800,801,802,803,804,805,806,807,808,809,810,811,812,813,814,815,816,817,818,819,820,821,822,823,824,825,826,827,828,829,830,831,832,833,834,835,836,837,838,839,840,841,842,843,844,845,846,847,848,849,850,851,852,853,854,855,856,857,858,859,860,861,862,863,864,865,866,867,868,869,870,871,872,873,874,875,876,877,878,879,880,881,882,883,884,885,886,887,888,889,890,891,892,893,894,895,896,897,898,899,900,901,902,903,904,905,906,907,908,909,910,911,912,913,914,915,916,917,918,919,920,921,922,923,924,925,926,927,928,929,930,931,932,933,934,935,936,937,938,939,940,941,942,943,944,945,946,947,948,949,950,951,952,953,954,955,956,957,958,959,960,961,962,963,964,965,966,967,968,969,970,971,972,973,974,975,976,977,978,979,980,981,982,983,984,985,986,987,988,989,990,991,992,993,994,995,996,997,998,999,1000],"tree_info":[0,0,0,0,0,0,0,0,0,0,0,0,0,0,0,0,0,0,0,0,0,0,0,0,0,0,0,0,0,0,0,0,0,0,0,0,0,0,0,0,0,0,0,0,0,0,0,0,0,0,0,0,0,0,0,0,0,0,0,0,0,0,0,0,0,0,0,0,0,0,0,0,0,0,0,0,0,0,0,0,0,0,0,0,0,0,0,0,0,0,0,0,0,0,0,0,0,0,0,0,0,0,0,0,0,0,0,0,0,0,0,0,0,0,0,0,0,0,0,0,0,0,0,0,0,0,0,0,0,0,0,0,0,0,0,0,0,0,0,0,0,0,0,0,0,0,0,0,0,0,0,0,0,0,0,0,0,0,0,0,0,0,0,0,0,0,0,0,0,0,0,0,0,0,0,0,0,0,0,0,0,0,0,0,0,0,0,0,0,0,0,0,0,0,0,0,0,0,0,0,0,0,0,0,0,0,0,0,0,0,0,0,0,0,0,0,0,0,0,0,0,0,0,0,0,0,0,0,0,0,0,0,0,0,0,0,0,0,0,0,0,0,0,0,0,0,0,0,0,0,0,0,0,0,0,0,0,0,0,0,0,0,0,0,0,0,0,0,0,0,0,0,0,0,0,0,0,0,0,0,0,0,0,0,0,0,0,0,0,0,0,0,0,0,0,0,0,0,0,0,0,0,0,0,0,0,0,0,0,0,0,0,0,0,0,0,0,0,0,0,0,0,0,0,0,0,0,0,0,0,0,0,0,0,0,0,0,0,0,0,0,0,0,0,0,0,0,0,0,0,0,0,0,0,0,0,0,0,0,0,0,0,0,0,0,0,0,0,0,0,0,0,0,0,0,0,0,0,0,0,0,0,0,0,0,0,0,0,0,0,0,0,0,0,0,0,0,0,0,0,0,0,0,0,0,0,0,0,0,0,0,0,0,0,0,0,0,0,0,0,0,0,0,0,0,0,0,0,0,0,0,0,0,0,0,0,0,0,0,0,0,0,0,0,0,0,0,0,0,0,0,0,0,0,0,0,0,0,0,0,0,0,0,0,0,0,0,0,0,0,0,0,0,0,0,0,0,0,0,0,0,0,0,0,0,0,0,0,0,0,0,0,0,0,0,0,0,0,0,0,0,0,0,0,0,0,0,0,0,0,0,0,0,0,0,0,0,0,0,0,0,0,0,0,0,0,0,0,0,0,0,0,0,0,0,0,0,0,0,0,0,0,0,0,0,0,0,0,0,0,0,0,0,0,0,0,0,0,0,0,0,0,0,0,0,0,0,0,0,0,0,0,0,0,0,0,0,0,0,0,0,0,0,0,0,0,0,0,0,0,0,0,0,0,0,0,0,0,0,0,0,0,0,0,0,0,0,0,0,0,0,0,0,0,0,0,0,0,0,0,0,0,0,0,0,0,0,0,0,0,0,0,0,0,0,0,0,0,0,0,0,0,0,0,0,0,0,0,0,0,0,0,0,0,0,0,0,0,0,0,0,0,0,0,0,0,0,0,0,0,0,0,0,0,0,0,0,0,0,0,0,0,0,0,0,0,0,0,0,0,0,0,0,0,0,0,0,0,0,0,0,0,0,0,0,0,0,0,0,0,0,0,0,0,0,0,0,0,0,0,0,0,0,0,0,0,0,0,0,0,0,0,0,0,0,0,0,0,0,0,0,0,0,0,0,0,0,0,0,0,0,0,0,0,0,0,0,0,0,0,0,0,0,0,0,0,0,0,0,0,0,0,0,0,0,0,0,0,0,0,0,0,0,0,0,0,0,0,0,0,0,0,0,0,0,0,0,0,0,0,0,0,0,0,0,0,0,0,0,0,0,0,0,0,0,0,0,0,0,0,0,0,0,0,0,0,0,0,0,0,0,0,0,0,0,0,0,0,0,0,0,0,0,0,0,0,0,0,0,0,0,0,0,0,0,0,0,0,0,0,0,0,0,0,0,0,0,0,0,0,0,0,0,0,0,0,0,0,0,0,0,0,0,0,0,0,0,0,0,0,0,0,0,0,0,0,0,0,0,0,0,0,0,0,0,0,0,0,0,0,0,0,0,0,0,0,0,0,0,0,0,0,0,0,0,0,0,0,0,0,0,0,0,0,0,0,0,0,0,0,0,0,0,0,0,0,0,0,0,0,0,0,0,0,0,0,0,0,0,0,0,0,0,0,0,0,0,0,0,0,0,0,0,0,0,0,0,0,0,0,0,0,0,0,0,0,0,0,0,0,0,0,0,0,0,0,0,0,0,0],"trees":[{"base_weights":[1.318376E1,-1.20317184E2,2.8439563E2,-4.3859966E1,-3.408108E2,3.747707E2,5.2945656E1,-1.3330072E2,4.7485085E1,-4.3715634E0,-2.5637982E2,2.6539737E2,4.7610164E0,-1.05824425E2,1.0334779E2,-1.9217729E2,-8.80722E1,6.2042103E1,-2.983024E0,-9.74764E1,-2.6485406E2,2.8628934E2,-4.5916096E1,-1.3770732E0,-1.7411459E1,1.3358922E2,5.47937E0,-2.9081054E0,-1.5540186E0,-1.4857907E0,-5.8916813E-1,8.582623E-1,-5.61027E-1,-1.9973657E0,5.352197E-1,-2.024812E0,-3.1165144E0,1.8068101E0,3.2608035E0,1.0054443E-1,-7.892859E-1,-4.027588E-2,-2.2089599E-1,6.0719397E-2,1.5137227E0,-1.2750276E0,1.0384613E0],"categories":[],"categories_nodes":[],"categories_segments":[],"categories_sizes":[],"default_left":[0,0,0,0,0,0,0,0,0,0,0,0,0,0,0,0,0,0,0,0,0,0,0,0,0,0,0,0,0,0,0,0,0,0,0,0,0,0,0,0,0,0,0,0,0,0,0],"id":0,"left_children":[1,3,5,7,9,11,13,15,17,-1,19,21,-1,23,25,27,29,31,-1,33,35,37,39,-1,41,43,45,-1,-1,-1,-1,-1,-1,-1,-1,-1,-1,-1,-1,-1,-1,-1,-1,-1,-1,-1,-1],"loss_changes":[1.0099774E7,3.1375595E6,1.9045505E6,1.1501255E6,2.7838E5,6.05115E5,2.270002E5,1.7214038E5,3.708618E5,0E0,1.1887625E4,2.342795E5,0E0,1.7334344E4,6.1421344E4,6.3626E4,6.5338438E4,1.9589314E5,0E0,5.7013656E4,1.27875E4,7.5556E4,6.336764E3,0E0,9.886713E1,3.5363156E4,9.17268E4,0E0,0E0,0E0,0E0,0E0,0E0,0E0,0E0,0E0,0E0,0E0,0E0,0E0,0E0,0E0,0E0,0E0,0E0,0E0,0E0],"parents":[2147483647,0,0,1,1,2,2,3,3,4,4,5,5,6,6,7,7,8,8,10,10,11,11,13,13,14,14,15,15,16,16,17,17,19,19,20,20,21,21,22,22,24,24,25,25,26,26],"right_children":[2,4,6,8,10,12,14,16,18,-1,20,22,-1,24,26,28,30,32,-1,34,36,38,40,-1,42,44,46,-1,-1,-1,-1,-1,-1,-1,-1,-1,-1,-1,-1,-1,-1,-1,-1,-1,-1,-1,-1],"split_conditions":[2.72E1,5E0,5E0,1.8E1,1.7E1,2.84E1,3.6E1,2E0,1E0,-4.3715634E0,2E0,1E0,4.7610164E0,3.4E1,4.6E1,4E0,8.31E1,5E1,-2.983024E0,2.67E1,6E0,3.4E1,3E0,-1.3770732E0,2.75E1,3.7E1,1.8E1,-2.9081054E0,-1.5540186E0,-1.4857907E0,-5.8916813E-1,8.582623E-1,-5.61027E-1,-1.9973657E0,5.352197E-1,-2.024812E0,-3.1165144E0,1.8068101E0,3.2608035E0,1.0054443E-1,-7.892859E-1,-4.027588E-2,-2.2089599E-1,6.0719397E-2,1.5137227E0,-1.2750276E0,1.0384613E0],"split_indices":[0,4,4,6,6,0,6,4,3,0,5,3,0,6,6,6,1,6,0,0,4,6,4,0,0,6,5,0,0,0,0,0,0,0,0,0,0,0,0,0,0,0,0,0,0,0,0],"split_type":[0,0,0,0,0,0,0,0,0,0,0,0,0,0,0,0,0,0,0,0,0,0,0,0,0,0,0,0,0,0,0,0,0,0,0,0,0,0,0,0,0,0,0,0,0,0,0],"sum_hessian":[2.77E2,1.86E2,9.1E1,1.39E2,4.7E1,6.5E1,2.6E1,7E1,6.9E1,2E1,2.7E1,3.3E1,3.2E1,6E0,2E1,2.9E1,4.1E1,6.7E1,2E0,2E0,2.5E1,3.1E1,2E0,4E0,2E0,1.5E1,5E0,6E0,2.3E1,1.2E1,2.9E1,5.6E1,1.1E1,1E0,1E0,1.3E1,1.2E1,1E1,2.1E1,1E0,1E0,1E0,1E0,2E0,1.3E1,2E0,3E0],"tree_param":{"num_deleted":"0","num_feature":"9","num_nodes":"47","size_leaf_vector":"1"}},{"base_weights":[6.424915E0,-1.3436856E2,3.0142374E2,-5.7934532E1,-3.4094528E2,3.8508664E2,2.641715E1,-1.6590204E2,7.9571977E0,-2.392058E2,-4.10972E0,2.921771E2,4.698801E0,-8.1095985E1,6.9133316E1,-1.4752443E2,-4.352726E0,1.8124117E1,-2.963138E0,-1.7765884E2,-2.9579227E0,3.1278894E2,-4.5686523E1,-1.332758E0,-3.3568897E1,2.6083918E1,1.2690618E2,-2.127041E0,-9.810325E-1,-5.981695E-1,4.158264E-1,-3.4617674E-1,-1.8599911E0,1.966807E0,3.454156E0,1.000415E-1,-7.8533936E-1,-3.9957395E-1,-4.007446E-2,7.40979E-1,-1.2665267E0,1.6803645E0,7.684678E-1],"categories":[],"categories_nodes":[],"categories_segments":[],"categories_sizes":[],"default_left":[0,0,0,0,0,0,0,0,0,0,0,0,0,0,0,0,0,0,0,0,0,0,0,0,0,0,0,0,0,0,0,0,0,0,0,0,0,0,0,0,0,0,0],"id":1,"left_children":[1,3,5,7,9,11,13,15,17,19,-1,21,-1,23,25,27,-1,29,-1,31,-1,33,35,-1,37,39,41,-1,-1,-1,-1,-1,-1,-1,-1,-1,-1,-1,-1,-1,-1,-1,-1],"loss_changes":[1.2085337E7,3.0907775E6,2.152565E6,1.0328743E6,2.79291E5,4.29937E5,1.11235055E5,2.08058E5,2.8687878E5,3.103525E4,0E0,2.7195775E5,0E0,1.2885762E4,3.8970266E4,1.4985975E5,0E0,1.6521339E5,0E0,1.02631875E4,0E0,6.465125E4,6.273549E3,0E0,7.8413965E2,9.005311E4,1.4996406E3,0E0,0E0,0E0,0E0,0E0,0E0,0E0,0E0,0E0,0E0,0E0,0E0,0E0,0E0,0E0,0E0],"parents":[2147483647,0,0,1,1,2,2,3,3,4,4,5,5,6,6,7,7,8,8,9,9,11,11,13,13,14,14,15,15,17,17,19,19,21,21,22,22,24,24,25,25,26,26],"right_children":[2,4,6,8,10,12,14,16,18,20,-1,22,-1,24,26,28,-1,30,-1,32,-1,34,36,-1,38,40,42,-1,-1,-1,-1,-1,-1,-1,-1,-1,-1,-1,-1,-1,-1,-1,-1],"split_conditions":[2.72E1,5E0,5E0,1.4E1,8.03E1,2.84E1,3.6E1,1E0,1E0,6E0,-4.10972E0,1E0,4.698801E0,3.2E1,1.8E1,2E0,-4.352726E0,1.8E1,-2.963138E0,1.9E1,-2.9579227E0,3.4E1,3E0,-1.332758E0,1.9E1,1.6E1,6E0,-2.127041E0,-9.810325E-1,-5.981695E-1,4.158264E-1,-3.4617674E-1,-1.8599911E0,1.966807E0,3.454156E0,1.000415E-1,-7.8533936E-1,-3.9957395E-1,-4.007446E-2,7.40979E-1,-1.2665267E0,1.6803645E0,7.684678E-1],"split_indices":[0,4,4,6,1,0,6,3,3,4,0,3,0,6,5,4,0,6,0,6,0,6,4,0,5,5,4,0,0,0,0,0,0,0,0,0,0,0,0,0,0,0,0],"split_type":[0,0,0,0,0,0,0,0,0,0,0,0,0,0,0,0,0,0,0,0,0,0,0,0,0,0,0,0,0,0,0,0,0,0,0,0,0,0,0,0,0,0,0],"sum_hessian":[2.89E2,1.96E2,9.3E1,1.44E2,5.2E1,7.1E1,2.2E1,5.4E1,9E1,2.3E1,2.9E1,3.6E1,3.5E1,6E0,1.6E1,5.2E1,2E0,8.8E1,2E0,1.3E1,1E1,3.4E1,2E0,2E0,4E0,1E1,6E0,2.1E1,3.1E1,2E1,6.8E1,1E0,1.2E1,9E0,2.5E1,1E0,1E0,3E0,1E0,8E0,2E0,2E0,4E0],"tree_param":{"num_deleted":"0","num_feature":"9","num_nodes":"43","size_leaf_vector":"1"}},{"base_weights":[-6.203956E0,-1.4141562E2,2.7003906E2,-6.344397E1,-3.2497226E2,3.61549E2,6.2766193E1,-1.7860173E2,9.970384E0,5.53092E-1,-3.3275067E2,3.751914E2,-4.5458088E1,-2.9506948E1,1.259209E2,-1.6017215E2,-4.3237076E0,2.098204E1,-2.9433837E0,-2.3780138E2,-3.8719428E0,1.6043835E2,4.080125E2,9.9541016E-2,-7.8141236E-1,-1.3238728E0,1.2337757E0,1.6289111E2,5.934674E1,-2.2317257E0,-1.0045135E0,1.1738203E0,-5.912224E-3,-1.4594483E0,-2.972337E0,1.8179779E0,5.0000405E-1,3.5875108E0,5.025864E0,5.5110306E-1,-5.2848387E-1,1.8814485E0,3.2832843E-1,6.771151E-1,2.2834961E-1],"categories":[],"categories_nodes":[],"categories_segments":[],"categories_sizes":[],"default_left":[0,0,0,0,0,0,0,0,0,0,0,0,0,0,0,0,0,0,0,0,0,0,0,0,0,0,0,0,0,0,0,0,0,0,0,0,0,0,0,0,0,0,0,0,0],"id":2,"left_children":[1,3,5,7,9,11,13,15,17,-1,19,21,23,25,27,29,-1,31,-1,33,-1,35,37,-1,-1,-1,39,41,43,-1,-1,-1,-1,-1,-1,-1,-1,-1,-1,-1,-1,-1,-1,-1,-1],"loss_changes":[1.0683302E7,2.7273272E6,1.7602545E6,1.1515565E6,1.87009E5,3.77972E5,1.7854005E5,1.7861975E5,2.8765512E5,0E0,1.974105E5,3.7859E5,6.2109595E3,4.127735E4,3.4635625E4,1.6946625E5,0E0,1.706017E5,0E0,8.2183E4,0E0,1.4498969E4,7.1274E4,0E0,0E0,0E0,3.4963844E4,2.9951719E4,8.971094E2,0E0,0E0,0E0,0E0,0E0,0E0,0E0,0E0,0E0,0E0,0E0,0E0,0E0,0E0,0E0,0E0],"parents":[2147483647,0,0,1,1,2,2,3,3,4,4,5,5,6,6,7,7,8,8,10,10,11,11,12,12,13,13,14,14,15,15,17,17,19,19,21,21,22,22,26,26,27,27,28,28],"right_children":[2,4,6,8,10,12,14,16,18,-1,20,22,24,26,28,30,-1,32,-1,34,-1,36,38,-1,-1,-1,40,42,44,-1,-1,-1,-1,-1,-1,-1,-1,-1,-1,-1,-1,-1,-1,-1,-1],"split_conditions":[2.72E1,5E0,5E0,1.4E1,2E0,1E0,3.7E1,1E0,1E0,5.53092E-1,8.03E1,3.4E1,3E0,3.2E1,6E0,2E0,-4.3237076E0,5E0,-2.9433837E0,6E0,-3.8719428E0,1.5E1,2.88E1,9.9541016E-2,-7.8141236E-1,-1.3238728E0,6E0,4.6E1,4.5E1,-2.2317257E0,-1.0045135E0,1.1738203E0,-5.912224E-3,-1.4594483E0,-2.972337E0,1.8179779E0,5.0000405E-1,3.5875108E0,5.025864E0,5.5110306E-1,-5.2848387E-1,1.8814485E0,3.2832843E-1,6.771151E-1,2.2834961E-1],"split_indices":[0,4,4,6,5,3,6,3,3,0,1,6,4,6,4,4,0,5,0,4,0,5,0,0,0,0,4,6,6,0,0,0,0,0,0,0,0,0,0,0,0,0,0,0,0],"split_type":[0,0,0,0,0,0,0,0,0,0,0,0,0,0,0,0,0,0,0,0,0,0,0,0,0,0,0,0,0,0,0,0,0,0,0,0,0,0,0,0,0,0,0,0,0],"sum_hessian":[2.84E2,1.91E2,9.3E1,1.35E2,5.6E1,6.4E1,2.9E1,5.2E1,8.3E1,1E0,5.5E1,6.2E1,2E0,1.2E1,1.7E1,5E1,2E0,8.1E1,2E0,2.2E1,3.3E1,9E0,5.3E1,1E0,1E0,2E0,1E1,1E1,7E0,2.3E1,2.7E1,1.4E1,6.7E1,1E1,1.2E1,7E0,2E0,3.8E1,1.5E1,5E0,5E0,8E0,2E0,5E0,2E0],"tree_param":{"num_deleted":"0","num_feature":"9","num_nodes":"45","size_leaf_vector":"1"}},{"base_weights":[5.8754644E0,-1.2167026E2,2.8289E2,-3.5631897E1,-3.2537506E2,3.70054E2,3.866567E1,-1.21883896E2,5.780305E1,-4.0218253E0,-2.5045993E2,2.7267084E2,4.5891617E2,-8.70072E1,7.63168E1,-1.0314448E2,-4.0529814E0,9.490857E1,-9.791969E1,-1.9151253E2,-2.877394E2,2.9463968E2,-4.5230793E1,4.960254E0,3.0896742E0,4.6850586E0,-1.340246E0,1.1013858E2,-7.80495E1,-1.5496227E0,-6.650484E-1,7.0143515E-1,2.0818844E0,-5.43875E-1,-1.8227026E0,-1.9750373E0,-5.381787E-1,5.503271E-1,-3.1260219E0,1.9291333E0,3.3389444E0,9.904297E-2,-7.7750486E-1,-6.988025E-1,7.690784E-1,2.791123E-1,1.3522176E0,-1.2599381E0,3.2891724E-1],"categories":[],"categories_nodes":[],"categories_segments":[],"categories_sizes":[],"default_left":[0,0,0,0,0,0,0,0,0,0,0,0,0,0,0,0,0,0,0,0,0,0,0,0,0,0,0,0,0,0,0,0,0,0,0,0,0,0,0,0,0,0,0,0,0,0,0,0,0],"id":3,"left_children":[1,3,5,7,9,11,13,15,17,-1,19,21,23,25,27,29,-1,31,33,35,37,39,41,-1,-1,43,-1,45,47,-1,-1,-1,-1,-1,-1,-1,-1,-1,-1,-1,-1,-1,-1,-1,-1,-1,-1,-1,-1],"loss_changes":[9.750725E6,3.300901E6,1.8377095E6,1.0869446E6,2.214955E5,4.28702E5,1.2020155E5,3.2996694E5,3.8487475E5,0E0,1.3017625E4,2.437965E5,2.4808E4,2.64947E4,1.0779416E5,1.1689944E5,0E0,1.3408225E5,3.782233E4,1.745125E3,1.6208212E5,5.937775E4,6.1489937E3,0E0,0E0,2.153028E4,0E0,2.9226188E4,2.5420156E4,0E0,0E0,0E0,0E0,0E0,0E0,0E0,0E0,0E0,0E0,0E0,0E0,0E0,0E0,0E0,0E0,0E0,0E0,0E0,0E0],"parents":[2147483647,0,0,1,1,2,2,3,3,4,4,5,5,6,6,7,7,8,8,10,10,11,11,12,12,13,13,14,14,15,15,17,17,18,18,19,19,20,20,21,21,22,22,25,25,27,27,28,28],"right_children":[2,4,6,8,10,12,14,16,18,-1,20,22,24,26,28,30,-1,32,34,36,38,40,42,-1,-1,44,-1,46,48,-1,-1,-1,-1,-1,-1,-1,-1,-1,-1,-1,-1,-1,-1,-1,-1,-1,-1,-1,-1],"split_conditions":[2.72E1,5E0,5E0,1.9E1,1.7E1,2.84E1,3.4E1,1E0,5E1,-4.0218253E0,6E0,1E0,4.2E1,6E0,4.6E1,2E0,-4.0529814E0,3.1E1,2.1E1,2.9E1,2E0,3.4E1,3E0,4.960254E0,3.0896742E0,4E0,-1.340246E0,3.6E1,1.8E1,-1.5496227E0,-6.650484E-1,7.0143515E-1,2.0818844E0,-5.43875E-1,-1.8227026E0,-1.9750373E0,-5.381787E-1,5.503271E-1,-3.1260219E0,1.9291333E0,3.3389444E0,9.904297E-2,-7.7750486E-1,-6.988025E-1,7.690784E-1,2.791123E-1,1.3522176E0,-1.2599381E0,3.2891724E-1],"split_indices":[0,4,4,6,6,0,6,3,6,0,4,3,6,4,6,4,0,6,5,5,5,6,4,0,0,5,0,6,5,0,0,0,0,0,0,0,0,0,0,0,0,0,0,0,0,0,0,0,0],"split_type":[0,0,0,0,0,0,0,0,0,0,0,0,0,0,0,0,0,0,0,0,0,0,0,0,0,0,0,0,0,0,0,0,0,0,0,0,0,0,0,0,0,0,0,0,0,0,0,0,0],"sum_hessian":[2.74E2,1.88E2,8.6E1,1.33E2,5.5E1,6.3E1,2.3E1,6.9E1,6.4E1,2.5E1,3E1,3.2E1,3.1E1,5E0,1.8E1,6.6E1,3E0,5.2E1,1.2E1,1.4E1,1.6E1,3E1,2E0,2.3E1,8E0,2E0,3E0,1.5E1,3E0,2.6E1,4E1,4.4E1,8E0,9E0,3E0,1.3E1,1E0,1E0,1.5E1,1E1,2E1,1E0,1E0,1E0,1E0,4E0,1.1E1,2E0,1E0],"tree_param":{"num_deleted":"0","num_feature":"9","num_nodes":"49","size_leaf_vector":"1"}},{"base_weights":[-9.004269E0,-1.5004903E2,2.703268E2,-6.716985E1,-3.413588E2,3.5242596E2,3.834288E1,4.207224E1,-1.24053925E2,-2.4864003E2,-4.2870097E0,2.6001514E2,4.453287E0,-1.1451095E2,7.828743E1,5.529743E1,-1.7473804E0,-1.0756784E2,-4.557342E0,-9.489282E1,-2.5597113E2,2.7771906E2,-4.500464E1,-1.4313562E0,-3.8174397E1,1.2951143E2,2.4808146E1,6.3830143E-1,-1.643374E0,-3.3032933E-1,-1.4001718E0,-1.970968E0,5.4757565E-1,-1.8143363E0,-3.0519323E0,1.6900826E0,3.117227E0,9.854736E-2,-7.736169E-1,-7.9632565E-2,-4.929834E-1,6.184387E-1,1.7559375E0,4.3111888E-1,-4.447371E-1],"categories":[],"categories_nodes":[],"categories_segments":[],"categories_sizes":[],"default_left":[0,0,0,0,0,0,0,0,0,0,0,0,0,0,0,0,0,0,0,0,0,0,0,0,0,0,0,0,0,0,0,0,0,0,0,0,0,0,0,0,0,0,0,0,0],"id":4,"left_children":[1,3,5,7,9,11,13,15,17,19,-1,21,-1,23,25,27,-1,29,-1,31,33,35,37,-1,39,41,43,-1,-1,-1,-1,-1,-1,-1,-1,-1,-1,-1,-1,-1,-1,-1,-1,-1,-1],"loss_changes":[1.1623627E7,3.0847675E6,1.8720105E6,8.6276994E5,3.712055E5,5.10929E5,1.7381805E5,1.4729566E5,4.4857538E5,1.06515E4,0E0,2.2310025E5,0E0,7.646539E3,5.705436E4,9.669744E4,0E0,2.0821238E5,0E0,5.6677133E4,5.1025625E4,8.40895E4,6.087642E3,0E0,6.15626E2,2.3441672E4,1.7134754E4,0E0,0E0,0E0,0E0,0E0,0E0,0E0,0E0,0E0,0E0,0E0,0E0,0E0,0E0,0E0,0E0,0E0,0E0],"parents":[2147483647,0,0,1,1,2,2,3,3,4,4,5,5,6,6,7,7,8,8,9,9,11,11,13,13,14,14,15,15,17,17,19,19,20,20,21,21,22,22,24,24,25,25,26,26],"right_children":[2,4,6,8,10,12,14,16,18,20,-1,22,-1,24,26,28,-1,30,-1,32,34,36,38,-1,40,42,44,-1,-1,-1,-1,-1,-1,-1,-1,-1,-1,-1,-1,-1,-1,-1,-1,-1,-1],"split_conditions":[2.72E1,5E0,5E0,8.03E1,8.27E1,2.84E1,3.4E1,2.9E1,1E0,2E0,-4.2870097E0,1E0,4.453287E0,1.2E1,6E0,1E0,-1.7473804E0,1.1E1,-4.557342E0,2.67E1,6E0,3.4E1,3E0,-1.4313562E0,6E0,2.84E1,4.5E1,6.3830143E-1,-1.643374E0,-3.3032933E-1,-1.4001718E0,-1.970968E0,5.4757565E-1,-1.8143363E0,-3.0519323E0,1.6900826E0,3.117227E0,9.854736E-2,-7.736169E-1,-7.9632565E-2,-4.929834E-1,6.184387E-1,1.7559375E0,4.3111888E-1,-4.447371E-1],"split_indices":[0,4,4,1,1,0,6,5,3,5,0,3,0,5,4,3,0,5,0,0,4,6,4,0,4,0,6,0,0,0,0,0,0,0,0,0,0,0,0,0,0,0,0,0,0],"split_type":[0,0,0,0,0,0,0,0,0,0,0,0,0,0,0,0,0,0,0,0,0,0,0,0,0,0,0,0,0,0,0,0,0,0,0,0,0,0,0,0,0,0,0,0,0],"sum_hessian":[2.93E2,1.95E2,9.8E1,1.37E2,5.8E1,7.2E1,2.6E1,4.7E1,9E1,3E1,2.8E1,3.8E1,3.4E1,5E0,2.1E1,4.5E1,2E0,8.7E1,3E0,2E0,2.8E1,3.6E1,2E0,3E0,2E0,1E1,1.1E1,4.4E1,1E0,2.7E1,6E1,1E0,1E0,1.3E1,1.5E1,1E1,2.6E1,1E0,1E0,1E0,1E0,5E0,5E0,9E0,2E0],"tree_param":{"num_deleted":"0","num_feature":"9","num_nodes":"45","size_leaf_vector":"1"}},{"base_weights":[1.0636912E-1,-1.25730644E2,2.6619812E2,-3.7612686E1,-3.2552127E2,3.556212E2,5.7613323E1,-1.181596E2,4.2337914E1,-3.985404E0,-2.5366608E2,2.6196692E2,4.5593038E0,-1.0891372E2,8.742186E1,-2.835199E0,-1.0133654E2,6.4692665E1,-6.4094635E1,-9.441837E1,-2.606685E2,1.5664674E2,2.9517267E2,-7.9234615E-2,-1.3218042E0,1.3014888E2,3.4683388E1,-4.2392117E-1,-1.3624431E0,4.353366E-1,2.186775E0,1.8119873E-1,-8.0689985E-1,-1.9611132E0,5.4483765E-1,-1.9012451E0,-3.1932964E0,1.7570574E0,4.7254148E-1,3.0577118E0,9.80542E-2,1.508829E0,4.059308E-1,5.3037775E-1,-4.4177166E-1],"categories":[],"categories_nodes":[],"categories_segments":[],"categories_sizes":[],"default_left":[0,0,0,0,0,0,0,0,0,0,0,0,0,0,0,0,0,0,0,0,0,0,0,0,0,0,0,0,0,0,0,0,0,0,0,0,0,0,0,0,0,0,0,0,0],"id":5,"left_children":[1,3,5,7,9,11,13,15,17,-1,19,21,-1,23,25,-1,27,29,31,33,35,37,39,-1,-1,41,43,-1,-1,-1,-1,-1,-1,-1,-1,-1,-1,-1,-1,-1,-1,-1,-1,-1,-1],"loss_changes":[1.0011758E7,3.5616E6,1.7701315E6,9.194505E5,2.24206E5,5.09985E5,1.5843925E5,1.6878162E5,1.7545412E5,0E0,1.3302E4,8.315975E4,0E0,1.0701227E4,5.4073312E4,0E0,1.30027125E5,1.8597016E5,1.9199023E4,5.6111773E4,7.170975E4,1.463125E4,7.86625E4,0E0,0E0,1.9871125E4,2.1159744E4,0E0,0E0,0E0,0E0,0E0,0E0,0E0,0E0,0E0,0E0,0E0,0E0,0E0,0E0,0E0,0E0,0E0,0E0],"parents":[2147483647,0,0,1,1,2,2,3,3,4,4,5,5,6,6,7,7,8,8,10,10,11,11,13,13,14,14,16,16,17,17,18,18,19,19,20,20,21,21,22,22,25,25,26,26],"right_children":[2,4,6,8,10,12,14,16,18,-1,20,22,-1,24,26,-1,28,30,32,34,36,38,40,-1,-1,42,44,-1,-1,-1,-1,-1,-1,-1,-1,-1,-1,-1,-1,-1,-1,-1,-1,-1,-1],"split_conditions":[2.72E1,5E0,5E0,1.8E1,1.7E1,2.84E1,3.4E1,2E0,5E1,-3.985404E0,2E0,3.4E1,4.5593038E0,6E0,6E0,-2.835199E0,1.2E1,3.1E1,1.1E1,2.67E1,6E0,1.4E1,1E0,-7.9234615E-2,-1.3218042E0,4.6E1,4.6E1,-4.2392117E-1,-1.3624431E0,4.353366E-1,2.186775E0,1.8119873E-1,-8.0689985E-1,-1.9611132E0,5.4483765E-1,-1.9012451E0,-3.1932964E0,1.7570574E0,4.7254148E-1,3.0577118E0,9.80542E-2,1.508829E0,4.059308E-1,5.3037775E-1,-4.4177166E-1],"split_indices":[0,4,4,6,6,0,6,6,6,0,5,6,0,4,4,0,5,6,5,0,4,5,3,0,0,6,6,0,0,0,0,0,0,0,0,0,0,0,0,0,0,0,0,0,0],"split_type":[0,0,0,0,0,0,0,0,0,0,0,0,0,0,0,0,0,0,0,0,0,0,0,0,0,0,0,0,0,0,0,0,0,0,0,0,0,0,0,0,0,0,0,0,0],"sum_hessian":[2.97E2,2.02E2,9.5E1,1.41E2,6.1E1,6.6E1,2.9E1,7E1,7.1E1,2.8E1,3.3E1,3.6E1,3E1,4E0,2.5E1,5E0,6.5E1,5.9E1,1.2E1,2E0,3.1E1,1E1,2.6E1,1E0,3E0,1.3E1,1.2E1,2.5E1,4E1,5.3E1,6E0,2E0,1E1,1E0,1E0,1.6E1,1.5E1,8E0,2E0,2.5E1,1E0,1E1,3E0,1E1,2E0],"tree_param":{"num_deleted":"0","num_feature":"9","num_nodes":"45","size_leaf_vector":"1"}},{"base_weights":[-5.9639516E0,-1.2960127E2,2.6349805E2,-5.2334682E1,-3.2719415E2,3.4403076E2,3.654465E1,-1.541424E2,1.917557E1,-4.065592E0,-2.44955E2,2.5127466E2,4.4632632E2,-7.478822E1,7.368392E1,-1.3816304E2,-4.223488E0,3.50524E1,-2.0629594E2,-9.394629E1,-2.5212987E2,2.6849316E2,-4.484505E1,4.7635287E2,2.7103824E2,3.0969238E-1,-1.3118908E0,9.428766E1,-6.9848146E0,-1.9377885E0,-8.99339E-1,-3.837978E-1,5.566086E-1,8.214843E-2,-2.5084107E0,-1.9513073E0,5.42113E-1,-1.9055023E0,-2.9690084E0,1.5857741E0,3.088968E0,9.7563475E-2,-7.7023923E-1,3.2851126E0,5.3529778E0,2.899474E0,7.8791624E-1,-6.877551E-1,4.6263263E-1,2.510144E-1,1.2345399E0,-1.2519978E0,1.1355844E0],"categories":[],"categories_nodes":[],"categories_segments":[],"categories_sizes":[],"default_left":[0,0,0,0,0,0,0,0,0,0,0,0,0,0,0,0,0,0,0,0,0,0,0,0,0,0,0,0,0,0,0,0,0,0,0,0,0,0,0,0,0,0,0,0,0,0,0,0,0,0,0,0,0],"id":6,"left_children":[1,3,5,7,9,11,13,15,17,-1,19,21,23,25,27,29,-1,31,33,35,37,39,41,43,45,47,-1,49,51,-1,-1,-1,-1,-1,-1,-1,-1,-1,-1,-1,-1,-1,-1,-1,-1,-1,-1,-1,-1,-1,-1,-1,-1],"loss_changes":[1.0062134E7,3.1432135E6,1.7237595E6,1.095E6,2.78972E5,5.52047E5,1.1301606E5,2.0736462E5,3.2583088E5,0E0,9.900875E3,2.108915E5,3.9316E4,2.9689738E4,3.3900117E4,1.4351075E5,0E0,1.2925554E5,5.939308E4,5.5552023E4,2.3378E4,1.1533275E5,6.022507E3,5.0726E4,2.601125E3,1.5880628E4,0E0,2.9187672E4,8.546758E4,0E0,0E0,0E0,0E0,0E0,0E0,0E0,0E0,0E0,0E0,0E0,0E0,0E0,0E0,0E0,0E0,0E0,0E0,0E0,0E0,0E0,0E0,0E0,0E0],"parents":[2147483647,0,0,1,1,2,2,3,3,4,4,5,5,6,6,7,7,8,8,10,10,11,11,12,12,13,13,14,14,15,15,17,17,18,18,19,19,20,20,21,21,22,22,23,23,24,24,25,25,27,27,28,28],"right_children":[2,4,6,8,10,12,14,16,18,-1,20,22,24,26,28,30,-1,32,34,36,38,40,42,44,46,48,-1,50,52,-1,-1,-1,-1,-1,-1,-1,-1,-1,-1,-1,-1,-1,-1,-1,-1,-1,-1,-1,-1,-1,-1,-1,-1],"split_conditions":[2.72E1,5E0,5E0,1.4E1,1.7E1,2.84E1,3.4E1,1E0,5.2E1,-4.065592E0,2E0,1E0,4.2E1,6E0,4.6E1,2E0,-4.223488E0,1.9E1,1E0,2.67E1,6E0,3.4E1,3E0,8E0,2.2E1,4E0,-1.3118908E0,3.7E1,1.8E1,-1.9377885E0,-8.99339E-1,-3.837978E-1,5.566086E-1,8.214843E-2,-2.5084107E0,-1.9513073E0,5.42113E-1,-1.9055023E0,-2.9690084E0,1.5857741E0,3.088968E0,9.7563475E-2,-7.7023923E-1,3.2851126E0,5.3529778E0,2.899474E0,7.8791624E-1,-6.877551E-1,4.6263263E-1,2.510144E-1,1.2345399E0,-1.2519978E0,1.1355844E0],"split_indices":[0,4,4,6,6,0,6,3,6,0,5,3,6,4,6,4,0,6,4,0,4,6,4,5,5,5,0,6,5,0,0,0,0,0,0,0,0,0,0,0,0,0,0,0,0,0,0,0,0,0,0,0,0],"split_type":[0,0,0,0,0,0,0,0,0,0,0,0,0,0,0,0,0,0,0,0,0,0,0,0,0,0,0,0,0,0,0,0,0,0,0,0,0,0,0,0,0,0,0,0,0,0,0,0,0,0,0,0,0],"sum_hessian":[3E2,2.06E2,9.4E1,1.49E2,5.7E1,6.9E1,2.5E1,6.1E1,8.8E1,2.7E1,3E1,3.8E1,3.1E1,6E0,1.9E1,5.9E1,2E0,8.3E1,5E0,2E0,2.8E1,3.6E1,2E0,2.5E1,6E0,3E0,3E0,1.5E1,4E0,2.6E1,3.3E1,1.8E1,6.5E1,1E0,4E0,1E0,1E0,1.4E1,1.4E1,1.1E1,2.5E1,1E0,1E0,9E0,1.6E1,5E0,1E0,1E0,2E0,5E0,1E1,2E0,2E0],"tree_param":{"num_deleted":"0","num_feature":"9","num_nodes":"53","size_leaf_vector":"1"}},{"base_weights":[-1.6825733E1,-1.3494775E2,2.5120474E2,-5.2501945E1,-3.3363232E2,3.4664053E2,4.11363E1,-1.2966043E2,2.9967361E1,-4.116642E0,-2.5980542E2,2.5106688E2,4.306595E0,-8.393148E1,7.1974144E1,-2.3566641E2,-1.04531456E2,5.3110825E1,-9.478611E1,5.394031E-1,-2.7166626E2,2.7378104E2,-4.462085E1,5.743815E0,-1.3020507E0,1.0207619E2,-5.680845E1,-2.8169506E0,-6.167816E-1,-8.4763694E-1,-1.8488208E0,5.978089E-1,-1.635415E0,-4.164755E-1,-1.773667E0,-2.013662E0,-3.112515E0,1.41946E0,3.109667E0,9.7075194E-2,-7.6638794E-1,-6.843164E-1,7.704736E-1,3.4025684E-1,1.179546E0,-1.2436515E0,2.9684407E-1],"categories":[],"categories_nodes":[],"categories_segments":[],"categories_sizes":[],"default_left":[0,0,0,0,0,0,0,0,0,0,0,0,0,0,0,0,0,0,0,0,0,0,0,0,0,0,0,0,0,0,0,0,0,0,0,0,0,0,0,0,0,0,0,0,0,0,0],"id":7,"left_children":[1,3,5,7,9,11,13,15,17,-1,19,21,-1,23,25,27,29,31,33,-1,35,37,39,41,-1,43,45,-1,-1,-1,-1,-1,-1,-1,-1,-1,-1,-1,-1,-1,-1,-1,-1,-1,-1,-1,-1],"loss_changes":[8.898785E6,3.1767222E6,1.709873E6,8.8837125E5,2.21416E5,3.65646E5,1.1403186E5,1.6716062E5,2.0136562E5,0E0,1.3373475E5,2.1370512E5,0E0,2.5645473E4,9.496104E4,8.6735375E4,7.962981E4,9.359161E4,4.088346E4,0E0,2.359275E4,9.3126E4,5.962421E3,2.1139396E4,0E0,1.6516656E4,3.290757E4,0E0,0E0,0E0,0E0,0E0,0E0,0E0,0E0,0E0,0E0,0E0,0E0,0E0,0E0,0E0,0E0,0E0,0E0,0E0,0E0],"parents":[2147483647,0,0,1,1,2,2,3,3,4,4,5,5,6,6,7,7,8,8,10,10,11,11,13,13,14,14,15,15,16,16,17,17,18,18,20,20,21,21,22,22,23,23,25,25,26,26],"right_children":[2,4,6,8,10,12,14,16,18,-1,20,22,-1,24,26,28,30,32,34,-1,36,38,40,42,-1,44,46,-1,-1,-1,-1,-1,-1,-1,-1,-1,-1,-1,-1,-1,-1,-1,-1,-1,-1,-1,-1],"split_conditions":[2.72E1,5E0,5E0,1.8E1,1.7E1,2.84E1,3.4E1,1E0,5E1,-4.116642E0,2E0,1E0,4.306595E0,6E0,4.6E1,8.43E1,2.5E1,1E0,2.1E1,5.394031E-1,6E0,3.4E1,3E0,4E0,-1.3020507E0,3.7E1,1.8E1,-2.8169506E0,-6.167816E-1,-8.4763694E-1,-1.8488208E0,5.978089E-1,-1.635415E0,-4.164755E-1,-1.773667E0,-2.013662E0,-3.112515E0,1.41946E0,3.109667E0,9.7075194E-2,-7.6638794E-1,-6.843164E-1,7.704736E-1,3.4025684E-1,1.179546E0,-1.2436515E0,2.9684407E-1],"split_indices":[0,4,4,6,6,0,6,4,6,0,5,3,0,4,6,1,5,3,5,0,4,6,4,5,0,6,5,0,0,0,0,0,0,0,0,0,0,0,0,0,0,0,0,0,0,0,0],"split_type":[0,0,0,0,0,0,0,0,0,0,0,0,0,0,0,0,0,0,0,0,0,0,0,0,0,0,0,0,0,0,0,0,0,0,0,0,0,0,0,0,0,0,0,0,0,0,0],"sum_hessian":[2.79E2,1.94E2,8.5E1,1.38E2,5.6E1,5.8E1,2.7E1,7.1E1,6.7E1,2.5E1,3.1E1,2.9E1,2.9E1,5E0,2.2E1,1.2E1,5.9E1,5.7E1,1E1,1E0,3E1,2.7E1,2E0,2E0,3E0,1.8E1,4E0,9E0,3E0,4.9E1,1E1,5.6E1,1E0,7E0,3E0,1.3E1,1.7E1,7E0,2E1,1E0,1E0,1E0,1E0,4E0,1.4E1,2E0,2E0],"tree_param":{"num_deleted":"0","num_feature":"9","num_nodes":"47","size_leaf_vector":"1"}},{"base_weights":[1.0686233E1,-1.17764565E2,2.6491196E2,-3.714942E1,-3.2151816E2,3.496888E2,4.529659E1,-1.5143614E2,2.218951E1,-3.8636513E0,-2.5675882E2,2.5342241E2,4.3390234E2,-1.11682335E2,8.265396E1,-3.0563614E0,-1.2696713E2,3.1896587E1,-2.8612638E0,-9.383602E1,-2.6475912E2,2.7224707E2,-4.4397785E1,4.9258204E0,3.5238566E0,-1.3973132E0,-3.7056232E1,1.3244225E2,1.177306E1,-6.441749E-1,-1.8127689E0,1.2540891E0,1.3737327E-1,-1.9442468E0,5.367065E-1,-1.8803118E0,-3.0785937E0,1.7092149E0,3.0734432E0,9.658936E-2,-7.6255614E-1,-8.500366E-2,-4.7083983E-1,1.5394603E0,4.0196288E-1,-2.8514126E-1,6.582051E-1],"categories":[],"categories_nodes":[],"categories_segments":[],"categories_sizes":[],"default_left":[0,0,0,0,0,0,0,0,0,0,0,0,0,0,0,0,0,0,0,0,0,0,0,0,0,0,0,0,0,0,0,0,0,0,0,0,0,0,0,0,0,0,0,0,0,0,0],"id":8,"left_children":[1,3,5,7,9,11,13,15,17,-1,19,21,23,25,27,-1,29,31,-1,33,35,37,39,-1,-1,-1,41,43,45,-1,-1,-1,-1,-1,-1,-1,-1,-1,-1,-1,-1,-1,-1,-1,-1,-1,-1],"loss_changes":[9.72988E6,3.2403292E6,1.845991E6,9.731364E5,1.359665E5,4.73739E5,1.7929625E5,1.4607725E5,2.9344684E5,0E0,1.5562625E4,2.1391625E5,3.4055E3,7.3811953E3,8.313767E4,0E0,1.3779306E5,1.5620189E5,0E0,5.49474E4,3.801575E4,6.838075E4,5.9029375E3,0E0,0E0,0E0,4.5882178E2,2.158286E4,2.582843E4,0E0,0E0,0E0,0E0,0E0,0E0,0E0,0E0,0E0,0E0,0E0,0E0,0E0,0E0,0E0,0E0,0E0,0E0],"parents":[2147483647,0,0,1,1,2,2,3,3,4,4,5,5,6,6,7,7,8,8,10,10,11,11,12,12,13,13,14,14,16,16,17,17,19,19,20,20,21,21,22,22,26,26,27,27,28,28],"right_children":[2,4,6,8,10,12,14,16,18,-1,20,22,24,26,28,-1,30,32,-1,34,36,38,40,-1,-1,-1,42,44,46,-1,-1,-1,-1,-1,-1,-1,-1,-1,-1,-1,-1,-1,-1,-1,-1,-1,-1],"split_conditions":[2.72E1,5E0,5E0,1.4E1,1.7E1,2.84E1,3.4E1,2E0,1E0,-3.8636513E0,2E0,1E0,4E1,1.2E1,6E0,-3.0563614E0,7E0,5E0,-2.8612638E0,2.67E1,6E0,3.4E1,3E0,4.9258204E0,3.5238566E0,-1.3973132E0,6E0,4.6E1,1.8E1,-6.441749E-1,-1.8127689E0,1.2540891E0,1.3737327E-1,-1.9442468E0,5.367065E-1,-1.8803118E0,-3.0785937E0,1.7092149E0,3.0734432E0,9.658936E-2,-7.6255614E-1,-8.500366E-2,-4.7083983E-1,1.5394603E0,4.0196288E-1,-2.8514126E-1,6.582051E-1],"split_indices":[0,4,4,6,6,0,6,6,3,0,5,3,6,5,4,0,6,5,0,0,4,6,4,0,0,0,4,6,5,0,0,0,0,0,0,0,0,0,0,0,0,0,0,0,0,0,0],"split_type":[0,0,0,0,0,0,0,0,0,0,0,0,0,0,0,0,0,0,0,0,0,0,0,0,0,0,0,0,0,0,0,0,0,0,0,0,0,0,0,0,0,0,0,0,0,0,0],"sum_hessian":[2.96E2,1.97E2,9.9E1,1.42E2,5.5E1,7.1E1,2.8E1,4.8E1,9.4E1,2.5E1,3E1,3.5E1,3.6E1,5E0,2.3E1,5E0,4.3E1,9.2E1,2E0,2E0,2.8E1,3.3E1,2E0,1.8E1,1.8E1,3E0,2E0,1.3E1,1E1,2.1E1,2.2E1,1.4E1,7.8E1,1E0,1E0,1.2E1,1.6E1,1E1,2.3E1,1E0,1E0,1E0,1E0,1E1,3E0,6E0,4E0],"tree_param":{"num_deleted":"0","num_feature":"9","num_nodes":"47","size_leaf_vector":"1"}},{"base_weights":[-1.888921E0,-1.23475586E2,2.4898346E2,-4.297602E1,-3.142681E2,3.3478506E2,6.1045166E1,-1.2730223E2,3.95801E1,-3.9618556E0,-2.3532932E2,2.769398E2,4.8182225E0,-3.264262E1,1.1420558E2,-1.1245954E2,-4.163549E0,7.331837E1,-1.0301986E2,5.340234E-1,-2.4636589E2,2.915442E2,-4.417586E1,2.5207205E1,-9.469364E1,2.0290747E0,6.169709E1,-1.8851794E0,-7.608324E-1,5.4408675E-1,1.8470285E0,-3.8099766E-1,-2.5579517E0,-1.8430994E0,-2.93024E0,1.7572329E0,3.1809785E0,9.6105956E-2,-7.587439E-1,-4.7437823E-1,6.375278E-1,-1.2841222E0,-1.817098E-1,9.279307E-1,4.7702637E-2],"categories":[],"categories_nodes":[],"categories_segments":[],"categories_sizes":[],"default_left":[0,0,0,0,0,0,0,0,0,0,0,0,0,0,0,0,0,0,0,0,0,0,0,0,0,0,0,0,0,0,0,0,0,0,0,0,0,0,0,0,0,0,0,0,0],"id":9,"left_children":[1,3,5,7,9,11,13,15,17,-1,19,21,-1,23,25,27,-1,29,31,-1,33,35,37,39,41,-1,43,-1,-1,-1,-1,-1,-1,-1,-1,-1,-1,-1,-1,-1,-1,-1,-1,-1,-1],"loss_changes":[8.876537E6,2.9968022E6,1.5114765E6,9.727072E5,2.81821E5,4.194155E5,1.581229E5,2.49209E5,3.491396E5,0E0,1.15128E5,2.4267475E5,0E0,4.5462652E4,8.063325E4,1.7102744E5,0E0,1.12112875E5,1.2910891E5,0E0,3.57505E4,8.865E4,5.8440522E3,2.2625307E4,1.3148043E4,0E0,2.4340098E4,0E0,0E0,0E0,0E0,0E0,0E0,0E0,0E0,0E0,0E0,0E0,0E0,0E0,0E0,0E0,0E0,0E0,0E0],"parents":[2147483647,0,0,1,1,2,2,3,3,4,4,5,5,6,6,7,7,8,8,10,10,11,11,13,13,14,14,15,15,17,17,18,18,20,20,21,21,22,22,23,23,24,24,26,26],"right_children":[2,4,6,8,10,12,14,16,18,-1,20,22,-1,24,26,28,-1,30,32,-1,34,36,38,40,42,-1,44,-1,-1,-1,-1,-1,-1,-1,-1,-1,-1,-1,-1,-1,-1,-1,-1,-1,-1],"split_conditions":[2.72E1,5E0,5E0,1.8E1,1.7E1,2.88E1,3.7E1,1E0,5E1,-3.9618556E0,2E0,1E0,4.8182225E0,6E0,4.1E1,8.31E1,-4.163549E0,3.1E1,2.4E1,5.340234E-1,6E0,3.4E1,3E0,8E0,3.4E1,2.0290747E0,4.6E1,-1.8851794E0,-7.608324E-1,5.4408675E-1,1.8470285E0,-3.8099766E-1,-2.5579517E0,-1.8430994E0,-2.93024E0,1.7572329E0,3.1809785E0,9.6105956E-2,-7.587439E-1,-4.7437823E-1,6.375278E-1,-1.2841222E0,-1.817098E-1,9.279307E-1,4.7702637E-2],"split_indices":[0,4,4,6,6,0,6,3,6,0,5,3,0,4,6,1,0,6,5,0,4,6,4,5,6,0,6,0,0,0,0,0,0,0,0,0,0,0,0,0,0,0,0,0,0],"split_type":[0,0,0,0,0,0,0,0,0,0,0,0,0,0,0,0,0,0,0,0,0,0,0,0,0,0,0,0,0,0,0,0,0,0,0,0,0,0,0,0,0,0,0,0,0],"sum_hessian":[2.89E2,1.95E2,9.4E1,1.38E2,5.7E1,6.4E1,3E1,6.8E1,7E1,2.6E1,3.1E1,4.8E1,1.6E1,1.1E1,1.9E1,6.6E1,2E0,5.7E1,1.3E1,1E0,3E1,4.6E1,2E0,6E0,5E0,6E0,1.3E1,2E1,4.6E1,5E1,7E0,1E1,3E0,1.5E1,1.5E1,1E1,3.6E1,1E0,1E0,2E0,4E0,3E0,2E0,8E0,5E0],"tree_param":{"num_deleted":"0","num_feature":"9","num_nodes":"45","size_leaf_vector":"1"}},{"base_weights":[-1.0669515E1,-1.20562645E2,2.3168275E2,-3.854253E1,-3.1813556E2,3.1678482E2,5.1259773E1,-1.3424467E2,2.0774643E1,-3.9707496E0,-2.3148012E2,2.3722986E2,3.963876E0,-1.1027616E2,8.6565765E1,-1.16240074E2,-4.135792E0,4.509596E1,-1.2862218E2,-2.3869403E2,-8.458561E-1,2.561775E2,-4.3954998E1,-1.3792273E0,-3.6655354E1,1.3725082E2,3.3317802E1,-1.6436685E0,-7.2259754E-1,2.4571845E-1,2.0199773E0,-4.9743488E-1,-2.448794E0,-9.3722737E-1,-2.4596143E0,1.4632324E0,2.9280205E0,9.5625E-2,-7.549499E-1,-8.776611E-2,-4.620642E-1,7.381805E-1,1.9895271E0,4.979187E-1,-4.3684405E-1],"categories":[],"categories_nodes":[],"categories_segments":[],"categories_sizes":[],"default_left":[0,0,0,0,0,0,0,0,0,0,0,0,0,0,0,0,0,0,0,0,0,0,0,0,0,0,0,0,0,0,0,0,0,0,0,0,0,0,0,0,0,0,0,0,0],"id":10,"left_children":[1,3,5,7,9,11,13,15,17,-1,19,21,-1,23,25,27,-1,29,31,33,-1,35,37,-1,39,41,43,-1,-1,-1,-1,-1,-1,-1,-1,-1,-1,-1,-1,-1,-1,-1,-1,-1,-1],"loss_changes":[7.937889E6,3.309754E6,1.4117175E6,8.315989E5,3.18517E5,3.04932E5,1.8634494E5,2.3356656E5,3.3645134E5,0E0,1.266E4,1.9240525E5,0E0,7.1565703E3,6.559789E4,1.02421E5,0E0,2.4943788E5,1.0703166E5,7.50125E3,0E0,8.5904E4,5.785746E3,0E0,3.9327954E2,3.619467E4,1.9934684E4,0E0,0E0,0E0,0E0,0E0,0E0,0E0,0E0,0E0,0E0,0E0,0E0,0E0,0E0,0E0,0E0,0E0,0E0],"parents":[2147483647,0,0,1,1,2,2,3,3,4,4,5,5,6,6,7,7,8,8,10,10,11,11,13,13,14,14,15,15,17,17,18,18,19,19,21,21,22,22,24,24,25,25,26,26],"right_children":[2,4,6,8,10,12,14,16,18,-1,20,22,-1,24,26,28,-1,30,32,34,-1,36,38,-1,40,42,44,-1,-1,-1,-1,-1,-1,-1,-1,-1,-1,-1,-1,-1,-1,-1,-1,-1,-1],"split_conditions":[2.72E1,5E0,5E0,1.4E1,1.7E1,2.84E1,3.4E1,1E0,5E1,-3.9707496E0,2.8E1,1E0,3.963876E0,1.2E1,6E0,2E0,-4.135792E0,3.1E1,2.4E1,2E0,-8.458561E-1,3.4E1,3E0,-1.3792273E0,6E0,2.84E1,4.6E1,-1.6436685E0,-7.2259754E-1,2.4571845E-1,2.0199773E0,-4.9743488E-1,-2.448794E0,-9.3722737E-1,-2.4596143E0,1.4632324E0,2.9280205E0,9.5625E-2,-7.549499E-1,-8.776611E-2,-4.620642E-1,7.381805E-1,1.9895271E0,4.979187E-1,-4.3684405E-1],"split_indices":[0,4,4,6,6,0,6,3,6,0,5,3,0,5,4,4,0,6,5,5,0,6,4,0,4,0,6,0,0,0,0,0,0,0,0,0,0,0,0,0,0,0,0,0,0],"split_type":[0,0,0,0,0,0,0,0,0,0,0,0,0,0,0,0,0,0,0,0,0,0,0,0,0,0,0,0,0,0,0,0,0,0,0,0,0,0,0,0,0,0,0,0,0],"sum_hessian":[2.96E2,2.04E2,9.2E1,1.45E2,5.9E1,6.2E1,3E1,5.5E1,9E1,2.9E1,3E1,3.3E1,2.9E1,5E0,2.5E1,5.3E1,2E0,7.8E1,1.2E1,2.8E1,2E0,3.1E1,2E0,3E0,2E0,1.2E1,1.3E1,2.4E1,2.9E1,7E1,8E0,8E0,4E0,2E0,2.6E1,9E0,2.2E1,1E0,1E0,1E0,1E0,7E0,5E0,1.1E1,2E0],"tree_param":{"num_deleted":"0","num_feature":"9","num_nodes":"45","size_leaf_vector":"1"}},{"base_weights":[-5.6258783E0,-1.2814543E2,2.678454E2,-4.9929558E1,-3.0823947E2,3.474713E2,6.490226E1,-1.5016318E2,1.7447626E1,-3.8409398E0,-2.2534302E2,2.5610977E2,4.2629477E2,-6.705713E1,9.650461E1,-1.3409181E2,-4.10822E0,2.7485523E1,-2.8281322E0,5.3604E-1,-2.3573523E2,1.6022758E2,2.9500006E2,2.9781127E0,4.5931555E2,-1.2563785E0,-6.3573E0,5.676506E1,1.3469638E2,-1.8488053E0,-9.2803276E-1,9.7646075E-1,-3.511581E-2,-1.7967143E0,-2.872961E0,1.7977835E0,4.164917E-1,3.0754418E0,9.5146485E-2,5.1084146E0,3.052286E0,7.773157E-1,-6.029744E-1,7.9474586E-1,-1.0787463E0,1.6093442E0,7.102383E-1],"categories":[],"categories_nodes":[],"categories_segments":[],"categories_sizes":[],"default_left":[0,0,0,0,0,0,0,0,0,0,0,0,0,0,0,0,0,0,0,0,0,0,0,0,0,0,0,0,0,0,0,0,0,0,0,0,0,0,0,0,0,0,0,0,0,0,0],"id":11,"left_children":[1,3,5,7,9,11,13,15,17,-1,19,21,23,25,27,29,-1,31,-1,-1,33,35,37,-1,39,-1,41,43,45,-1,-1,-1,-1,-1,-1,-1,-1,-1,-1,-1,-1,-1,-1,-1,-1,-1,-1],"loss_changes":[1.028703E7,2.9708868E6,1.512604E6,1.0088854E6,3.158835E5,3.805185E5,1.2323767E5,1.96261E5,2.7903216E5,0E0,1.08299375E5,7.9515E4,1.17025E4,2.0536322E4,2.7261578E4,1.04468E5,0E0,1.91723E5,0E0,0E0,4.08835E4,2.0331969E4,7.9440625E4,0E0,5.0503E4,0E0,2.2830078E4,5.717886E4,6.9469062E3,0E0,0E0,0E0,0E0,0E0,0E0,0E0,0E0,0E0,0E0,0E0,0E0,0E0,0E0,0E0,0E0,0E0,0E0],"parents":[2147483647,0,0,1,1,2,2,3,3,4,4,5,5,6,6,7,7,8,8,10,10,11,11,12,12,13,13,14,14,15,15,17,17,20,20,21,21,22,22,24,24,26,26,27,27,28,28],"right_children":[2,4,6,8,10,12,14,16,18,-1,20,22,24,26,28,30,-1,32,-1,-1,34,36,38,-1,40,-1,42,44,46,-1,-1,-1,-1,-1,-1,-1,-1,-1,-1,-1,-1,-1,-1,-1,-1,-1,-1],"split_conditions":[2.72E1,5E0,5E0,1.4E1,1.7E1,2.84E1,3.5E1,1E0,1E0,-3.8409398E0,2E0,3.4E1,8E0,5E0,1.7E1,2E0,-4.10822E0,1E1,-2.8281322E0,5.3604E-1,6E0,1.5E1,1E0,2.9781127E0,4.2E1,-1.2563785E0,6E0,1.6E1,6E0,-1.8488053E0,-9.2803276E-1,9.7646075E-1,-3.511581E-2,-1.7967143E0,-2.872961E0,1.7977835E0,4.164917E-1,3.0754418E0,9.5146485E-2,5.1084146E0,3.052286E0,7.773157E-1,-6.029744E-1,7.9474586E-1,-1.0787463E0,1.6093442E0,7.102383E-1],"split_indices":[0,4,4,6,6,0,6,3,3,0,5,6,5,5,5,4,0,5,0,0,4,5,3,0,6,0,4,5,4,0,0,0,0,0,0,0,0,0,0,0,0,0,0,0,0,0,0],"split_type":[0,0,0,0,0,0,0,0,0,0,0,0,0,0,0,0,0,0,0,0,0,0,0,0,0,0,0,0,0,0,0,0,0,0,0,0,0,0,0,0,0,0,0,0,0,0,0],"sum_hessian":[3.05E2,2.11E2,9.4E1,1.48E2,6.3E1,6.7E1,2.7E1,5.9E1,8.9E1,3.1E1,3.2E1,3.3E1,3.4E1,5E0,2.2E1,5.7E1,2E0,8.7E1,2E0,1E0,3.1E1,1.1E1,2.2E1,9E0,2.5E1,2E0,3E0,1.2E1,1E1,2.4E1,3.3E1,2.6E1,6.1E1,1.7E1,1.4E1,9E0,2E0,2.1E1,1E0,1.7E1,8E0,1E0,2E0,1.1E1,1E0,6E0,4E0],"tree_param":{"num_deleted":"0","num_feature":"9","num_nodes":"47","size_leaf_vector":"1"}},{"base_weights":[3.7848532E0,-1.20789116E2,2.5289209E2,-4.9293884E1,-3.0907465E2,3.222414E2,6.1790413E1,-1.2845686E2,3.1758162E1,-2.2528851E2,-3.8097332E0,2.2661522E2,4.1679593E2,-7.8764873E0,1.0582451E2,-1.14019005E2,-4.0808325E0,4.5489975E1,-2.8092782E0,-8.255151E1,-2.4031718E2,2.4381012E2,-4.3798748E1,4.493428E2,2.800773E0,2.4392788E1,-5.1478172E1,1.4790031E2,3.0598423E1,-9.085633E-1,-1.821715E0,6.6557294E-1,-6.5897286E-1,-1.9351891E0,1.894393E-1,-1.8393234E0,-2.851068E0,1.6020149E0,2.8213294E0,9.467041E-2,-7.516516E-1,2.9529312E0,5.044666E0,-4.7171143E-1,6.2452585E-1,-8.7128174E-1,1.3312174E-2,1.8913158E0,3.8770506E-1,-3.515869E-2,5.706311E-1],"categories":[],"categories_nodes":[],"categories_segments":[],"categories_sizes":[],"default_left":[0,0,0,0,0,0,0,0,0,0,0,0,0,0,0,0,0,0,0,0,0,0,0,0,0,0,0,0,0,0,0,0,0,0,0,0,0,0,0,0,0,0,0,0,0,0,0,0,0,0,0],"id":12,"left_children":[1,3,5,7,9,11,13,15,17,19,-1,21,23,25,27,29,-1,31,-1,33,35,37,39,41,-1,43,45,47,49,-1,-1,-1,-1,-1,-1,-1,-1,-1,-1,-1,-1,-1,-1,-1,-1,-1,-1,-1,-1,-1,-1],"loss_changes":[8.65752E6,2.4886065E6,1.212596E6,8.766991E5,2.21401E5,5.203965E5,8.0594195E4,2.32038E5,3.0475412E5,3.593525E4,0E0,1.7806938E5,2.09915E4,1.673264E4,4.611767E4,8.9214375E4,0E0,1.5926358E5,0E0,4.8716758E4,5.645125E3,6.3741875E4,5.723862E3,6.3329E4,0E0,2.2011922E4,9.529259E3,3.766289E4,6.5203945E3,0E0,0E0,0E0,0E0,0E0,0E0,0E0,0E0,0E0,0E0,0E0,0E0,0E0,0E0,0E0,0E0,0E0,0E0,0E0,0E0,0E0,0E0],"parents":[2147483647,0,0,1,1,2,2,3,3,4,4,5,5,6,6,7,7,8,8,9,9,11,11,12,12,13,13,14,14,15,15,17,17,19,19,20,20,21,21,22,22,23,23,25,25,26,26,27,27,28,28],"right_children":[2,4,6,8,10,12,14,16,18,20,-1,22,24,26,28,30,-1,32,-1,34,36,38,40,42,-1,44,46,48,50,-1,-1,-1,-1,-1,-1,-1,-1,-1,-1,-1,-1,-1,-1,-1,-1,-1,-1,-1,-1,-1,-1],"split_conditions":[2.72E1,5E0,5E0,1.8E1,8.27E1,2.84E1,3.7E1,1E0,1E0,5E0,-3.8097332E0,1E0,4.2E1,6E0,6E0,2.5E1,-4.0808325E0,5E1,-2.8092782E0,2.67E1,2.67E1,3.4E1,3E0,8E0,2.800773E0,8E0,3.4E1,4.6E1,4.2E1,-9.085633E-1,-1.821715E0,6.6557294E-1,-6.5897286E-1,-1.9351891E0,1.894393E-1,-1.8393234E0,-2.851068E0,1.6020149E0,2.8213294E0,9.467041E-2,-7.516516E-1,2.9529312E0,5.044666E0,-4.7171143E-1,6.2452585E-1,-8.7128174E-1,1.3312174E-2,1.8913158E0,3.8770506E-1,-3.515869E-2,5.706311E-1],"split_indices":[0,4,4,6,1,0,6,3,3,5,0,3,6,4,4,5,0,6,0,0,0,6,4,5,0,5,6,6,6,0,0,0,0,0,0,0,0,0,0,0,0,0,0,0,0,0,0,0,0,0,0],"split_type":[0,0,0,0,0,0,0,0,0,0,0,0,0,0,0,0,0,0,0,0,0,0,0,0,0,0,0,0,0,0,0,0,0,0,0,0,0,0,0,0,0,0,0,0,0,0,0,0,0,0,0],"sum_hessian":[2.77E2,1.85E2,9.2E1,1.35E2,5E1,6.7E1,2.5E1,6.8E1,6.7E1,2.5E1,2.5E1,3.5E1,3.2E1,1E1,1.5E1,6.6E1,2E0,6.5E1,2E0,3E0,2.2E1,3.3E1,2E0,2.4E1,8E0,6E0,4E0,9E0,6E0,5.1E1,1.5E1,5.5E1,1E1,1E0,2E0,1.2E1,1E1,1.2E1,2.1E1,1E0,1E0,8E0,1.6E1,2E0,4E0,2E0,2E0,6E0,3E0,3E0,3E0],"tree_param":{"num_deleted":"0","num_feature":"9","num_nodes":"51","size_leaf_vector":"1"}},{"base_weights":[-1.9069235E0,-1.201848E2,2.580654E2,-3.921423E1,-3.0404865E2,3.2970053E2,5.5760643E1,-1.152113E2,3.2114742E1,-3.8327234E0,-2.2521422E2,2.5192982E2,4.021937E0,1.0705796E2,-1.9259388E1,-1.0027698E2,-4.053627E0,5.6971138E1,-8.698949E1,-9.2873375E1,-2.3075642E2,2.637389E2,-7.4789304E-1,4.893213E1,1.5180154E2,-7.633569E1,1.1686188E1,-1.5317357E0,-5.972873E-1,6.7939985E-1,-7.946797E-1,-4.434072E-1,-1.7186401E0,-1.9255127E0,5.324121E-1,-1.7584722E0,-2.8487136E0,1.5959039E0,2.896465E0,1.0423043E0,-7.797518E-1,5.8190346E-1,1.7330688E0,-8.654728E-1,-2.2850463E-1,3.5734653E-1,-7.8326535E-1],"categories":[],"categories_nodes":[],"categories_segments":[],"categories_sizes":[],"default_left":[0,0,0,0,0,0,0,0,0,0,0,0,0,0,0,0,0,0,0,0,0,0,0,0,0,0,0,0,0,0,0,0,0,0,0,0,0,0,0,0,0,0,0,0,0,0,0],"id":13,"left_children":[1,3,5,7,9,11,13,15,17,-1,19,21,-1,23,25,27,-1,29,31,33,35,37,-1,39,41,43,45,-1,-1,-1,-1,-1,-1,-1,-1,-1,-1,-1,-1,-1,-1,-1,-1,-1,-1,-1,-1],"loss_changes":[8.948217E6,2.9655895E6,1.300399E6,7.62611E5,2.946605E5,2.764105E5,9.827003E4,2.5401012E5,2.2107253E5,0E0,2.773E3,1.5476375E5,0E0,3.1583406E4,2.0320924E4,1.3241219E5,0E0,9.669042E4,3.9436742E4,5.3944844E4,4.201975E4,4.551525E4,0E0,6.4269445E4,6.0203438E3,2.0703125E2,2.0116316E4,0E0,0E0,0E0,0E0,0E0,0E0,0E0,0E0,0E0,0E0,0E0,0E0,0E0,0E0,0E0,0E0,0E0,0E0,0E0,0E0],"parents":[2147483647,0,0,1,1,2,2,3,3,4,4,5,5,6,6,7,7,8,8,10,10,11,11,13,13,14,14,15,15,17,17,18,18,19,19,20,20,21,21,23,23,24,24,25,25,26,26],"right_children":[2,4,6,8,10,12,14,16,18,-1,20,22,-1,24,26,28,-1,30,32,34,36,38,-1,40,42,44,46,-1,-1,-1,-1,-1,-1,-1,-1,-1,-1,-1,-1,-1,-1,-1,-1,-1,-1,-1,-1],"split_conditions":[2.72E1,5E0,5E0,1.8E1,1.7E1,2.84E1,6E0,1E0,5E1,-3.8327234E0,2E0,1E0,4.021937E0,1.8E1,3.6E1,2E0,-4.053627E0,3E1,2E1,2.67E1,6E0,3.4E1,-7.4789304E-1,1.3E1,2.75E1,2.75E1,4.6E1,-1.5317357E0,-5.972873E-1,6.7939985E-1,-7.946797E-1,-4.434072E-1,-1.7186401E0,-1.9255127E0,5.324121E-1,-1.7584722E0,-2.8487136E0,1.5959039E0,2.896465E0,1.0423043E0,-7.797518E-1,5.8190346E-1,1.7330688E0,-8.654728E-1,-2.2850463E-1,3.5734653E-1,-7.8326535E-1],"split_indices":[0,4,4,6,6,0,4,3,6,0,5,3,0,5,6,4,0,5,5,0,4,6,0,5,0,0,6,0,0,0,0,0,0,0,0,0,0,0,0,0,0,0,0,0,0,0,0],"split_type":[0,0,0,0,0,0,0,0,0,0,0,0,0,0,0,0,0,0,0,0,0,0,0,0,0,0,0,0,0,0,0,0,0,0,0,0,0,0,0,0,0,0,0,0,0,0,0],"sum_hessian":[2.89E2,1.99E2,9E1,1.39E2,6E1,6.6E1,2.4E1,6.7E1,7.2E1,2.8E1,3.2E1,3.4E1,3.2E1,1.4E1,1E1,6.5E1,2E0,6E1,1.2E1,2E0,3E1,3.3E1,1E0,7E0,7E0,3E0,7E0,2.7E1,3.8E1,5.6E1,4E0,9E0,3E0,1E0,1E0,1.7E1,1.3E1,8E0,2.5E1,5E0,2E0,2E0,5E0,2E0,1E0,6E0,1E0],"tree_param":{"num_deleted":"0","num_feature":"9","num_nodes":"47","size_leaf_vector":"1"}},{"base_weights":[1.1138008E1,-1.1298864E2,2.7276227E2,-4.4388298E1,-3.0966986E2,3.2980078E2,9.741144E1,-1.2695704E2,3.8788506E1,-3.936418E0,-2.022985E0,2.5753397E2,4.0083325E2,-1.2441154E0,1.2323223E2,-1.1351948E2,-4.0266023E0,6.867867E1,-1.0444909E2,2.6882187E2,-7.4415404E-1,2.642723E0,4.3396188E2,1.6100914E2,6.1799023E1,-2.0177097E0,-7.739352E-1,4.4381076E-1,2.497771E0,-3.618591E-1,-2.4899476E0,1.7314938E0,2.8997295E0,4.4158916E0,1.2545348E0,5.7802486E-1,1.7451922E0,1.4916178E-2,7.668942E-1],"categories":[],"categories_nodes":[],"categories_segments":[],"categories_sizes":[],"default_left":[0,0,0,0,0,0,0,0,0,0,0,0,0,0,0,0,0,0,0,0,0,0,0,0,0,0,0,0,0,0,0,0,0,0,0,0,0,0,0],"id":14,"left_children":[1,3,5,7,9,11,13,15,17,-1,-1,19,21,-1,23,25,-1,27,29,31,-1,-1,33,35,37,-1,-1,-1,-1,-1,-1,-1,-1,-1,-1,-1,-1,-1,-1],"loss_changes":[9.286063E6,2.6037795E6,8.88035E5,1.000756E6,3.71176E5,2.50969E5,1.5279502E5,2.24739E5,3.197153E5,0E0,0E0,1.5864375E5,3.461E4,0E0,4.1106438E4,2.1074425E5,0E0,2.5733019E5,1.192628E5,2.264E4,0E0,0E0,3.428E3,8.038625E3,8.865621E3,0E0,0E0,0E0,0E0,0E0,0E0,0E0,0E0,0E0,0E0,0E0,0E0,0E0,0E0],"parents":[2147483647,0,0,1,1,2,2,3,3,4,4,5,5,6,6,7,7,8,8,11,11,12,12,14,14,15,15,17,17,18,18,19,19,22,22,23,23,24,24],"right_children":[2,4,6,8,10,12,14,16,18,-1,-1,20,22,-1,24,26,-1,28,30,32,-1,-1,34,36,38,-1,-1,-1,-1,-1,-1,-1,-1,-1,-1,-1,-1,-1,-1],"split_conditions":[2.72E1,5E0,5E0,1.8E1,1.7E1,2.84E1,3.2E1,1E0,5E1,-3.936418E0,-2.022985E0,1E0,8E0,-1.2441154E0,6E0,8.31E1,-4.0266023E0,3.1E1,2.4E1,3.4E1,-7.4415404E-1,2.642723E0,2.8E1,2.75E1,3.7E1,-2.0177097E0,-7.739352E-1,4.4381076E-1,2.497771E0,-3.618591E-1,-2.4899476E0,1.7314938E0,2.8997295E0,4.4158916E0,1.2545348E0,5.7802486E-1,1.7451922E0,1.4916178E-2,7.668942E-1],"split_indices":[0,4,4,6,6,0,6,3,6,0,0,3,5,0,4,1,0,6,5,6,0,0,5,0,6,0,0,0,0,0,0,0,0,0,0,0,0,0,0],"split_type":[0,0,0,0,0,0,0,0,0,0,0,0,0,0,0,0,0,0,0,0,0,0,0,0,0,0,0,0,0,0,0,0,0,0,0,0,0,0,0],"sum_hessian":[2.84E2,1.93E2,9.1E1,1.44E2,4.9E1,6.8E1,2.3E1,7.2E1,7.2E1,2.6E1,2.3E1,3.6E1,3.2E1,2E0,2.1E1,7E1,2E0,6E1,1.2E1,3.5E1,1E0,8E0,2.4E1,1.2E1,9E0,1.9E1,5.1E1,5.4E1,6E0,9E0,3E0,8E0,2.7E1,2.3E1,1E0,2E0,1E1,2E0,7E0],"tree_param":{"num_deleted":"0","num_feature":"9","num_nodes":"39","size_leaf_vector":"1"}},{"base_weights":[1.3236282E0,-1.1723054E2,2.4493138E2,-4.1796223E1,-3.0224844E2,3.215955E2,5.1298096E1,6.2630856E1,-1.0080937E2,-3.7185106E0,-2.0663538E2,2.3486334E2,4.1495422E2,-1.0797765E1,1.09729805E2,7.057862E1,-1.5943091E0,-8.378868E1,-4.2878623E0,5.398645E-1,-2.1974404E0,2.5243634E2,-4.2585125E1,1.1779981E0,4.2113886E0,-1.2358211E0,1.8298136E1,-1.1096802E1,1.4369131E2,3.7245396E-1,9.5124996E-1,-1.1595751E0,-2.6087496E-1,1.5367908E0,2.9298635E0,1.0165649E-1,-7.4043334E-1,6.3145506E-1,-8.718298E-1,-1.9214843E-1,6.6286616E-2,1.8589125E0,5.5873144E-1],"categories":[],"categories_nodes":[],"categories_segments":[],"categories_sizes":[],"default_left":[0,0,0,0,0,0,0,0,0,0,0,0,0,0,0,0,0,0,0,0,0,0,0,0,0,0,0,0,0,0,0,0,0,0,0,0,0,0,0,0,0,0,0],"id":15,"left_children":[1,3,5,7,9,11,13,15,17,-1,19,21,23,25,27,29,-1,31,-1,-1,-1,33,35,-1,-1,-1,37,39,41,-1,-1,-1,-1,-1,-1,-1,-1,-1,-1,-1,-1,-1,-1],"loss_changes":[8.0286705E6,2.5972702E6,1.334373E6,8.3209825E5,2.82528E5,4.288605E5,9.915075E4,9.7732234E4,4.4415825E5,0E0,9.72735E4,1.8627175E5,5.524E3,4.820319E4,5.9042875E4,3.573111E4,0E0,1.5103794E5,0E0,0E0,0E0,9.113075E4,5.7310337E3,0E0,0E0,0E0,6.2271824E4,7.02953E2,3.0378812E4,0E0,0E0,0E0,0E0,0E0,0E0,0E0,0E0,0E0,0E0,0E0,0E0,0E0,0E0],"parents":[2147483647,0,0,1,1,2,2,3,3,4,4,5,5,6,6,7,7,8,8,10,10,11,11,12,12,13,13,14,14,15,15,17,17,21,21,22,22,26,26,27,27,28,28],"right_children":[2,4,6,8,10,12,14,16,18,-1,20,22,24,26,28,30,-1,32,-1,-1,-1,34,36,-1,-1,-1,38,40,42,-1,-1,-1,-1,-1,-1,-1,-1,-1,-1,-1,-1,-1,-1],"split_conditions":[2.72E1,5E0,5E0,8.03E1,1.7E1,2.84E1,2.84E1,1E0,1E0,-3.7185106E0,2E0,1E0,2E0,3.2E1,3.7E1,2E0,-1.5943091E0,1.4E1,-4.2878623E0,5.398645E-1,-2.1974404E0,3.4E1,3E0,1.1779981E0,4.2113886E0,-1.2358211E0,4.6E1,8E0,6E0,3.7245396E-1,9.5124996E-1,-1.1595751E0,-2.6087496E-1,1.5367908E0,2.9298635E0,1.0165649E-1,-7.4043334E-1,6.3145506E-1,-8.718298E-1,-1.9214843E-1,6.6286616E-2,1.8589125E0,5.5873144E-1],"split_indices":[0,4,4,1,6,0,0,3,3,0,5,3,5,6,6,4,0,6,0,0,0,6,4,0,0,0,6,5,4,0,0,0,0,0,0,0,0,0,0,0,0,0,0],"split_type":[0,0,0,0,0,0,0,0,0,0,0,0,0,0,0,0,0,0,0,0,0,0,0,0,0,0,0,0,0,0,0,0,0,0,0,0,0,0,0,0,0,0,0],"sum_hessian":[2.76E2,1.86E2,9E1,1.33E2,5.3E1,6.4E1,2.6E1,4.8E1,8.5E1,2.9E1,2.4E1,3.5E1,2.9E1,1.3E1,1.3E1,4.7E1,1E0,8.2E1,3E0,1E0,2.3E1,3.3E1,2E0,1E0,2.8E1,2E0,1.1E1,3E0,1E1,2.1E1,2.6E1,5.2E1,3E1,1.1E1,2.2E1,1E0,1E0,8E0,3E0,2E0,1E0,6E0,4E0],"tree_param":{"num_deleted":"0","num_feature":"9","num_nodes":"43","size_leaf_vector":"1"}},{"base_weights":[-1.1249836E1,-1.2148438E2,2.381584E2,-4.259031E1,-2.9926785E2,3.1039417E2,7.342285E0,-1.1721282E2,3.0530022E1,-1.9135007E2,-3.5523815E0,2.3597844E2,3.9430761E0,-3.6498497E1,6.3601074E1,-2.6487207E2,-9.894572E1,5.670317E1,-8.008231E1,-2.2025268E-1,-1.980455E2,2.5261937E2,-4.237215E1,-9.414906E0,-1.2363883E0,8.924011E-1,2.0114014E1,-3.115849E0,-9.872664E-1,-2.4441576E-1,-1.3832741E0,3.7551367E-1,1.71708E0,-4.0645948E-1,-1.6851171E0,-2.0631661E0,-7.6889485E-1,1.5028361E0,2.8116522E0,1.0114868E-1,-7.3673093E-1,-6.2883997E-1,6.7324805E-1,-4.7218017E-2,2.7503416E-1],"categories":[],"categories_nodes":[],"categories_segments":[],"categories_sizes":[],"default_left":[0,0,0,0,0,0,0,0,0,0,0,0,0,0,0,0,0,0,0,0,0,0,0,0,0,0,0,0,0,0,0,0,0,0,0,0,0,0,0,0,0,0,0,0,0],"id":16,"left_children":[1,3,5,7,9,11,13,15,17,19,-1,21,-1,23,25,27,29,31,33,-1,35,37,39,41,-1,-1,43,-1,-1,-1,-1,-1,-1,-1,-1,-1,-1,-1,-1,-1,-1,-1,-1,-1,-1],"loss_changes":[7.892046E6,2.7784402E6,1.4649605E6,7.6202125E5,3.00477E5,3.25332E5,5.658279E4,1.5990619E5,2.1009112E5,2.1713188E4,0E0,1.867205E5,0E0,2.9516906E4,9.3546875E3,2.3566156E4,1.8146731E5,1.21300016E5,4.197335E4,0E0,6.1825625E3,6.2911E4,5.6738735E3,4.9368883E4,0E0,0E0,1.047475E3,0E0,0E0,0E0,0E0,0E0,0E0,0E0,0E0,0E0,0E0,0E0,0E0,0E0,0E0,0E0,0E0,0E0,0E0],"parents":[2147483647,0,0,1,1,2,2,3,3,4,4,5,5,6,6,7,7,8,8,9,9,11,11,13,13,14,14,15,15,16,16,17,17,18,18,20,20,21,21,22,22,23,23,26,26],"right_children":[2,4,6,8,10,12,14,16,18,20,-1,22,-1,24,26,28,30,32,34,-1,36,38,40,42,-1,-1,44,-1,-1,-1,-1,-1,-1,-1,-1,-1,-1,-1,-1,-1,-1,-1,-1,-1,-1],"split_conditions":[2.72E1,5E0,5E0,1.8E1,8.03E1,2.84E1,1.9E1,2E0,5E1,5E0,-3.5523815E0,1E0,3.9430761E0,4.6E1,6E0,2E0,1.2E1,3.1E1,2.4E1,-2.2025268E-1,2.9E1,3.4E1,3E0,4.1E1,-1.2363883E0,8.924011E-1,2.75E1,-3.115849E0,-9.872664E-1,-2.4441576E-1,-1.3832741E0,3.7551367E-1,1.71708E0,-4.0645948E-1,-1.6851171E0,-2.0631661E0,-7.6889485E-1,1.5028361E0,2.8116522E0,1.0114868E-1,-7.3673093E-1,-6.2883997E-1,6.7324805E-1,-4.7218017E-2,2.7503416E-1],"split_indices":[0,4,4,6,1,0,5,6,6,5,0,3,0,6,4,4,5,6,5,0,5,6,4,6,0,0,0,0,0,0,0,0,0,0,0,0,0,0,0,0,0,0,0,0,0],"split_type":[0,0,0,0,0,0,0,0,0,0,0,0,0,0,0,0,0,0,0,0,0,0,0,0,0,0,0,0,0,0,0,0,0,0,0,0,0,0,0,0,0,0,0,0,0],"sum_hessian":[2.85E2,1.98E2,8.7E1,1.38E2,6E1,6.6E1,2.1E1,6.8E1,7E1,2.2E1,3.8E1,3.7E1,2.9E1,1.2E1,9E0,6E0,6.2E1,5.7E1,1.3E1,1E0,2.1E1,3.5E1,2E0,1E1,2E0,5E0,4E0,4E0,2E0,2.2E1,4E1,5E1,7E0,1E1,3E0,1.9E1,2E0,9E0,2.6E1,1E0,1E0,6E0,4E0,1E0,3E0],"tree_param":{"num_deleted":"0","num_feature":"9","num_nodes":"45","size_leaf_vector":"1"}},{"base_weights":[5.02191E0,-1.1608859E2,2.445555E2,-4.071412E1,-3.0374182E2,3.1973438E2,5.172727E1,-2.8417597E1,-4.240243E0,-3.703258E0,-2.3816399E2,2.3658617E2,4.1162604E2,8.6279526E1,1.3480207E1,4.5533092E1,-7.335718E1,-9.016268E1,-2.4578769E2,1.4746416E2,2.6861993E2,4.5319504E2,2.831685E0,-6.4566773E-1,1.0284976E2,-1.6425158E1,5.6091553E1,6.2215894E-1,-3.552558E-1,-9.777755E-2,-1.1338134E0,-1.9073681E0,5.5492795E-1,-1.7865895E0,-2.8758006E0,1.6613936E0,3.6058673E-1,2.785596E0,1.0064331E-1,1.1523925E0,4.6433086E0,1.2314547E0,4.5747507E-1,1.3761474E-1,-8.138558E-1,9.3805504E-1,1.3783203E-1],"categories":[],"categories_nodes":[],"categories_segments":[],"categories_sizes":[],"default_left":[0,0,0,0,0,0,0,0,0,0,0,0,0,0,0,0,0,0,0,0,0,0,0,0,0,0,0,0,0,0,0,0,0,0,0,0,0,0,0,0,0,0,0,0,0,0,0],"id":17,"left_children":[1,3,5,7,9,11,13,15,-1,-1,17,19,21,23,25,27,29,31,33,35,37,39,-1,-1,41,43,45,-1,-1,-1,-1,-1,-1,-1,-1,-1,-1,-1,-1,-1,-1,-1,-1,-1,-1,-1,-1],"loss_changes":[7.948129E6,2.5618898E6,1.317149E6,6.0540325E5,1.38856E5,4.068965E5,3.451803E4,4.2872422E5,0E0,0E0,1.0560375E4,6.602E4,3.18645E4,4.16345E4,1.8761623E4,6.847226E4,2.024685E5,5.453203E4,2.4368875E4,1.8975516E4,6.4015375E4,2.55225E4,0E0,0E0,9.4325E3,1.8768412E4,8.280748E3,0E0,0E0,0E0,0E0,0E0,0E0,0E0,0E0,0E0,0E0,0E0,0E0,0E0,0E0,0E0,0E0,0E0,0E0,0E0,0E0],"parents":[2147483647,0,0,1,1,2,2,3,3,4,4,5,5,6,6,7,7,10,10,11,11,12,12,13,13,14,14,15,15,16,16,17,17,18,18,19,19,20,20,21,21,24,24,25,25,26,26],"right_children":[2,4,6,8,10,12,14,16,-1,-1,18,20,22,24,26,28,30,32,34,36,38,40,-1,-1,42,44,46,-1,-1,-1,-1,-1,-1,-1,-1,-1,-1,-1,-1,-1,-1,-1,-1,-1,-1,-1,-1],"split_conditions":[2.72E1,5E0,5E0,1E0,1.7E1,2.84E1,6E0,8.03E1,-4.240243E0,-3.703258E0,2E0,3.4E1,4.2E1,3.2E1,1.9E1,2.7E1,1.4E1,2.67E1,6E0,1.5E1,1E0,2E0,2.831685E0,-6.4566773E-1,7.31E1,1.4E1,2.3E1,6.2215894E-1,-3.552558E-1,-9.777755E-2,-1.1338134E0,-1.9073681E0,5.5492795E-1,-1.7865895E0,-2.8758006E0,1.6613936E0,3.6058673E-1,2.785596E0,1.0064331E-1,1.1523925E0,4.6433086E0,1.2314547E0,4.5747507E-1,1.3761474E-1,-8.138558E-1,9.3805504E-1,1.3783203E-1],"split_indices":[0,4,4,3,6,0,4,1,0,0,5,6,6,6,5,5,5,0,4,5,3,5,0,0,1,5,5,0,0,0,0,0,0,0,0,0,0,0,0,0,0,0,0,0,0,0,0],"split_type":[0,0,0,0,0,0,0,0,0,0,0,0,0,0,0,0,0,0,0,0,0,0,0,0,0,0,0,0,0,0,0,0,0,0,0,0,0,0,0,0,0,0,0,0,0,0,0],"sum_hessian":[2.72E2,1.81E2,9.1E1,1.3E2,5.1E1,6.5E1,2.6E1,1.27E2,3E0,2.3E1,2.8E1,3.6E1,2.9E1,1.3E1,1.3E1,4.8E1,7.9E1,2E0,2.6E1,1.1E1,2.5E1,2E1,9E0,1E0,1.2E1,8E0,5E0,4E1,8E0,3.1E1,4.8E1,1E0,1E0,1.2E1,1.4E1,9E0,2E0,2.4E1,1E0,1E0,1.9E1,8E0,4E0,6E0,2E0,2E0,3E0],"tree_param":{"num_deleted":"0","num_feature":"9","num_nodes":"47","size_leaf_vector":"1"}},{"base_weights":[-1.8677835E0,-1.16975716E2,2.4014171E2,-3.4759422E1,-2.9196713E2,3.178943E2,5.2704655E1,-1.03773735E2,5.459397E1,-3.562467E2,-2.2659854E2,2.2943298E2,3.9365695E2,-3.0698584E1,9.611175E1,-8.666571E1,-3.729437E0,6.986128E1,-6.2257393E1,-2.7074133E2,-4.123019E0,-8.971183E1,-2.3273393E2,2.496243E2,-4.2227295E1,2.823961E2,4.313939E2,4.3885254E1,-8.773535E1,1.7950076E2,3.9458843E1,-3.0904174E-1,-1.2632022E0,5.0358886E-1,1.824676E0,2.5186768E-2,-7.347318E-1,-3.4351927E-1,-2.8628268E0,-1.8978307E0,5.521533E-1,-1.7796922E0,-2.7563403E0,1.6363128E0,2.7459154E0,1.0014038E-1,-7.335498E-1,2.942198E0,8.2079345E-1,4.8045163E0,2.5763419E0,5.799847E-1,-6.283813E-2,-1.2382257E0,-1.0373942E-1,2.0277314E0,1.9933227E-1,-1.6660121E-1,9.835449E-1],"categories":[],"categories_nodes":[],"categories_segments":[],"categories_sizes":[],"default_left":[0,0,0,0,0,0,0,0,0,0,0,0,0,0,0,0,0,0,0,0,0,0,0,0,0,0,0,0,0,0,0,0,0,0,0,0,0,0,0,0,0,0,0,0,0,0,0,0,0,0,0,0,0,0,0,0,0,0,0],"id":18,"left_children":[1,3,5,7,9,11,13,15,17,19,21,23,25,27,29,31,-1,33,35,37,-1,39,41,43,45,47,49,51,53,55,57,-1,-1,-1,-1,-1,-1,-1,-1,-1,-1,-1,-1,-1,-1,-1,-1,-1,-1,-1,-1,-1,-1,-1,-1,-1,-1,-1,-1],"loss_changes":[7.605253E6,2.6514735E6,1.265732E6,7.888317E5,1.67185E5,3.2521E5,1.006984E5,2.9923606E5,1.04253734E5,2.257725E4,5.99625E3,1.8058125E5,1.25325E4,4.63905E4,7.7953234E4,1.4866875E5,0E0,1.006158E5,5.27066E3,4.1599E4,0E0,5.3988062E4,2.1428125E4,1.73315E4,5.6130347E3,1.9040625E3,6.3753E4,3.9046875E3,1.546602E4,2.1952703E4,4.1300555E4,0E0,0E0,0E0,0E0,0E0,0E0,0E0,0E0,0E0,0E0,0E0,0E0,0E0,0E0,0E0,0E0,0E0,0E0,0E0,0E0,0E0,0E0,0E0,0E0,0E0,0E0,0E0,0E0],"parents":[2147483647,0,0,1,1,2,2,3,3,4,4,5,5,6,6,7,7,8,8,9,9,10,10,11,11,12,12,13,13,14,14,15,15,17,17,18,18,19,19,21,21,22,22,23,23,24,24,25,25,26,26,27,27,28,28,29,29,30,30],"right_children":[2,4,6,8,10,12,14,16,18,20,22,24,26,28,30,32,-1,34,36,38,-1,40,42,44,46,48,50,52,54,56,58,-1,-1,-1,-1,-1,-1,-1,-1,-1,-1,-1,-1,-1,-1,-1,-1,-1,-1,-1,-1,-1,-1,-1,-1,-1,-1,-1,-1],"split_conditions":[2.72E1,5E0,5E0,1.9E1,1.7E1,2.84E1,3.7E1,1E0,5E1,6E0,2E0,1E0,8E0,6E0,4.1E1,1.2E1,-3.729437E0,3.1E1,1.1E1,4E0,-4.123019E0,2.67E1,6E0,3.4E1,3E0,7E0,4.2E1,2.75E1,2.75E1,2.3E1,1.8E1,-3.0904174E-1,-1.2632022E0,5.0358886E-1,1.824676E0,2.5186768E-2,-7.347318E-1,-3.4351927E-1,-2.8628268E0,-1.8978307E0,5.521533E-1,-1.7796922E0,-2.7563403E0,1.6363128E0,2.7459154E0,1.0014038E-1,-7.335498E-1,2.942198E0,8.2079345E-1,4.8045163E0,2.5763419E0,5.799847E-1,-6.283813E-2,-1.2382257E0,-1.0373942E-1,2.0277314E0,1.9933227E-1,-1.6660121E-1,9.835449E-1],"split_indices":[0,4,4,6,6,0,6,3,6,4,5,3,5,4,6,5,0,6,5,6,0,0,4,6,4,5,6,0,0,5,5,0,0,0,0,0,0,0,0,0,0,0,0,0,0,0,0,0,0,0,0,0,0,0,0,0,0,0,0],"split_type":[0,0,0,0,0,0,0,0,0,0,0,0,0,0,0,0,0,0,0,0,0,0,0,0,0,0,0,0,0,0,0,0,0,0,0,0,0,0,0,0,0,0,0,0,0,0,0,0,0,0,0,0,0,0,0,0,0,0,0],"sum_hessian":[2.71E2,1.84E2,8.7E1,1.26E2,5.8E1,6.1E1,2.6E1,7.1E1,5.5E1,2.7E1,3.1E1,3E1,3.1E1,9E0,1.7E1,6.8E1,3E0,4.9E1,6E0,1.3E1,1.4E1,2E0,2.9E1,2.8E1,2E0,1E1,2.1E1,4E0,5E0,6E0,1.1E1,2.9E1,3.9E1,4.3E1,6E0,1E0,5E0,1E0,1.2E1,1E0,1E0,1.5E1,1.4E1,8E0,2E1,1E0,1E0,9E0,1E0,1.5E1,6E0,3E0,1E0,3E0,2E0,5E0,1E0,6E0,5E0],"tree_param":{"num_deleted":"0","num_feature":"9","num_nodes":"59","size_leaf_vector":"1"}},{"base_weights":[-7.4733543E0,-1.22782196E2,2.3549074E2,-4.965144E1,-2.9844867E2,3.2148398E2,4.1322323E1,-1.2671506E2,2.3869677E1,-2.2347433E2,-3.7079704E0,2.3353006E2,3.9480875E2,-7.007087E1,7.209024E1,-2.3772144E2,-1.0610208E2,3.600605E1,-2.7131436E0,-8.926327E1,-2.2965224E2,2.5330034E2,-4.2016113E1,4.449461E0,3.1059508E0,2.6983643E-1,-1.2289386E0,9.728796E1,-7.822034E1,-2.79547E0,-1.3998648E0,-1.9976793E-1,-1.4253727E0,1.5031036E0,1.480353E-1,-1.8883411E0,5.493921E-1,-1.6087108E0,-2.7548249E0,1.3968415E0,2.758842E0,9.963989E-2,-7.298816E-1,-6.4533937E-1,4.3382403E-1,1.6266496E-1,1.286121E0,-1.225848E0,2.7436522E-1],"categories":[],"categories_nodes":[],"categories_segments":[],"categories_sizes":[],"default_left":[0,0,0,0,0,0,0,0,0,0,0,0,0,0,0,0,0,0,0,0,0,0,0,0,0,0,0,0,0,0,0,0,0,0,0,0,0,0,0,0,0,0,0,0,0,0,0,0,0],"id":19,"left_children":[1,3,5,7,9,11,13,15,17,19,-1,21,23,25,27,29,31,33,-1,35,37,39,41,-1,-1,43,-1,45,47,-1,-1,-1,-1,-1,-1,-1,-1,-1,-1,-1,-1,-1,-1,-1,-1,-1,-1,-1,-1],"loss_changes":[8.181543E6,2.528813E6,1.55625E6,8.01903E5,2.31744E5,3.26999E5,1.07871516E5,1.3266112E5,2.7128878E5,5.20375E3,0E0,1.8496662E5,5.358E3,2.6042406E4,9.85095E4,1.745375E3,1.8543206E5,1.6984616E5,0E0,5.3449484E4,4.7098375E4,3.844025E4,5.5570444E3,0E0,0E0,1.3975066E4,0E0,5.120442E4,2.2112941E4,0E0,0E0,0E0,0E0,0E0,0E0,0E0,0E0,0E0,0E0,0E0,0E0,0E0,0E0,0E0,0E0,0E0,0E0,0E0,0E0],"parents":[2147483647,0,0,1,1,2,2,3,3,4,4,5,5,6,6,7,7,8,8,9,9,11,11,12,12,13,13,14,14,15,15,16,16,17,17,19,19,20,20,21,21,22,22,25,25,27,27,28,28],"right_children":[2,4,6,8,10,12,14,16,18,20,-1,22,24,26,28,30,32,34,-1,36,38,40,42,-1,-1,44,-1,46,48,-1,-1,-1,-1,-1,-1,-1,-1,-1,-1,-1,-1,-1,-1,-1,-1,-1,-1,-1,-1],"split_conditions":[2.72E1,5E0,5E0,1.8E1,8.27E1,2.84E1,3.4E1,3E0,1E0,2E0,-3.7079704E0,1E0,4E1,6E0,4.6E1,2E0,1.2E1,5E0,-2.7131436E0,2.67E1,6E0,3.4E1,3E0,4.449461E0,3.1059508E0,4E0,-1.2289386E0,3.7E1,1.8E1,-2.79547E0,-1.3998648E0,-1.9976793E-1,-1.4253727E0,1.5031036E0,1.480353E-1,-1.8883411E0,5.493921E-1,-1.6087108E0,-2.7548249E0,1.3968415E0,2.758842E0,9.963989E-2,-7.298816E-1,-6.4533937E-1,4.3382403E-1,1.6266496E-1,1.286121E0,-1.225848E0,2.7436522E-1],"split_indices":[0,4,4,6,1,0,6,6,3,5,0,3,6,4,6,4,5,5,0,0,4,6,4,0,0,5,0,6,5,0,0,0,0,0,0,0,0,0,0,0,0,0,0,0,0,0,0,0,0],"split_type":[0,0,0,0,0,0,0,0,0,0,0,0,0,0,0,0,0,0,0,0,0,0,0,0,0,0,0,0,0,0,0,0,0,0,0,0,0,0,0,0,0,0,0,0,0,0,0,0,0],"sum_hessian":[2.9E2,1.97E2,9.3E1,1.4E2,5.7E1,6.4E1,2.9E1,6.8E1,7.2E1,3E1,2.7E1,3.1E1,3.3E1,6E0,2.3E1,9E0,5.9E1,7E1,2E0,2E0,2.8E1,2.9E1,2E0,1.8E1,1.5E1,3E0,3E0,2E1,3E0,5E0,4E0,1.8E1,4.1E1,1E1,6E1,1E0,1E0,1.3E1,1.5E1,6E0,2.3E1,1E0,1E0,1E0,2E0,6E0,1.4E1,2E0,1E0],"tree_param":{"num_deleted":"0","num_feature":"9","num_nodes":"49","size_leaf_vector":"1"}},{"base_weights":[-1.2309546E1,-1.1567203E2,2.1407622E2,-4.279775E1,-2.8539835E2,2.9273267E2,2.945363E1,-1.4363718E2,1.3699688E1,-3.4825563E0,-2.2532121E2,2.3949986E2,4.1250912E2,-1.062041E2,6.356201E1,-1.2531597E2,-3.8889744E0,2.3198736E1,-2.6950562E0,-1.0389209E2,-2.4329454E2,2.5323663E2,-4.180599E1,4.2330704E0,1.1447204E0,-1.3249103E0,-3.5753498E1,9.2079025E1,-5.7515038E1,-9.099572E-1,-2.1071699E0,1.0705346E0,7.2365366E-2,-1.4653633E0,5.466455E-1,-1.8788949E0,-2.7878628E0,1.4848305E0,2.7967935E0,9.914184E-2,-7.262317E-1,-1.0456787E-1,-4.3173462E-1,1.6544433E-1,1.1787392E0,-1.2176758E0,2.590918E-1],"categories":[],"categories_nodes":[],"categories_segments":[],"categories_sizes":[],"default_left":[0,0,0,0,0,0,0,0,0,0,0,0,0,0,0,0,0,0,0,0,0,0,0,0,0,0,0,0,0,0,0,0,0,0,0,0,0,0,0,0,0,0,0,0,0,0,0],"id":20,"left_children":[1,3,5,7,9,11,13,15,17,-1,19,21,23,25,27,29,-1,31,-1,33,35,37,39,-1,-1,-1,41,43,45,-1,-1,-1,-1,-1,-1,-1,-1,-1,-1,-1,-1,-1,-1,-1,-1,-1,-1],"loss_changes":[6.717104E6,2.4244162E6,1.2983362E6,7.938743E5,1.443315E5,3.028945E5,1.3630839E5,1.7593825E5,2.4836845E5,0E0,4.674575E4,1.883415E5,9.4705E3,6.3745625E3,8.4709305E4,1.21512875E5,0E0,1.17013836E5,0E0,4.857951E4,2.67875E3,8.035075E4,5.501609E3,0E0,0E0,0E0,1.11645996E2,3.5069562E4,2.9955988E4,0E0,0E0,0E0,0E0,0E0,0E0,0E0,0E0,0E0,0E0,0E0,0E0,0E0,0E0,0E0,0E0,0E0,0E0],"parents":[2147483647,0,0,1,1,2,2,3,3,4,4,5,5,6,6,7,7,8,8,10,10,11,11,12,12,13,13,14,14,15,15,17,17,19,19,20,20,21,21,22,22,26,26,27,27,28,28],"right_children":[2,4,6,8,10,12,14,16,18,-1,20,22,24,26,28,30,-1,32,-1,34,36,38,40,-1,-1,-1,42,44,46,-1,-1,-1,-1,-1,-1,-1,-1,-1,-1,-1,-1,-1,-1,-1,-1,-1,-1],"split_conditions":[2.72E1,5E0,5E0,1.4E1,1.6E1,2.88E1,3.4E1,1E0,1E0,-3.4825563E0,7E0,1E0,2.8E1,1.2E1,4.6E1,2.5E1,-3.8889744E0,5E0,-2.6950562E0,8.03E1,6E0,3.4E1,3E0,4.2330704E0,1.1447204E0,-1.3249103E0,6E0,3.7E1,1.8E1,-9.099572E-1,-2.1071699E0,1.0705346E0,7.2365366E-2,-1.4653633E0,5.466455E-1,-1.8788949E0,-2.7878628E0,1.4848305E0,2.7967935E0,9.914184E-2,-7.262317E-1,-1.0456787E-1,-4.3173462E-1,1.6544433E-1,1.1787392E0,-1.2176758E0,2.590918E-1],"split_indices":[0,4,4,6,6,0,6,3,3,0,5,3,5,5,6,5,0,5,0,1,4,6,4,0,0,0,4,6,5,0,0,0,0,0,0,0,0,0,0,0,0,0,0,0,0,0,0],"split_type":[0,0,0,0,0,0,0,0,0,0,0,0,0,0,0,0,0,0,0,0,0,0,0,0,0,0,0,0,0,0,0,0,0,0,0,0,0,0,0,0,0,0,0,0,0,0,0],"sum_hessian":[2.85E2,1.96E2,8.9E1,1.38E2,5.8E1,6.2E1,2.7E1,4.9E1,8.9E1,2.6E1,3.2E1,4.5E1,1.7E1,5E0,2.2E1,4.7E1,2E0,8.7E1,2E0,5E0,2.7E1,4.3E1,2E0,1.6E1,1E0,3E0,2E0,1.8E1,4E0,3.5E1,1.2E1,1.3E1,7.4E1,4E0,1E0,1.3E1,1.4E1,1E1,3.3E1,1E0,1E0,1E0,1E0,5E0,1.3E1,2E0,2E0],"tree_param":{"num_deleted":"0","num_feature":"9","num_nodes":"47","size_leaf_vector":"1"}},{"base_weights":[-6.6595645E0,-1.1748656E2,2.3942519E2,-4.9700558E1,-2.7335745E2,3.0793015E2,4.625487E1,-1.4471097E2,1.3849371E1,-3.3609102E0,-2.2045662E2,2.358995E2,3.7499506E2,-8.511642E0,1.2925581E2,-1.2890201E2,-3.8630483E0,2.8765457E1,-1.89826E2,-8.851066E1,-2.2561488E2,2.4225745E2,9.864624E-2,1.102406E0,3.798236E0,4.1575024E1,-7.8848076E1,1.8840658E1,1.5450452E2,-1.7969927E0,-8.677587E-1,8.983356E-1,8.6021096E-2,1.1976318E-1,-2.3258173E0,-1.8715723E0,5.4391235E-1,-1.7088971E0,-2.7028775E0,9.924341E-1,2.4809449E0,8.104025E-1,-7.752392E-1,-1.1781213E0,-2.0171997E-1,3.257312E-1,-4.3121338E-2,1.8831338E0,7.361731E-1],"categories":[],"categories_nodes":[],"categories_segments":[],"categories_sizes":[],"default_left":[0,0,0,0,0,0,0,0,0,0,0,0,0,0,0,0,0,0,0,0,0,0,0,0,0,0,0,0,0,0,0,0,0,0,0,0,0,0,0,0,0,0,0,0,0,0,0,0,0],"id":21,"left_children":[1,3,5,7,9,11,13,15,17,-1,19,21,23,25,27,29,-1,31,33,35,37,39,-1,-1,-1,41,43,45,47,-1,-1,-1,-1,-1,-1,-1,-1,-1,-1,-1,-1,-1,-1,-1,-1,-1,-1,-1,-1],"loss_changes":[7.991796E6,2.1207188E6,1.1899715E6,8.593865E5,1.283445E5,2.351975E5,1.14742E5,1.6790738E5,2.667318E5,0E0,4.53275E3,4.7909375E4,3.145E2,5.9644793E4,2.4967422E4,1.021005E5,0E0,9.8965555E4,5.4554703E4,5.2470055E4,3.6931375E4,3.760625E3,0E0,0E0,0E0,5.3285227E4,1.3627301E4,1.0942942E3,8.0145E3,0E0,0E0,0E0,0E0,0E0,0E0,0E0,0E0,0E0,0E0,0E0,0E0,0E0,0E0,0E0,0E0,0E0,0E0,0E0,0E0],"parents":[2147483647,0,0,1,1,2,2,3,3,4,4,5,5,6,6,7,7,8,8,10,10,11,11,12,12,13,13,14,14,15,15,17,17,18,18,19,19,20,20,21,21,25,25,26,26,27,27,28,28],"right_children":[2,4,6,8,10,12,14,16,18,-1,20,22,24,26,28,30,-1,32,34,36,38,40,-1,-1,-1,42,44,46,48,-1,-1,-1,-1,-1,-1,-1,-1,-1,-1,-1,-1,-1,-1,-1,-1,-1,-1,-1,-1],"split_conditions":[2.72E1,5E0,5E0,1.4E1,1.6E1,2.84E1,1.9E1,1E0,5.2E1,-3.3609102E0,2E0,1E0,2E0,6E0,2.75E1,2E0,-3.8630483E0,1E1,1E0,2.67E1,6E0,3.2E1,9.864624E-2,1.102406E0,3.798236E0,1.5E1,2.84E1,6E0,6E0,-1.7969927E0,-8.677587E-1,8.983356E-1,8.6021096E-2,1.1976318E-1,-2.3258173E0,-1.8715723E0,5.4391235E-1,-1.7088971E0,-2.7028775E0,9.924341E-1,2.4809449E0,8.104025E-1,-7.752392E-1,-1.1781213E0,-2.0171997E-1,3.257312E-1,-4.3121338E-2,1.8831338E0,7.361731E-1],"split_indices":[0,4,4,6,6,0,5,3,6,0,5,3,5,4,0,4,0,5,4,0,4,6,0,0,0,5,0,4,4,0,0,0,0,0,0,0,0,0,0,0,0,0,0,0,0,0,0,0,0],"split_type":[0,0,0,0,0,0,0,0,0,0,0,0,0,0,0,0,0,0,0,0,0,0,0,0,0,0,0,0,0,0,0,0,0,0,0,0,0,0,0,0,0,0,0,0,0,0,0,0,0],"sum_hessian":[2.91E2,2.01E2,9E1,1.41E2,6E1,6.6E1,2.4E1,5.6E1,8.5E1,2.5E1,3.5E1,3.4E1,3.2E1,1.5E1,9E0,5.4E1,2E0,8E1,5E0,2E0,3.3E1,3.3E1,1E0,1E0,3.1E1,9E0,6E0,2E0,7E0,2.3E1,3.1E1,1.9E1,6.1E1,1E0,4E0,1E0,1E0,1.7E1,1.6E1,2E0,3.1E1,7E0,2E0,3E0,3E0,1E0,1E0,4E0,3E0],"tree_param":{"num_deleted":"0","num_feature":"9","num_nodes":"49","size_leaf_vector":"1"}},{"base_weights":[1.1488568E1,-1.0808052E2,2.4552502E2,-3.579546E1,-2.8222812E2,2.9851517E2,6.436006E1,-1.1780353E2,4.0866253E1,-1.9796228E2,-3.509505E0,2.1793922E2,3.8207294E2,-4.5084373E1,8.9773865E1,-1.03270485E2,-3.8372948E0,6.907147E1,-1.5797705E2,-7.025708E1,-2.0536842E2,2.2723558E2,-7.230933E-1,1.0968945E0,3.8685803E0,7.599935E0,-8.2740563E-1,1.3662048E2,3.3949852E1,-1.6566212E0,-6.325374E-1,7.520647E-1,-1.5258179E0,-5.3637695E-1,-2.30721E0,-1.7740478E-1,-8.764514E-1,-8.8068116E-1,-2.117394E0,1.351073E0,2.5860357E0,-6.395398E-1,7.535388E-1,1.4459825E0,3.241028E-1,7.6162475E-1,2.0797065E-1],"categories":[],"categories_nodes":[],"categories_segments":[],"categories_sizes":[],"default_left":[0,0,0,0,0,0,0,0,0,0,0,0,0,0,0,0,0,0,0,0,0,0,0,0,0,0,0,0,0,0,0,0,0,0,0,0,0,0,0,0,0,0,0,0,0,0,0],"id":22,"left_children":[1,3,5,7,9,11,13,15,17,19,-1,21,23,25,27,29,-1,31,33,35,37,39,-1,-1,-1,41,-1,43,45,-1,-1,-1,-1,-1,-1,-1,-1,-1,-1,-1,-1,-1,-1,-1,-1,-1,-1],"loss_changes":[7.9458745E6,2.356492E6,9.02383E5,8.47256E5,2.490275E5,4.14955E5,6.801957E4,2.1157838E5,4.0350103E5,1.1107875E4,0E0,1.2436125E5,3.184E3,1.0548274E4,4.5049906E4,1.4681394E5,0E0,9.578541E4,5.593517E4,1.1846191E3,3.55E1,7.7766125E4,0E0,0E0,0E0,1.9363361E4,0E0,3.6271875E3,3.9681807E3,0E0,0E0,0E0,0E0,0E0,0E0,0E0,0E0,0E0,0E0,0E0,0E0,0E0,0E0,0E0,0E0,0E0,0E0],"parents":[2147483647,0,0,1,1,2,2,3,3,4,4,5,5,6,6,7,7,8,8,9,9,11,11,12,12,13,13,14,14,15,15,17,17,18,18,19,19,20,20,21,21,25,25,27,27,28,28],"right_children":[2,4,6,8,10,12,14,16,18,20,-1,22,24,26,28,30,-1,32,34,36,38,40,-1,-1,-1,42,-1,44,46,-1,-1,-1,-1,-1,-1,-1,-1,-1,-1,-1,-1,-1,-1,-1,-1,-1,-1],"split_conditions":[2.72E1,5E0,5E0,1.8E1,8.27E1,2.84E1,3.4E1,1E0,5.1E1,1.9E1,-3.509505E0,1E0,2E0,6E0,6E0,2E0,-3.8372948E0,1E0,2.1E1,6E0,2E0,3.4E1,-7.230933E-1,1.0968945E0,3.8685803E0,4E0,-8.2740563E-1,3.1E1,4E0,-1.6566212E0,-6.325374E-1,7.520647E-1,-1.5258179E0,-5.3637695E-1,-2.30721E0,-1.7740478E-1,-8.764514E-1,-8.8068116E-1,-2.117394E0,1.351073E0,2.5860357E0,-6.395398E-1,7.535388E-1,1.4459825E0,3.241028E-1,7.6162475E-1,2.0797065E-1],"split_indices":[0,4,4,6,1,0,6,3,6,6,0,3,5,4,4,4,0,3,5,4,5,6,0,0,0,5,0,5,5,0,0,0,0,0,0,0,0,0,0,0,0,0,0,0,0,0,0],"split_type":[0,0,0,0,0,0,0,0,0,0,0,0,0,0,0,0,0,0,0,0,0,0,0,0,0,0,0,0,0,0,0,0,0,0,0,0,0,0,0,0,0,0,0,0,0,0,0],"sum_hessian":[2.82E2,1.87E2,9.5E1,1.33E2,5.4E1,7.3E1,2.2E1,6.4E1,6.9E1,2.6E1,2.8E1,3.9E1,3.4E1,4E0,1.8E1,6.2E1,2E0,6.1E1,8E0,2E0,2.4E1,3.8E1,1E0,1E0,3.3E1,2E0,2E0,9E0,9E0,2.3E1,3.9E1,6E1,1E0,4E0,4E0,1E0,1E0,2E0,2.2E1,1.1E1,2.7E1,1E0,1E0,8E0,1E0,1E0,8E0],"tree_param":{"num_deleted":"0","num_feature":"9","num_nodes":"47","size_leaf_vector":"1"}},{"base_weights":[1.5911504E0,-9.478823E1,2.2795212E2,-3.6608124E1,-2.6632916E2,3.0227026E2,2.3368948E1,-1.0761846E2,3.3955425E1,-1.9360402E2,-3.034596E2,2.0792375E2,3.8173914E2,-1.3053716E0,5.157159E1,-1.9434355E2,-7.317479E1,5.149239E1,-2.2887528E0,-4.5269856E-1,-2.075706E0,5.455957E-1,-3.1676857E0,2.2652338E2,-4.1180584E1,4.0807776E2,2.484212E0,6.791671E1,-3.487433E1,2.704746E-1,-2.4802659E0,-1.8590945E0,-4.7631782E-1,1.0137655E0,2.6518145E-1,1.2859508E0,2.577058E0,1.017688E-1,-7.1947753E-1,2.6905167E0,4.658532E0,1.190253E0,1.5127294E-1,-1.062168E0,2.4312094E-1],"categories":[],"categories_nodes":[],"categories_segments":[],"categories_sizes":[],"default_left":[0,0,0,0,0,0,0,0,0,0,0,0,0,0,0,0,0,0,0,0,0,0,0,0,0,0,0,0,0,0,0,0,0,0,0,0,0,0,0,0,0,0,0,0,0],"id":23,"left_children":[1,3,5,7,9,11,13,15,17,19,21,23,25,-1,27,29,31,33,-1,-1,-1,-1,-1,35,37,39,-1,41,43,-1,-1,-1,-1,-1,-1,-1,-1,-1,-1,-1,-1,-1,-1,-1,-1],"loss_changes":[6.282951E6,2.0062644E6,1.300501E6,7.652869E5,7.896525E4,3.92977E5,1.1090543E5,2.1280081E5,3.6669775E5,3.2037688E4,1.6975875E5,1.52959E5,1.4501E4,0E0,3.2040887E4,2.5629225E5,1.5240138E5,8.825647E4,0E0,0E0,0E0,0E0,0E0,5.5416E4,5.4725757E3,8.3501E4,0E0,4.676335E4,1.9472375E4,0E0,0E0,0E0,0E0,0E0,0E0,0E0,0E0,0E0,0E0,0E0,0E0,0E0,0E0,0E0,0E0],"parents":[2147483647,0,0,1,1,2,2,3,3,4,4,5,5,6,6,7,7,8,8,9,9,10,10,11,11,12,12,14,14,15,15,16,16,17,17,23,23,24,24,25,25,27,27,28,28],"right_children":[2,4,6,8,10,12,14,16,18,20,22,24,26,-1,28,30,32,34,-1,-1,-1,-1,-1,36,38,40,-1,42,44,-1,-1,-1,-1,-1,-1,-1,-1,-1,-1,-1,-1,-1,-1,-1,-1],"split_conditions":[2.72E1,5E0,5E0,1.8E1,8.03E1,2.84E1,3.3E1,8.31E1,5.2E1,2E1,2E0,1E0,4.2E1,-1.3053716E0,4.6E1,1E1,3E0,1E1,-2.2887528E0,-4.5269856E-1,-2.075706E0,5.455957E-1,-3.1676857E0,3.4E1,3E0,8E0,2.484212E0,6E0,1.7E1,2.704746E-1,-2.4802659E0,-1.8590945E0,-4.7631782E-1,1.0137655E0,2.6518145E-1,1.2859508E0,2.577058E0,1.017688E-1,-7.1947753E-1,2.6905167E0,4.658532E0,1.190253E0,1.5127294E-1,-1.062168E0,2.4312094E-1],"split_indices":[0,4,4,6,1,0,6,1,6,6,5,3,6,0,6,5,6,5,0,0,0,0,0,6,4,5,0,4,5,0,0,0,0,0,0,0,0,0,0,0,0,0,0,0,0],"split_type":[0,0,0,0,0,0,0,0,0,0,0,0,0,0,0,0,0,0,0,0,0,0,0,0,0,0,0,0,0,0,0,0,0,0,0,0,0,0,0,0,0,0,0,0,0],"sum_hessian":[2.86E2,2.01E2,8.5E1,1.51E2,5E1,6.2E1,2.3E1,7.5E1,7.6E1,1.9E1,3.1E1,3E1,3.2E1,3E0,2E1,2E1,5.5E1,7.2E1,4E0,2E0,1.7E1,1E0,3E1,2.8E1,2E0,2.5E1,7E0,1.7E1,3E0,4E0,1.6E1,9E0,4.6E1,2.3E1,4.9E1,8E0,2E1,1E0,1E0,9E0,1.6E1,8E0,9E0,1E0,2E0],"tree_param":{"num_deleted":"0","num_feature":"9","num_nodes":"45","size_leaf_vector":"1"}},{"base_weights":[-4.8910637E0,-1.1829382E2,2.1522609E2,-5.019864E1,-2.794479E2,2.839592E2,4.3092415E1,4.5213448E1,-1.0264759E2,-3.5063303E0,-2.1888687E2,2.1730708E2,3.700286E2,-4.0489746E1,8.690798E1,6.2768112E1,-4.173204E1,-3.3657887E1,-1.419985E2,-8.697103E1,-2.2441377E2,2.3090558E2,-4.097469E1,2.199051E0,3.9839676E2,-1.189602E0,-9.834065E0,2.0312738E0,5.445001E1,7.172956E-1,-1.5232568E0,1.3227624E0,-1.5078223E0,-1.7675928E0,3.333266E-1,-2.2109349E0,-8.1990314E-1,-1.8474329E0,5.428674E-1,-1.666656E0,-2.6006982E0,1.4284627E0,2.6241817E0,1.0125976E-1,-7.158801E-1,4.4153705E0,2.5692406E0,4.9571595E-1,-4.7798827E-1,9.589491E-1,6.955105E-2],"categories":[],"categories_nodes":[],"categories_segments":[],"categories_sizes":[],"default_left":[0,0,0,0,0,0,0,0,0,0,0,0,0,0,0,0,0,0,0,0,0,0,0,0,0,0,0,0,0,0,0,0,0,0,0,0,0,0,0,0,0,0,0,0,0,0,0,0,0,0,0],"id":24,"left_children":[1,3,5,7,9,11,13,15,17,-1,19,21,23,25,27,29,31,33,35,37,39,41,43,-1,45,-1,47,-1,49,-1,-1,-1,-1,-1,-1,-1,-1,-1,-1,-1,-1,-1,-1,-1,-1,-1,-1,-1,-1,-1,-1],"loss_changes":[7.41418E6,2.1368402E6,1.182723E6,7.0023375E5,1.732915E5,3.326335E5,1.13384875E5,7.893438E4,2.3955331E5,0E0,5.2715E3,1.6048788E5,4.0152E4,2.5291354E4,6.438464E4,9.188345E4,1.9072562E5,3.3183088E5,2.5241425E5,5.1462383E4,2.25455E4,7.62885E4,5.417982E3,0E0,3.303475E4,0E0,2.266736E4,0E0,3.279621E4,0E0,0E0,0E0,0E0,0E0,0E0,0E0,0E0,0E0,0E0,0E0,0E0,0E0,0E0,0E0,0E0,0E0,0E0,0E0,0E0,0E0,0E0],"parents":[2147483647,0,0,1,1,2,2,3,3,4,4,5,5,6,6,7,7,8,8,10,10,11,11,12,12,13,13,14,14,15,15,16,16,17,17,18,18,19,19,20,20,21,21,22,22,24,24,26,26,28,28],"right_children":[2,4,6,8,10,12,14,16,18,-1,20,22,24,26,28,30,32,34,36,38,40,42,44,-1,46,-1,48,-1,50,-1,-1,-1,-1,-1,-1,-1,-1,-1,-1,-1,-1,-1,-1,-1,-1,-1,-1,-1,-1,-1,-1],"split_conditions":[2.72E1,5E0,5E0,8.03E1,1.7E1,2.84E1,3.7E1,2.7E1,1.2E1,-3.5063303E0,2E0,1E0,8E0,3.2E1,3.9E1,1E0,2.67E1,6E0,8.31E1,2.67E1,6E0,3.4E1,3E0,2.199051E0,4.2E1,-1.189602E0,6E0,2.0312738E0,6E0,7.172956E-1,-1.5232568E0,1.3227624E0,-1.5078223E0,-1.7675928E0,3.333266E-1,-2.2109349E0,-8.1990314E-1,-1.8474329E0,5.428674E-1,-1.666656E0,-2.6006982E0,1.4284627E0,2.6241817E0,1.0125976E-1,-7.158801E-1,4.4153705E0,2.5692406E0,4.9571595E-1,-4.7798827E-1,9.589491E-1,6.955105E-2],"split_indices":[0,4,4,1,6,0,6,5,5,0,5,3,5,6,6,3,0,6,1,0,4,6,4,0,6,0,4,0,4,0,0,0,0,0,0,0,0,0,0,0,0,0,0,0,0,0,0,0,0,0,0],"split_type":[0,0,0,0,0,0,0,0,0,0,0,0,0,0,0,0,0,0,0,0,0,0,0,0,0,0,0,0,0,0,0,0,0,0,0,0,0,0,0,0,0,0,0,0,0,0,0,0,0,0,0],"sum_hessian":[2.95E2,1.95E2,1E2,1.38E2,5.7E1,7.1E1,2.9E1,4.9E1,8.9E1,2.4E1,3.3E1,4.2E1,2.9E1,1E1,1.9E1,4.1E1,8E0,3.3E1,5.6E1,2E0,3.1E1,4E1,2E0,6E0,2.3E1,2E0,8E0,3E0,1.6E1,4E1,1E0,3E0,5E0,1E1,2.3E1,2.3E1,3.3E1,1E0,1E0,1.4E1,1.7E1,1.2E1,2.8E1,1E0,1E0,1.6E1,7E0,3E0,5E0,8E0,8E0],"tree_param":{"num_deleted":"0","num_feature":"9","num_nodes":"51","size_leaf_vector":"1"}},{"base_weights":[-3.1766357E0,-1.0411888E2,2.1149188E2,-4.100352E1,-2.720635E2,2.9268842E2,4.2489677E1,-1.1127838E2,2.5240555E1,-1.9476181E2,-3.1408038E2,2.070092E2,3.7721762E2,-6.7238144E1,7.039757E1,-9.8192184E1,-3.7953026E0,3.648506E1,-2.6428564E0,-2.0454616E2,-6.461222E-1,-2.5127463E0,-3.6903217E0,2.2376945E2,-4.0769855E1,2.5246346E2,4.1677783E2,8.7945557E-1,-1.185462E0,1.1256815E2,1.956789E1,-1.5268399E0,-5.5925196E-1,5.5134225E-1,-6.6017556E-1,-6.8181556E-1,-2.159099E0,1.3423114E0,2.480226E0,1.0075317E-1,-7.12301E-1,2.6441731E0,7.243933E-1,4.471566E0,2.2405863E0,-6.2386596E-1,4.276367E-1,6.47297E-1,1.511595E0,-1.6725342E-1,6.4697546E-1],"categories":[],"categories_nodes":[],"categories_segments":[],"categories_sizes":[],"default_left":[0,0,0,0,0,0,0,0,0,0,0,0,0,0,0,0,0,0,0,0,0,0,0,0,0,0,0,0,0,0,0,0,0,0,0,0,0,0,0,0,0,0,0,0,0,0,0,0,0,0,0],"id":25,"left_children":[1,3,5,7,9,11,13,15,17,19,21,23,25,27,29,31,-1,33,-1,35,-1,-1,-1,37,39,41,43,45,-1,47,49,-1,-1,-1,-1,-1,-1,-1,-1,-1,-1,-1,-1,-1,-1,-1,-1,-1,-1,-1,-1],"loss_changes":[6.436081E6,2.1300212E6,1.291191E6,6.9179206E5,1.174675E5,3.85426E5,1.0272609E5,2.1548175E5,2.603221E5,1.47993125E4,2.461525E4,1.5031962E5,4.7773E4,2.4569127E4,5.3528727E4,1.5268544E5,0E0,1.4700894E5,0E0,1.62711875E4,0E0,0E0,0E0,3.6198375E4,5.363936E3,2.3656875E3,2.86115E4,1.3267275E4,0E0,1.6061578E4,2.2374805E4,0E0,0E0,0E0,0E0,0E0,0E0,0E0,0E0,0E0,0E0,0E0,0E0,0E0,0E0,0E0,0E0,0E0,0E0,0E0,0E0],"parents":[2147483647,0,0,1,1,2,2,3,3,4,4,5,5,6,6,7,7,8,8,9,9,10,10,11,11,12,12,13,13,14,14,15,15,17,17,19,19,23,23,24,24,25,25,26,26,27,27,29,29,30,30],"right_children":[2,4,6,8,10,12,14,16,18,20,22,24,26,28,30,32,-1,34,-1,36,-1,-1,-1,38,40,42,44,46,-1,48,50,-1,-1,-1,-1,-1,-1,-1,-1,-1,-1,-1,-1,-1,-1,-1,-1,-1,-1,-1,-1],"split_conditions":[2.72E1,5E0,5E0,1.8E1,8.03E1,2.84E1,3.4E1,1E0,1E0,2.9E1,6E0,1E0,8E0,6E0,6E0,2E0,-3.7953026E0,5E1,-2.6428564E0,1.9E1,-6.461222E-1,-2.5127463E0,-3.6903217E0,3.4E1,3E0,7E0,4.2E1,4E0,-1.185462E0,2.84E1,2.88E1,-1.5268399E0,-5.5925196E-1,5.5134225E-1,-6.6017556E-1,-6.8181556E-1,-2.159099E0,1.3423114E0,2.480226E0,1.0075317E-1,-7.12301E-1,2.6441731E0,7.243933E-1,4.471566E0,2.2405863E0,-6.2386596E-1,4.276367E-1,6.47297E-1,1.511595E0,-1.6725342E-1,6.4697546E-1],"split_indices":[0,4,4,6,1,0,6,3,3,5,4,3,5,4,4,4,0,6,0,6,0,0,0,6,4,5,6,5,0,0,0,0,0,0,0,0,0,0,0,0,0,0,0,0,0,0,0,0,0,0,0],"split_type":[0,0,0,0,0,0,0,0,0,0,0,0,0,0,0,0,0,0,0,0,0,0,0,0,0,0,0,0,0,0,0,0,0,0,0,0,0,0,0,0,0,0,0,0,0,0,0,0,0,0,0],"sum_hessian":[2.95E2,2.01E2,9.4E1,1.47E2,5.4E1,6.3E1,3.1E1,7.1E1,7.6E1,2.1E1,3.3E1,3.3E1,3E1,6E0,2.5E1,6.9E1,2E0,7.4E1,2E0,1.9E1,2E0,1.8E1,1.5E1,3.1E1,2E0,9E0,2.1E1,3E0,3E0,1.3E1,1.2E1,2.9E1,4E1,6.3E1,1.1E1,2E0,1.7E1,8E0,2.3E1,1E0,1E0,8E0,1E0,1.7E1,4E0,1E0,2E0,7E0,6E0,7E0,5E0],"tree_param":{"num_deleted":"0","num_feature":"9","num_nodes":"51","size_leaf_vector":"1"}},{"base_weights":[-6.820411E-1,-1.1013514E2,2.3103975E2,-4.2572372E1,-2.65946E2,2.978828E2,4.4762413E1,4.1908596E1,-9.7729576E1,-3.292882E2,-2.078229E2,2.2470003E2,3.5872537E2,-7.7827194E1,7.0589035E1,4.813394E1,-1.5024267E0,-2.4496426E2,-8.137563E1,-2.5563185E0,-3.7942398E0,-8.458634E1,-2.1288187E2,2.3090155E2,1.0024902E-1,4.1296334E0,2.8846173E0,-9.4612545E-1,-3.5099444E-1,1.13769356E2,2.5124655E1,6.341054E-1,-2.6951808E-1,-2.8038573E0,-9.246655E-1,-7.196716E-2,-1.2050571E0,-1.8273998E0,5.586047E-1,-1.596513E0,-2.5045877E0,1.5435362E0,2.5747223E0,1.8192708E-1,1.3298719E0,-1.1922084E-1,6.415841E-1],"categories":[],"categories_nodes":[],"categories_segments":[],"categories_sizes":[],"default_left":[0,0,0,0,0,0,0,0,0,0,0,0,0,0,0,0,0,0,0,0,0,0,0,0,0,0,0,0,0,0,0,0,0,0,0,0,0,0,0,0,0,0,0,0,0,0,0],"id":26,"left_children":[1,3,5,7,9,11,13,15,17,19,21,23,25,27,29,31,-1,33,35,-1,-1,37,39,41,-1,-1,-1,-1,-1,43,45,-1,-1,-1,-1,-1,-1,-1,-1,-1,-1,-1,-1,-1,-1,-1,-1],"loss_changes":[7.4313445E6,2.083554E6,1.157093E6,6.564585E5,1.524645E5,2.266255E5,8.78117E4,7.421941E4,1.8473456E5,2.7135E3,3.19025E3,4.2949875E4,1.807E4,2.651543E2,4.0331258E4,6.4797047E4,0E0,1.728725E4,2.2553766E5,0E0,0E0,5.1564047E4,2.40215E4,2.7377875E4,0E0,0E0,0E0,0E0,0E0,1.778514E4,1.8117781E4,0E0,0E0,0E0,0E0,0E0,0E0,0E0,0E0,0E0,0E0,0E0,0E0,0E0,0E0,0E0,0E0],"parents":[2147483647,0,0,1,1,2,2,3,3,4,4,5,5,6,6,7,7,8,8,9,9,10,10,11,11,12,12,13,13,14,14,15,15,17,17,18,18,21,21,22,22,23,23,29,29,30,30],"right_children":[2,4,6,8,10,12,14,16,18,20,22,24,26,28,30,32,-1,34,36,-1,-1,38,40,42,-1,-1,-1,-1,-1,44,46,-1,-1,-1,-1,-1,-1,-1,-1,-1,-1,-1,-1,-1,-1,-1,-1],"split_conditions":[2.72E1,5E0,5E0,8.03E1,1.7E1,2.84E1,3.4E1,1E0,2E0,6E0,2E0,1E0,4E1,1.2E1,6E0,2.7E1,-1.5024267E0,3E0,1.2E1,-2.5563185E0,-3.7942398E0,2.67E1,6E0,3.4E1,1.0024902E-1,4.1296334E0,2.8846173E0,-9.4612545E-1,-3.5099444E-1,8E0,2.88E1,6.341054E-1,-2.6951808E-1,-2.8038573E0,-9.246655E-1,-7.196716E-2,-1.2050571E0,-1.8273998E0,5.586047E-1,-1.596513E0,-2.5045877E0,1.5435362E0,2.5747223E0,1.8192708E-1,1.3298719E0,-1.1922084E-1,6.415841E-1],"split_indices":[0,4,4,1,6,0,6,3,6,4,5,3,6,5,4,5,0,4,5,0,0,0,4,6,0,0,0,0,0,5,0,0,0,0,0,0,0,0,0,0,0,0,0,0,0,0,0],"split_type":[0,0,0,0,0,0,0,0,0,0,0,0,0,0,0,0,0,0,0,0,0,0,0,0,0,0,0,0,0,0,0,0,0,0,0,0,0,0,0,0,0,0,0,0,0,0,0],"sum_hessian":[2.91E2,1.98E2,9.3E1,1.39E2,5.9E1,6.8E1,2.5E1,5.5E1,8.4E1,2.6E1,3.3E1,3.3E1,3.5E1,4E0,2.1E1,5.4E1,1E0,7E0,7.7E1,1.3E1,1.3E1,2E0,3.1E1,3.2E1,1E0,1.7E1,1.8E1,2E0,2E0,1E1,1.1E1,4.5E1,9E0,5E0,2E0,2.7E1,5E1,1E0,1E0,1.5E1,1.6E1,1E1,2.2E1,2E0,8E0,6E0,5E0],"tree_param":{"num_deleted":"0","num_feature":"9","num_nodes":"47","size_leaf_vector":"1"}},{"base_weights":[3.421773E0,-1.0154053E2,2.2129544E2,-3.418915E1,-2.6746048E2,2.859209E2,4.6249268E1,-9.944247E1,3.3486156E1,-2.0227759E2,-3.3238459E0,2.0596042E2,3.835946E2,-4.878717E1,8.383044E1,-8.5793846E1,-3.7566366E0,6.35699E1,-1.1220215E2,-6.635995E1,-2.09616E2,2.2038797E2,-4.0632893E1,1.0393188E0,3.898707E2,4.427132E1,-8.718522E1,4.026504E1,1.5276182E0,-6.042949E-1,-1.7138592E0,3.617957E-1,2.2681322E0,-4.3066216E-1,-2.3970745E0,-1.5452881E-1,-8.408703E-1,-8.416341E-1,-2.1602914E0,1.2298561E0,2.519079E0,9.9747315E-2,-7.0924073E-1,4.107822E0,2.1152124E0,7.564123E-1,-9.2342526E-2,-1.1709625E0,-1.8242104E-1,8.071941E-1,-1.2148933E0],"categories":[],"categories_nodes":[],"categories_segments":[],"categories_sizes":[],"default_left":[0,0,0,0,0,0,0,0,0,0,0,0,0,0,0,0,0,0,0,0,0,0,0,0,0,0,0,0,0,0,0,0,0,0,0,0,0,0,0,0,0,0,0,0,0,0,0,0,0,0,0],"id":27,"left_children":[1,3,5,7,9,11,13,15,17,19,-1,21,23,25,27,29,-1,31,33,35,37,39,41,-1,43,45,47,49,-1,-1,-1,-1,-1,-1,-1,-1,-1,-1,-1,-1,-1,-1,-1,-1,-1,-1,-1,-1,-1,-1,-1],"loss_changes":[6.471393E6,2.1252688E6,1.027521E6,6.083271E5,1.6552275E5,4.44267E5,9.695093E4,2.31673E5,3.0516647E5,1.6012375E4,0E0,1.4770675E5,1.03805E4,3.2445926E4,5.0906484E4,1.3727034E5,0E0,2.4665745E5,9.545909E4,1.407916E3,4.345625E3,8.261325E4,5.3063423E3,0E0,1.75385E4,5.7338867E3,1.0236875E4,9.487428E4,0E0,0E0,0E0,0E0,0E0,0E0,0E0,0E0,0E0,0E0,0E0,0E0,0E0,0E0,0E0,0E0,0E0,0E0,0E0,0E0,0E0,0E0,0E0],"parents":[2147483647,0,0,1,1,2,2,3,3,4,4,5,5,6,6,7,7,8,8,9,9,11,11,12,12,13,13,14,14,15,15,17,17,18,18,19,19,20,20,21,21,22,22,24,24,25,25,26,26,27,27],"right_children":[2,4,6,8,10,12,14,16,18,20,-1,22,24,26,28,30,-1,32,34,36,38,40,42,-1,44,46,48,50,-1,-1,-1,-1,-1,-1,-1,-1,-1,-1,-1,-1,-1,-1,-1,-1,-1,-1,-1,-1,-1,-1,-1],"split_conditions":[2.72E1,5E0,5E0,1.8E1,8.27E1,2.84E1,3.7E1,1E0,5E1,1.9E1,-3.3238459E0,1E0,2E0,6E0,2.1E1,2.5E1,-3.7566366E0,3.1E1,2.4E1,6E0,2E0,3.4E1,3E0,1.0393188E0,4.2E1,2.75E1,3.4E1,4.6E1,1.5276182E0,-6.042949E-1,-1.7138592E0,3.617957E-1,2.2681322E0,-4.3066216E-1,-2.3970745E0,-1.5452881E-1,-8.408703E-1,-8.416341E-1,-2.1602914E0,1.2298561E0,2.519079E0,9.9747315E-2,-7.0924073E-1,4.107822E0,2.1152124E0,7.564123E-1,-9.2342526E-2,-1.1709625E0,-1.8242104E-1,8.071941E-1,-1.2148933E0],"split_indices":[0,4,4,6,1,0,6,3,6,6,0,3,5,4,5,5,0,6,5,4,5,6,4,0,6,0,6,6,0,0,0,0,0,0,0,0,0,0,0,0,0,0,0,0,0,0,0,0,0,0,0],"split_type":[0,0,0,0,0,0,0,0,0,0,0,0,0,0,0,0,0,0,0,0,0,0,0,0,0,0,0,0,0,0,0,0,0,0,0,0,0,0,0,0,0,0,0,0,0,0,0,0,0,0,0],"sum_hessian":[2.81E2,1.9E2,9.1E1,1.36E2,5.4E1,6.6E1,2.5E1,6.9E1,6.7E1,2.9E1,2.5E1,3.8E1,2.8E1,7E0,1.8E1,6.7E1,2E0,5.6E1,1.1E1,2E0,2.7E1,3.6E1,2E0,1E0,2.7E1,2E0,5E0,1.2E1,6E0,5.3E1,1.4E1,4.9E1,7E0,8E0,3E0,1E0,1E0,2E0,2.5E1,1E1,2.6E1,1E0,1E0,2.3E1,4E0,1E0,1E0,3E0,2E0,1E1,2E0],"tree_param":{"num_deleted":"0","num_feature":"9","num_nodes":"51","size_leaf_vector":"1"}},{"base_weights":[-2.0711164E0,-1.1068008E2,2.2300592E2,-4.7776485E1,-2.727023E2,2.9222464E2,5.86766E1,3.8603203E1,-9.741871E1,-1.9287915E2,-3.1508534E0,2.0800209E2,3.703295E2,-3.1723776E1,1.12683334E2,4.497958E1,-1.4967237E0,-8.2855316E1,-4.007404E0,-1.537561E-1,-2.0059953E2,2.1827095E2,-7.0569456E-1,4.0163852E2,2.5502396E0,1.9792654E1,-8.653898E1,1.6039479E2,4.1848957E1,1.1077678E0,2.0826069E-1,-1.941436E-1,-1.1585964E0,-2.1202462E0,-6.1374104E-1,1.3558028E0,2.470762E0,4.10057E0,9.9797237E-1,-4.7445312E-1,5.61769E-1,-1.1621808E0,-1.8120523E-1,3.5937867E-1,1.692467E0,1.2623991E0,-2.970145E-3],"categories":[],"categories_nodes":[],"categories_segments":[],"categories_sizes":[],"default_left":[0,0,0,0,0,0,0,0,0,0,0,0,0,0,0,0,0,0,0,0,0,0,0,0,0,0,0,0,0,0,0,0,0,0,0,0,0,0,0,0,0,0,0,0,0,0,0],"id":28,"left_children":[1,3,5,7,9,11,13,15,17,19,-1,21,23,25,27,29,-1,31,-1,-1,33,35,-1,37,-1,39,41,43,45,-1,-1,-1,-1,-1,-1,-1,-1,-1,-1,-1,-1,-1,-1,-1,-1,-1,-1],"loss_changes":[7.284961E6,2.035519E6,1.086196E6,6.2982025E5,1.28683E5,3.702875E5,1.5004162E5,7.1560055E4,3.7761412E5,2.7064375E4,0E0,1.15524625E5,2.03165E4,3.5599445E4,5.750028E4,8.192234E4,0E0,1.8619506E5,0E0,0E0,2.0391062E4,4.748675E4,0E0,2.26035E4,0E0,1.9790152E4,1.0077652E4,6.036125E3,3.2048143E4,0E0,0E0,0E0,0E0,0E0,0E0,0E0,0E0,0E0,0E0,0E0,0E0,0E0,0E0,0E0,0E0,0E0,0E0],"parents":[2147483647,0,0,1,1,2,2,3,3,4,4,5,5,6,6,7,7,8,8,9,9,11,11,12,12,13,13,14,14,15,15,17,17,20,20,21,21,23,23,25,25,26,26,27,27,28,28],"right_children":[2,4,6,8,10,12,14,16,18,20,-1,22,24,26,28,30,-1,32,-1,-1,34,36,-1,38,-1,40,42,44,46,-1,-1,-1,-1,-1,-1,-1,-1,-1,-1,-1,-1,-1,-1,-1,-1,-1,-1],"split_conditions":[2.72E1,5E0,5E0,8.03E1,8.03E1,2.84E1,3.7E1,1E0,1E0,1.9E1,-3.1508534E0,1E0,4.2E1,6E0,6E0,2.2E1,-1.4967237E0,1.2E1,-4.007404E0,-1.537561E-1,2.9E1,3.4E1,-7.0569456E-1,2.8E1,2.5502396E0,8E0,3.4E1,3E0,3.9E1,1.1077678E0,2.0826069E-1,-1.941436E-1,-1.1585964E0,-2.1202462E0,-6.1374104E-1,1.3558028E0,2.470762E0,4.10057E0,9.9797237E-1,-4.7445312E-1,5.61769E-1,-1.1621808E0,-1.8120523E-1,3.5937867E-1,1.692467E0,1.2623991E0,-2.970145E-3],"split_indices":[0,4,4,1,1,0,6,3,3,6,0,3,6,4,4,6,0,5,0,0,5,6,0,5,0,5,6,5,6,0,0,0,0,0,0,0,0,0,0,0,0,0,0,0,0,0,0],"split_type":[0,0,0,0,0,0,0,0,0,0,0,0,0,0,0,0,0,0,0,0,0,0,0,0,0,0,0,0,0,0,0,0,0,0,0,0,0,0,0,0,0,0,0,0,0,0,0],"sum_hessian":[2.96E2,2E2,9.6E1,1.45E2,5.5E1,6.7E1,2.9E1,5.3E1,9.2E1,2.1E1,3.4E1,3.4E1,3.3E1,1.1E1,1.8E1,5.2E1,1E0,8.9E1,3E0,1E0,2E1,3.3E1,1E0,2.4E1,9E0,6E0,5E0,1E1,8E0,1.3E1,3.9E1,3.1E1,5.8E1,1.8E1,2E0,1E1,2.3E1,2.3E1,1E0,2E0,4E0,3E0,2E0,1E0,9E0,2E0,6E0],"tree_param":{"num_deleted":"0","num_feature":"9","num_nodes":"47","size_leaf_vector":"1"}},{"base_weights":[3.5845137E-1,-9.532553E1,2.1673065E2,-3.5838055E1,-2.5042296E2,2.8812936E2,4.475103E1,-2.3459082E1,-3.777575E0,-3.0677812E0,-1.9323439E2,2.026371E2,3.6194592E2,-1.0866592E1,1.1517861E2,-8.2167625E1,3.394449E1,-1.5117966E2,-2.2058354E2,2.2074579E2,-3.995923E1,3.9530396E2,2.32775E0,2.4453634E1,-9.3461815E1,3.618213E1,1.3749053E0,-1.5148631E0,-5.707509E-1,5.541933E-1,-6.778129E-1,-1.5734463E0,-3.2434934E-1,5.757739E-1,-2.4296608E0,1.2911638E0,2.4950383E0,1.0277709E-1,-7.021655E-1,2.6368282E0,4.5669775E0,-1.162496E0,6.4219236E-1,-3.45271E-1,-1.212426E0,5.0847E-1,-3.90625E-2],"categories":[],"categories_nodes":[],"categories_segments":[],"categories_sizes":[],"default_left":[0,0,0,0,0,0,0,0,0,0,0,0,0,0,0,0,0,0,0,0,0,0,0,0,0,0,0,0,0,0,0,0,0,0,0,0,0,0,0,0,0,0,0,0,0,0,0],"id":29,"left_children":[1,3,5,7,9,11,13,15,-1,-1,17,19,21,23,25,27,29,31,33,35,37,39,-1,41,43,45,-1,-1,-1,-1,-1,-1,-1,-1,-1,-1,-1,-1,-1,-1,-1,-1,-1,-1,-1,-1,-1],"loss_changes":[5.9418195E6,1.8270699E6,1.0676682E6,6.048669E5,1.1797775E5,3.179225E5,1.0701099E5,4.7797044E5,0E0,0E0,1.157E3,1.4500688E5,4.58675E4,4.8961992E4,1.61760625E4,1.1311059E5,1.6104364E5,5.8774375E3,1.13604625E5,4.4202375E4,5.2817715E3,7.3514E4,0E0,7.460724E4,4.0001094E3,2.5501855E3,0E0,0E0,0E0,0E0,0E0,0E0,0E0,0E0,0E0,0E0,0E0,0E0,0E0,0E0,0E0,0E0,0E0,0E0,0E0,0E0,0E0],"parents":[2147483647,0,0,1,1,2,2,3,3,4,4,5,5,6,6,7,7,10,10,11,11,12,12,13,13,14,14,15,15,16,16,17,17,18,18,19,19,20,20,21,21,23,23,24,24,25,25],"right_children":[2,4,6,8,10,12,14,16,-1,-1,18,20,22,24,26,28,30,32,34,36,38,40,-1,42,44,46,-1,-1,-1,-1,-1,-1,-1,-1,-1,-1,-1,-1,-1,-1,-1,-1,-1,-1,-1,-1,-1],"split_conditions":[2.72E1,5E0,5E0,1E0,1.7E1,2.84E1,1.9E1,1.8E1,-3.777575E0,-3.0677812E0,6E0,1E0,4.2E1,1.4E1,2.75E1,8.31E1,5E1,2.9E1,2E0,3.4E1,3E0,9E0,2.32775E0,3.2E1,2.75E1,6E0,1.3749053E0,-1.5148631E0,-5.707509E-1,5.541933E-1,-6.778129E-1,-1.5734463E0,-3.2434934E-1,5.757739E-1,-2.4296608E0,1.2911638E0,2.4950383E0,1.0277709E-1,-7.021655E-1,2.6368282E0,4.5669775E0,-1.162496E0,6.4219236E-1,-3.45271E-1,-1.212426E0,5.0847E-1,-3.90625E-2],"split_indices":[0,4,4,3,6,0,5,6,0,0,4,3,6,5,0,1,6,5,5,6,4,5,0,6,0,4,0,0,0,0,0,0,0,0,0,0,0,0,0,0,0,0,0,0,0,0,0],"split_type":[0,0,0,0,0,0,0,0,0,0,0,0,0,0,0,0,0,0,0,0,0,0,0,0,0,0,0,0,0,0,0,0,0,0,0,0,0,0,0,0,0,0,0,0,0,0,0],"sum_hessian":[2.85E2,1.98E2,8.7E1,1.44E2,5.4E1,6.1E1,2.6E1,1.4E2,4E0,2.5E1,2.9E1,3E1,3.1E1,1.5E1,1.1E1,6.9E1,7.1E1,1.4E1,1.5E1,2.8E1,2E0,2.3E1,8E0,1.1E1,4E0,3E0,8E0,1.7E1,5.2E1,5.9E1,1.2E1,1.3E1,1E0,1E0,1.4E1,8E0,2E1,1E0,1E0,9E0,1.4E1,2E0,9E0,2E0,2E0,2E0,1E0],"tree_param":{"num_deleted":"0","num_feature":"9","num_nodes":"47","size_leaf_vector":"1"}},{"base_weights":[-2.0097313E0,-9.537353E1,2.2187404E2,-3.298785E1,-2.5553683E2,2.813238E2,7.71422E1,-2.3116896E1,-3.9490173E0,5.7289547E-1,-2.6191815E2,2.2177539E2,4.0441885E0,2.6797607E0,1.1422454E2,-8.061489E1,3.09917E1,-1.8197792E2,-2.961973E2,2.3018251E2,-6.986548E-1,4.3129925E1,-4.6396385E1,1.5970828E2,5.099544E1,-5.7183564E-1,-1.7527664E0,1.5218525E0,1.09310985E-1,-1.0614482E0,-2.236879E0,-2.4163058E0,-3.3595412E0,1.3519113E0,2.5135107E0,5.5464697E-1,-9.2719726E-2,-7.880648E-1,1.4791666E-2,3.5437134E-1,1.6957872E0,7.583618E-1,-7.3865235E-1],"categories":[],"categories_nodes":[],"categories_segments":[],"categories_sizes":[],"default_left":[0,0,0,0,0,0,0,0,0,0,0,0,0,0,0,0,0,0,0,0,0,0,0,0,0,0,0,0,0,0,0,0,0,0,0,0,0,0,0,0,0,0,0],"id":30,"left_children":[1,3,5,7,9,11,13,15,-1,-1,17,19,-1,21,23,25,27,29,31,33,-1,35,37,39,41,-1,-1,-1,-1,-1,-1,-1,-1,-1,-1,-1,-1,-1,-1,-1,-1,-1,-1],"loss_changes":[6.250147E6,2.0998605E6,7.35474E5,5.3745375E5,1.3278325E5,3.647775E5,7.424742E4,4.6916875E5,0E0,0E0,1.0503525E5,1.239635E5,0E0,2.1852455E4,4.3621734E4,1.5189472E5,1.8797125E5,3.9516625E4,3.42975E3,5.248525E4,0E0,4.392459E3,7.874824E3,6.2567188E3,3.351634E4,0E0,0E0,0E0,0E0,0E0,0E0,0E0,0E0,0E0,0E0,0E0,0E0,0E0,0E0,0E0,0E0,0E0,0E0],"parents":[2147483647,0,0,1,1,2,2,3,3,4,4,5,5,6,6,7,7,10,10,11,11,13,13,14,14,15,15,16,16,17,17,18,18,19,19,21,21,22,22,23,23,24,24],"right_children":[2,4,6,8,10,12,14,16,-1,-1,18,20,-1,22,24,26,28,30,32,34,-1,36,38,40,42,-1,-1,-1,-1,-1,-1,-1,-1,-1,-1,-1,-1,-1,-1,-1,-1,-1,-1],"split_conditions":[2.72E1,5E0,5E0,1E0,2E0,2.88E1,3.7E1,1.8E1,-3.9490173E0,5.7289547E-1,8.03E1,1E0,4.0441885E0,6E0,6E0,2.5E1,6E0,6E0,6E0,3.4E1,-6.986548E-1,2.75E1,3.4E1,3E0,4.6E1,-5.7183564E-1,-1.7527664E0,1.5218525E0,1.09310985E-1,-1.0614482E0,-2.236879E0,-2.4163058E0,-3.3595412E0,1.3519113E0,2.5135107E0,5.5464697E-1,-9.2719726E-2,-7.880648E-1,1.4791666E-2,3.5437134E-1,1.6957872E0,7.583618E-1,-7.3865235E-1],"split_indices":[0,4,4,3,5,0,6,6,0,0,1,3,0,4,4,5,5,4,4,6,0,0,6,5,6,0,0,0,0,0,0,0,0,0,0,0,0,0,0,0,0,0,0],"split_type":[0,0,0,0,0,0,0,0,0,0,0,0,0,0,0,0,0,0,0,0,0,0,0,0,0,0,0,0,0,0,0,0,0,0,0,0,0,0,0,0,0,0,0],"sum_hessian":[2.97E2,2.1E2,8.7E1,1.52E2,5.8E1,6.1E1,2.6E1,1.49E2,3E0,1E0,5.7E1,4.3E1,1.8E1,9E0,1.7E1,7.2E1,7.7E1,1.9E1,3.8E1,4.2E1,1E0,5E0,4E0,9E0,8E0,5.9E1,1.3E1,1E1,6.7E1,8E0,1.1E1,1.9E1,1.9E1,9E0,3.3E1,4E0,1E0,2E0,2E0,1E0,8E0,7E0,1E0],"tree_param":{"num_deleted":"0","num_feature":"9","num_nodes":"43","size_leaf_vector":"1"}},{"base_weights":[2.5974417E0,-9.6992905E1,2.1352971E2,-3.831411E1,-2.5167354E2,2.7425015E2,4.650972E1,-1.0046037E2,3.2620842E1,-3.2230525E0,-1.7967015E2,2.0413391E2,3.562596E2,-6.5191895E1,8.32798E1,-2.3853885E2,-8.3244835E1,6.3851574E1,-9.240138E1,-1.508009E2,-2.366018E0,2.1835414E2,-3.929362E1,9.878686E-1,3.6173153E0,4.5318604E-1,-1.14539E0,4.939189E1,1.12228516E2,-2.7277367E0,-9.0556234E-1,-2.7635488E-1,-1.1352478E0,4.0780985E-1,1.9429367E0,-3.246986E-1,-2.3411272E0,-1.6341076E0,5.700305E-1,1.4880061E0,2.4205751E0,1.05756834E-1,-6.951611E-1,-6.143872E-1,4.1563395E-1,7.585791E-1,-1.0763415E0,1.4785707E0,2.1821411E-1],"categories":[],"categories_nodes":[],"categories_segments":[],"categories_sizes":[],"default_left":[0,0,0,0,0,0,0,0,0,0,0,0,0,0,0,0,0,0,0,0,0,0,0,0,0,0,0,0,0,0,0,0,0,0,0,0,0,0,0,0,0,0,0,0,0,0,0,0,0],"id":31,"left_children":[1,3,5,7,9,11,13,15,17,-1,19,21,23,25,27,29,31,33,35,37,-1,39,41,-1,-1,43,-1,45,47,-1,-1,-1,-1,-1,-1,-1,-1,-1,-1,-1,-1,-1,-1,-1,-1,-1,-1,-1,-1],"loss_changes":[6.0916815E6,1.7784229E6,9.304065E5,6.3807844E5,2.1672025E5,3.18289E5,1.1221836E5,1.6317925E5,2.714084E5,0E0,1.1983875E4,1.4358212E5,6.532E3,2.272767E4,1.40770625E4,1.5827906E4,1.1473209E5,1.5759219E5,1.11300055E5,6.696322E4,0E0,2.4982E4,5.256705E3,0E0,0E0,1.2731159E4,0E0,5.3879305E4,2.8984305E4,0E0,0E0,0E0,0E0,0E0,0E0,0E0,0E0,0E0,0E0,0E0,0E0,0E0,0E0,0E0,0E0,0E0,0E0,0E0,0E0],"parents":[2147483647,0,0,1,1,2,2,3,3,4,4,5,5,6,6,7,7,8,8,10,10,11,11,12,12,13,13,14,14,15,15,16,16,17,17,18,18,19,19,21,21,22,22,25,25,27,27,28,28],"right_children":[2,4,6,8,10,12,14,16,18,-1,20,22,24,26,28,30,32,34,36,38,-1,40,42,-1,-1,44,-1,46,48,-1,-1,-1,-1,-1,-1,-1,-1,-1,-1,-1,-1,-1,-1,-1,-1,-1,-1,-1,-1],"split_conditions":[2.72E1,5E0,5E0,1.9E1,1.7E1,2.84E1,3.4E1,2E0,5E1,-3.2230525E0,4.9E1,1E0,2E0,6E0,1.7E1,3E0,1.2E1,3.1E1,2.4E1,3.1E1,-2.366018E0,3.4E1,3E0,9.878686E-1,3.6173153E0,4E0,-1.14539E0,1.6E1,6E0,-2.7277367E0,-9.0556234E-1,-2.7635488E-1,-1.1352478E0,4.0780985E-1,1.9429367E0,-3.246986E-1,-2.3411272E0,-1.6341076E0,5.700305E-1,1.4880061E0,2.4205751E0,1.05756834E-1,-6.951611E-1,-6.143872E-1,4.1563395E-1,7.585791E-1,-1.0763415E0,1.4785707E0,2.1821411E-1],"split_indices":[0,4,4,6,6,0,6,6,6,0,6,3,5,4,5,4,5,6,5,6,0,6,4,0,0,5,0,5,4,0,0,0,0,0,0,0,0,0,0,0,0,0,0,0,0,0,0,0,0],"split_type":[0,0,0,0,0,0,0,0,0,0,0,0,0,0,0,0,0,0,0,0,0,0,0,0,0,0,0,0,0,0,0,0,0,0,0,0,0,0,0,0,0,0,0,0,0,0,0,0,0],"sum_hessian":[2.88E2,1.96E2,9.2E1,1.43E2,5.3E1,6.7E1,2.5E1,7.6E1,6.7E1,2.5E1,2.8E1,3.8E1,2.9E1,6E0,1.9E1,7E0,6.9E1,5.4E1,1.3E1,2.1E1,7E0,3.6E1,2E0,1E0,2.8E1,3E0,3E0,1E1,9E0,5E0,2E0,2.5E1,4.4E1,4.7E1,7E0,1E1,3E0,2E1,1E0,1.1E1,2.5E1,1E0,1E0,1E0,2E0,9E0,1E0,6E0,3E0],"tree_param":{"num_deleted":"0","num_feature":"9","num_nodes":"49","size_leaf_vector":"1"}},{"base_weights":[-6.922998E0,-9.5699875E1,1.949213E2,-2.9322685E1,-2.6171066E2,2.6919757E2,2.614365E1,-1.1628781E2,2.734021E1,-3.0259244E2,-2.1180438E2,1.9422862E2,3.3548273E2,-6.4731895E1,5.387025E1,-1.0065924E2,-3.6404898E0,3.680456E1,-2.5308464E0,-2.3019627E2,-3.548158E0,-8.154004E1,-2.184336E2,2.0531415E2,-6.916858E-1,2.2370673E2,3.6463498E2,3.9904785E-1,-1.1367987E0,8.260917E1,-6.0363914E1,-5.5456334E-1,-1.4548239E0,4.5113102E-1,-8.1494784E-1,-1.3687134E-1,-2.4468355E0,-1.7902807E0,5.6718016E-1,-1.5411286E0,-2.5302203E0,1.1912585E0,2.3657932E0,2.3613336E0,6.214685E-1,4.073483E0,2.3362885E0,-6.1131465E-1,4.1286376E-1,1.5347168E-1,1.0729862E0,-1.2046728E0,1.9860758E-1],"categories":[],"categories_nodes":[],"categories_segments":[],"categories_sizes":[],"default_left":[0,0,0,0,0,0,0,0,0,0,0,0,0,0,0,0,0,0,0,0,0,0,0,0,0,0,0,0,0,0,0,0,0,0,0,0,0,0,0,0,0,0,0,0,0,0,0,0,0,0,0,0,0],"id":32,"left_children":[1,3,5,7,9,11,13,15,17,19,21,23,25,27,29,31,-1,33,-1,35,-1,37,39,41,-1,43,45,47,-1,49,51,-1,-1,-1,-1,-1,-1,-1,-1,-1,-1,-1,-1,-1,-1,-1,-1,-1,-1,-1,-1,-1,-1],"loss_changes":[5.1614375E6,2.196192E6,1.0961452E6,7.1276756E5,5.22045E4,2.379685E5,7.403788E4,1.8406781E5,2.4287016E5,2.7965E4,7.231875E3,1.0471825E5,1.94425E4,2.2361559E4,7.721188E4,1.03369625E5,0E0,8.820543E4,0E0,4.3700438E4,0E0,5.0589633E4,2.1074375E4,5.2657875E4,0E0,3.3938438E3,3.353325E4,1.2587172E4,0E0,2.824518E4,2.6501438E4,0E0,0E0,0E0,0E0,0E0,0E0,0E0,0E0,0E0,0E0,0E0,0E0,0E0,0E0,0E0,0E0,0E0,0E0,0E0,0E0,0E0,0E0],"parents":[2147483647,0,0,1,1,2,2,3,3,4,4,5,5,6,6,7,7,8,8,9,9,10,10,11,11,12,12,13,13,14,14,15,15,17,17,19,19,21,21,22,22,23,23,25,25,26,26,27,27,29,29,30,30],"right_children":[2,4,6,8,10,12,14,16,18,20,22,24,26,28,30,32,-1,34,-1,36,-1,38,40,42,-1,44,46,48,-1,50,52,-1,-1,-1,-1,-1,-1,-1,-1,-1,-1,-1,-1,-1,-1,-1,-1,-1,-1,-1,-1,-1,-1],"split_conditions":[2.72E1,5E0,5E0,1.4E1,1.7E1,2.84E1,3.4E1,1E0,1E0,6E0,2E0,1E0,8E0,6E0,4.6E1,7E0,-3.6404898E0,5.1E1,-2.5308464E0,4E0,-3.548158E0,2.67E1,6E0,3.4E1,-6.916858E-1,7E0,4.2E1,4E0,-1.1367987E0,3.7E1,1.8E1,-5.5456334E-1,-1.4548239E0,4.5113102E-1,-8.1494784E-1,-1.3687134E-1,-2.4468355E0,-1.7902807E0,5.6718016E-1,-1.5411286E0,-2.5302203E0,1.1912585E0,2.3657932E0,2.3613336E0,6.214685E-1,4.073483E0,2.3362885E0,-6.1131465E-1,4.1286376E-1,1.5347168E-1,1.0729862E0,-1.2046728E0,1.9860758E-1],"split_indices":[0,4,4,6,6,0,6,3,3,4,5,3,5,4,6,6,0,6,0,6,0,0,4,6,0,5,6,5,0,6,5,0,0,0,0,0,0,0,0,0,0,0,0,0,0,0,0,0,0,0,0,0,0],"split_type":[0,0,0,0,0,0,0,0,0,0,0,0,0,0,0,0,0,0,0,0,0,0,0,0,0,0,0,0,0,0,0,0,0,0,0,0,0,0,0,0,0,0,0,0,0,0,0,0,0,0,0,0,0],"sum_hessian":[2.86E2,1.99E2,8.7E1,1.43E2,5.6E1,6E1,2.7E1,5.6E1,8.7E1,2.8E1,2.8E1,3E1,3E1,6E0,2.1E1,5.4E1,2E0,8.5E1,2E0,1.4E1,1.4E1,2E0,2.6E1,2.9E1,1E0,8E0,2.2E1,3E0,3E0,1.7E1,4E0,2.8E1,2.6E1,8E1,5E0,1E0,1.3E1,1E0,1E0,1.1E1,1.5E1,9E0,2E1,7E0,1E0,1.5E1,7E0,1E0,2E0,5E0,1.2E1,2E0,2E0],"tree_param":{"num_deleted":"0","num_feature":"9","num_nodes":"53","size_leaf_vector":"1"}},{"base_weights":[1.6947665E0,-1.0459731E2,2.1645305E2,-4.600839E1,-2.432053E2,2.7640887E2,5.0774677E1,-1.2982263E2,8.765631E0,-3.0471188E2,-1.7980565E2,2.1002783E2,3.3511188E2,3.8521904E-2,9.788407E1,-1.1425242E2,-3.6162207E0,2.2483576E1,-2.152182E0,-2.3512278E0,-3.4934757E0,5.6434447E-1,-1.8956146E2,1.1878823E2,2.3604147E2,2.3934999E2,3.6273758E2,4.3729248E1,-2.9092909E1,1.7414055E0,3.617041E1,-1.8692802E0,-7.153559E-1,-2.7193224E-1,6.08723E-1,-1.36011E0,-2.2791743E0,1.4051785E0,2.1246499E-1,2.4428394E0,1.0868652E-1,2.5091777E0,6.183606E-1,4.0449767E0,2.3891318E0,-6.0825807E-1,7.680542E-1,-9.363437E-1,4.126714E-1,-2.2164744E-1,8.727148E-1],"categories":[],"categories_nodes":[],"categories_segments":[],"categories_sizes":[],"default_left":[0,0,0,0,0,0,0,0,0,0,0,0,0,0,0,0,0,0,0,0,0,0,0,0,0,0,0,0,0,0,0,0,0,0,0,0,0,0,0,0,0,0,0,0,0,0,0,0,0,0,0],"id":33,"left_children":[1,3,5,7,9,11,13,15,17,19,21,23,25,27,29,31,-1,33,-1,-1,-1,-1,35,37,39,41,43,45,47,-1,49,-1,-1,-1,-1,-1,-1,-1,-1,-1,-1,-1,-1,-1,-1,-1,-1,-1,-1,-1,-1],"loss_changes":[6.6881555E6,1.5805058E6,9.495035E5,6.3926506E5,1.7138175E5,2.062875E5,6.4530266E4,1.5718788E5,2.6600972E5,4.83275E3,8.214406E4,5.7406125E4,8.41625E3,1.9091037E4,5.9586188E4,1.5116506E5,0E0,1.5612466E5,0E0,0E0,0E0,0E0,3.0620125E4,1.8209938E4,4.7456375E4,7.072125E3,3.7804E4,2.5421438E4,4.473429E4,0E0,2.876325E4,0E0,0E0,0E0,0E0,0E0,0E0,0E0,0E0,0E0,0E0,0E0,0E0,0E0,0E0,0E0,0E0,0E0,0E0,0E0,0E0],"parents":[2147483647,0,0,1,1,2,2,3,3,4,4,5,5,6,6,7,7,8,8,9,9,10,10,11,11,12,12,13,13,14,14,15,15,17,17,22,22,23,23,24,24,25,25,26,26,27,27,28,28,30,30],"right_children":[2,4,6,8,10,12,14,16,18,20,22,24,26,28,30,32,-1,34,-1,-1,-1,-1,36,38,40,42,44,46,48,-1,50,-1,-1,-1,-1,-1,-1,-1,-1,-1,-1,-1,-1,-1,-1,-1,-1,-1,-1,-1,-1],"split_conditions":[2.72E1,5E0,5E0,1.4E1,1.7E1,2.84E1,2.84E1,1E0,5.2E1,6E0,2E0,3.4E1,8E0,1.1E1,6E0,8.31E1,-3.6162207E0,2.3E1,-2.152182E0,-2.3512278E0,-3.4934757E0,5.6434447E-1,6E0,1.5E1,1E0,7E0,4.2E1,3.2E1,1.9E1,1.7414055E0,1.4E1,-1.8692802E0,-7.153559E-1,-2.7193224E-1,6.08723E-1,-1.36011E0,-2.2791743E0,1.4051785E0,2.1246499E-1,2.4428394E0,1.0868652E-1,2.5091777E0,6.183606E-1,4.0449767E0,2.3891318E0,-6.0825807E-1,7.680542E-1,-9.363437E-1,4.126714E-1,-2.2164744E-1,8.727148E-1],"split_indices":[0,4,4,6,6,0,0,3,6,4,5,6,5,5,4,1,0,6,0,0,0,0,4,5,3,5,6,6,5,0,5,0,0,0,0,0,0,0,0,0,0,0,0,0,0,0,0,0,0,0,0],"split_type":[0,0,0,0,0,0,0,0,0,0,0,0,0,0,0,0,0,0,0,0,0,0,0,0,0,0,0,0,0,0,0,0,0,0,0,0,0,0,0,0,0,0,0,0,0,0,0,0,0,0,0],"sum_hessian":[2.91E2,1.95E2,9.6E1,1.38E2,5.7E1,7E1,2.6E1,5.4E1,8.4E1,2.7E1,3E1,3.5E1,3.5E1,1.3E1,1.3E1,5.2E1,2E0,8E1,4E0,1.3E1,1.4E1,1E0,2.9E1,9E0,2.6E1,1E1,2.5E1,5E0,8E0,5E0,8E0,1.8E1,3.4E1,3.5E1,4.5E1,1.4E1,1.5E1,7E0,2E0,2.5E1,1E0,9E0,1E0,1.7E1,8E0,1E0,4E0,4E0,4E0,4E0,4E0],"tree_param":{"num_deleted":"0","num_feature":"9","num_nodes":"51","size_leaf_vector":"1"}},{"base_weights":[-6.056967E0,-9.722715E1,2.0359927E2,-4.0932648E1,-2.5666278E2,2.7169266E2,3.3391975E1,-1.2649056E2,1.4988777E1,-3.0352E0,-1.6651521E2,1.9912955E2,3.4739795E2,-9.8973595E1,6.962062E1,-1.1202297E2,-3.5921125E0,2.7947832E1,-2.1349654E0,5.615222E-1,-1.8118993E2,2.0933815E2,-6.887707E-1,3.6788806E2,2.075379E0,-1.2362763E0,-3.311035E-1,1.21302055E2,2.8485727E1,-1.5407073E0,-7.677396E-1,-3.3584893E-1,4.3371275E-1,-9.469043E-1,-2.237571E0,1.3693234E0,2.307848E0,2.4055595E0,4.0616856E0,1.391029E0,-1.05523676E-1,4.5134032E-1,-4.2053303E-1],"categories":[],"categories_nodes":[],"categories_segments":[],"categories_sizes":[],"default_left":[0,0,0,0,0,0,0,0,0,0,0,0,0,0,0,0,0,0,0,0,0,0,0,0,0,0,0,0,0,0,0,0,0,0,0,0,0,0,0,0,0,0,0],"id":34,"left_children":[1,3,5,7,9,11,13,15,17,-1,19,21,23,25,27,29,-1,31,-1,-1,33,35,-1,37,-1,-1,-1,39,41,-1,-1,-1,-1,-1,-1,-1,-1,-1,-1,-1,-1,-1,-1],"loss_changes":[5.486513E6,1.7845641E6,9.99257E5,7.147895E5,1.6911075E5,2.71414E5,1.3157164E5,1.5840762E5,2.7541356E5,0E0,7.552581E4,1.0744175E5,6.756E3,5.649414E3,4.1188727E4,7.265344E4,0E0,8.402369E4,0E0,0E0,4.8771125E4,1.96425E4,0E0,1.9278E4,0E0,0E0,0E0,2.2591969E4,1.7164656E4,0E0,0E0,0E0,0E0,0E0,0E0,0E0,0E0,0E0,0E0,0E0,0E0,0E0,0E0],"parents":[2147483647,0,0,1,1,2,2,3,3,4,4,5,5,6,6,7,7,8,8,10,10,11,11,12,12,13,13,14,14,15,15,17,17,20,20,21,21,23,23,27,27,28,28],"right_children":[2,4,6,8,10,12,14,16,18,-1,20,22,24,26,28,30,-1,32,-1,-1,34,36,-1,38,-1,-1,-1,40,42,-1,-1,-1,-1,-1,-1,-1,-1,-1,-1,-1,-1,-1,-1],"split_conditions":[2.72E1,5E0,5E0,1.4E1,2.3E1,2.84E1,3.4E1,1E0,5.2E1,-3.0352E0,2E0,1E0,4.2E1,1.2E1,6E0,2E0,-3.5921125E0,1.9E1,-2.1349654E0,5.615222E-1,2.8E1,3.4E1,-6.887707E-1,7E0,2.075379E0,-1.2362763E0,-3.311035E-1,1E0,4.6E1,-1.5407073E0,-7.677396E-1,-3.3584893E-1,4.3371275E-1,-9.469043E-1,-2.237571E0,1.3693234E0,2.307848E0,2.4055595E0,4.0616856E0,1.391029E0,-1.05523676E-1,4.5134032E-1,-4.2053303E-1],"split_indices":[0,4,4,6,6,0,6,3,6,0,5,3,6,5,4,4,0,6,0,0,6,6,0,5,0,0,0,3,6,0,0,0,0,0,0,0,0,0,0,0,0,0,0],"split_type":[0,0,0,0,0,0,0,0,0,0,0,0,0,0,0,0,0,0,0,0,0,0,0,0,0,0,0,0,0,0,0,0,0,0,0,0,0,0,0,0,0,0,0],"sum_hessian":[2.85E2,1.99E2,8.6E1,1.48E2,5.1E1,6.1E1,2.5E1,5.8E1,9E1,3.2E1,1.9E1,3.3E1,2.8E1,5E0,2E1,5.6E1,2E0,8.6E1,4E0,1E0,1.8E1,3.2E1,1E0,2.3E1,5E0,3E0,2E0,8E0,1.2E1,2.4E1,3.2E1,1.7E1,6.9E1,7E0,1.1E1,9E0,2.3E1,7E0,1.6E1,7E0,1E0,1E1,2E0],"tree_param":{"num_deleted":"0","num_feature":"9","num_nodes":"43","size_leaf_vector":"1"}},{"base_weights":[-2.3331363E0,-8.70046E1,1.9791742E2,-3.0619268E1,-2.4388025E2,2.6955872E2,5.028049E1,-9.819716E1,3.2152874E1,-3.025184E0,-1.8072054E2,1.9553067E2,3.5030246E2,-2.4404097E1,9.08726E1,-8.5710655E1,-3.5681655E0,5.2279716E1,-7.250284E1,5.5871457E-1,-1.915525E2,2.1239099E2,-3.8249348E1,2.0981955E2,3.8195636E2,-9.674469E1,1.4816711E1,1.2427638E2,-2.2150066E0,-1.47268E0,-6.1570257E-1,3.830463E-1,1.6459762E0,-3.461853E-1,-1.4908788E0,-1.405883E0,-2.3562255E0,1.0161299E0,2.2552557E0,1.1158691E-1,-6.853271E-1,